<?xml version="1.0"?>
<opencv_storage>
<my_nn type_id="opencv-ml-ann-mlp">
  <layer_sizes type_id="opencv-matrix">
    <rows>1</rows>
    <cols>4</cols>
    <dt>i</dt>
    <data>
      640 100 100 11</data></layer_sizes>
  <activation_function>SIGMOID_SYM</activation_function>
  <f_param1>5.0000000000000000e-01</f_param1>
  <f_param2>1.</f_param2>
  <min_val>-9.4999999999999996e-01</min_val>
  <max_val>9.4999999999999996e-01</max_val>
  <min_val1>-9.7999999999999998e-01</min_val1>
  <max_val1>9.7999999999999998e-01</max_val1>
  <training_params>
    <train_method>BACKPROP</train_method>
    <dw_scale>1.0000000000000000e-03</dw_scale>
    <moment_scale>1.0000000149011612e-01</moment_scale>
    <term_criteria><epsilon>1.1920928955078125e-07</epsilon>
      <iterations>1000</iterations></term_criteria></training_params>
  <input_scale>
    1. 0. 3.9001182322161867e+00 -3.3762244801184182e-01
    3.8177946006134555e+00 -3.4088925651331464e-01
    3.5310458478768343e+00 -3.6333633228829176e-01
    3.2490079567156718e+00 -3.9300895207439890e-01
    3.3716242979798015e+00 -1.9560277766813106e+00
    2.9781965730168367e+00 -4.3114584848091442e-01
    2.9305894076934780e+00 -4.4198143877745510e-01
    2.8458253372255542e+00 -2.1601558889731911e+00 1. 0. 1. 0.
    3.7555168379342478e+00 -3.3943914459961910e-01
    3.6828897645444068e+00 -3.4160083222766441e-01
    3.4219280559508869e+00 -3.6403109864640754e-01
    3.1566058461163737e+00 -3.9456994958732239e-01
    2.9602351681242789e+00 -4.2437016667665478e-01
    2.8603477018721715e+00 -4.4326752840245481e-01
    3.4954232293648522e+00 -2.0438980983193189e+00
    3.2454068835015053e+00 -2.1927865992944877e+00 1. 0. 1. 0.
    3.5486685369491560e+00 -3.5453539794698397e-01
    3.4916939678070289e+00 -3.5482537190908781e-01
    3.2889644006337395e+00 -3.7381994399717355e-01
    3.0802606107891992e+00 -3.9942031677894480e-01
    3.3721505775278113e+00 -1.9368656216846667e+00
    2.6473866884996200e+00 -2.1608708042849716e+00
    2.7178386054085304e+00 -2.2471057271506858e+00
    3.4500363523200512e+00 -1.3043708034286698e+00 1. 0. 1. 0.
    3.3894289155223070e+00 -3.7035172654085469e-01
    3.3332747963825988e+00 -3.7052987816284411e-01
    3.6948095749822270e+00 -1.0490423633407842e+00
    3.6074184014614756e+00 -1.2039226830843985e+00
    2.7651603998727197e+00 -2.0867341848083396e+00
    2.6483505662641535e+00 -2.1629997582582816e+00
    2.6938872184625575e+00 -2.2176621616547805e+00
    3.5036605944313890e+00 -1.9890153060357529e+00 1. 0. 1. 0.
    3.2857242657113788e+00 -3.8242654110506036e-01
    3.2203890583958845e+00 -3.8329763698580949e-01
    2.4891906708087217e+00 -1.9548508883545048e+00
    2.5444543393832504e+00 -2.0308239887885482e+00
    3.3831455452017281e+00 -1.0591110123286549e+00
    2.9479021169646473e+00 -2.1699390663549125e+00
    3.3213148248821893e+00 -1.0422309981004951e+00
    3.3383378846020877e+00 -9.6052044608362908e-01 1. 0. 1. 0.
    3.2129788658315941e+00 -3.8998731701287626e-01
    3.1539798946135469e+00 -3.9030080651244065e-01
    2.5014017680653646e+00 -1.9733504070409809e+00
    2.9200340798338233e+00 -4.2258217253228486e-01
    2.8152846835570737e+00 -4.4412526954185882e-01
    2.7798829382737069e+00 -4.5290660433919144e-01
    2.8266863343013013e+00 -4.4653521586925327e-01
    3.6500236535323571e+00 -1.4892476545729516e+00 1. 0. 1. 0.
    3.1568835177903867e+00 -3.9619516152009143e-01
    2.4851152165340502e+00 -1.9482629140724075e+00
    2.5061161556474447e+00 -1.9808679171697841e+00
    2.9100911069651660e+00 -4.2469242068532553e-01
    2.8061086274418288e+00 -4.4651185556535783e-01
    2.7924661221625446e+00 -4.5026625199630238e-01
    2.8634672090357398e+00 -4.3924190988818090e-01
    3.0606247551536248e+00 -2.0115032805171800e+00 1. 0. 1. 0.
    3.1131080287562378e+00 -4.0108058896391852e-01
    2.4960376175466421e+00 -1.9640572822796249e+00
    2.5170589166557247e+00 -1.9950910006345699e+00
    2.5806619529708734e+00 -2.0778264264758204e+00
    2.6409001684999778e+00 -2.1542697160894146e+00
    2.8273957989093725e+00 -4.4286224221894582e-01
    2.9191693648791888e+00 -4.2894769683196687e-01
    2.5351697319386273e+00 -2.0087721784679813e+00 1. 0. 1. 0.
    3.0953430042803132e+00 -4.0299173353974765e-01
    3.0468538962995884e+00 -4.0369051196090722e-01
    3.1439962973775097e+00 -1.9692008787577122e+00
    2.5975521603198071e+00 -2.0990178068819931e+00
    2.6316697990733067e+00 -2.1425054153722565e+00
    2.8725171205987814e+00 -4.3355134686124441e-01
    2.9836344573099836e+00 -4.1800180991684338e-01
    2.5238706387953500e+00 -1.9926836120279656e+00 1. 0. 1. 0.
    3.1098185691530498e+00 -4.0000148179515038e-01
    3.0402780423588935e+00 -4.0587073802127627e-01
    2.9412672003097642e+00 -4.2179136899668462e-01
    2.6217252972098848e+00 -2.1290201993980067e+00
    2.6320396896478844e+00 -2.1430028679514108e+00
    3.2930863764637719e+00 -8.4905805744543161e-01
    3.1882134829780715e+00 -5.6303405883564361e-01
    3.0639857719096018e+00 -1.9625813986620391e+00 1. 0. 1. 0.
    3.1504393859399000e+00 -3.9344256538219652e-01
    3.0645937855388161e+00 -4.0260555691226646e-01
    2.9218945937988297e+00 -4.2623763620990257e-01
    2.6414644418305908e+00 -2.1542037382159838e+00
    2.6416846460185504e+00 -2.1557661743832615e+00
    2.5766839025986346e+00 -2.0704814332095660e+00
    3.0509609972298981e+00 -4.0952173997258789e-01
    3.1211897966167563e+00 -4.0483636730271255e-01 1. 0. 1. 0.
    3.1723570503197549e+00 -3.8959742663492974e-01
    3.0877177894255872e+00 -3.9882895110910199e-01
    2.9177070534514709e+00 -4.2602568759703396e-01
    2.6453109542694557e+00 -2.1603074437567704e+00
    2.6502903020599278e+00 -2.1668376754323151e+00
    2.5921677501726039e+00 -2.0888826496295092e+00
    3.0285267226652044e+00 -4.1493718417367681e-01
    3.1167441080516016e+00 -4.0649705156567889e-01 1. 0. 1. 0.
    2.4884229113976524e+00 -1.9473164653517339e+00
    3.0817065692439494e+00 -3.9978312631964852e-01
    2.9302456444972109e+00 -4.2294304341694844e-01
    2.6280148845976878e+00 -2.1390855020832782e+00
    2.6424032442659628e+00 -2.1557690373224827e+00
    2.8938623312149918e+00 -4.3396633996585249e-01
    3.0099798038150327e+00 -4.1863582008950523e-01
    3.1313115133016716e+00 -4.0367753964616854e-01 1. 0. 1. 0.
    2.5378898855564547e+00 -2.0091835647420413e+00
    3.0224149838237628e+00 -4.1270240489945481e-01
    2.9387076930481157e+00 -4.2377322415240709e-01
    3.6016994745433144e+00 -1.5629093348909735e+00
    2.8847197038536034e+00 -4.3490064332230588e-01
    2.9428798241129188e+00 -4.2705873746352579e-01
    3.0504158476050311e+00 -4.1264298056489135e-01
    3.2199834575831781e+00 -3.9116598598506963e-01 1. 0. 1. 0.
    2.6172753772026272e+00 -2.1028043029330821e+00
    3.0638448277263866e+00 -2.0814950250163569e+00
    2.9645450717433235e+00 -4.2873102084825265e-01
    2.9879826405194909e+00 -4.2318775714488627e-01
    3.0439962706467565e+00 -4.1462037962094417e-01
    3.1250149004418675e+00 -4.0379784965835236e-01
    3.2624578394260970e+00 -3.8714043944495985e-01
    3.4197482861238333e+00 -1.7758939274948526e+00 1. 0. 1. 0.
    2.6715674200621069e+00 -2.1618111416938484e+00
    3.7533336590870281e+00 -1.7597423530047966e+00
    3.0227429598336037e+00 -4.3133193032329042e-01
    3.1212511015752438e+00 -4.1444264108227596e-01
    3.2455093772185997e+00 -3.9643050001894620e-01
    3.3761943388257740e+00 -3.8011141971879303e-01
    3.4023734409111648e+00 -1.7846570184133268e+00
    2.3809238889269912e+00 -1.7797695878961182e+00 1. 0. 1. 0. 1. 0. 1.
    0. 1. 0. 1. 0. 1. 0. 1. 0. 1. 0. 1. 0. 1. 0. 4.2640165167328252e+00
    -1.1984222143836765e+00 3.4478725261006975e+00
    -3.8761631270943503e-01 3.2593647050745869e+00
    -3.9436575681590019e-01 3.1548441035999564e+00
    -3.9748933228678629e-01 3.0937036540503207e+00
    -3.9865727897740538e-01 3.0767360752297175e+00
    -3.9990258672833917e-01 3.0978601432239428e+00
    -4.0231821201466023e-01 3.1356201954309144e+00
    -4.0760881907807606e-01 3.2154761564790628e+00
    -4.1122079926481814e-01 3.3076146272624363e+00
    -4.1118409284709978e-01 3.5508007336720713e+00
    -3.9425796703301091e-01 3.3204066178336284e+00
    -4.0661793648567046e-01 3.0660210866958035e+00
    -4.2527723773967718e-01 2.9199507712274819e+00
    -4.3914526237034035e-01 2.8406562928406105e+00
    -4.4824256569250243e-01 2.8260267577800500e+00
    -4.5274618174874776e-01 2.8580943599949915e+00
    -4.5322836250238951e-01 2.9252725052406983e+00
    -4.4991062658561537e-01 3.7190154979096275e+00
    -1.9245670576617038e+00 3.9300702124178439e+00
    -1.7556524988410127e+00 4.2386905464289653e+00
    -1.4116265968809287e+00 3.9140986151548600e+00
    -1.7358592427593331e+00 3.4114948867628514e+00
    -8.1177146322636184e-01 2.6731568160385226e+00
    -2.1762892961914688e+00 2.7266399268058223e+00
    -2.2477945364446308e+00 2.7649702104604423e+00
    -2.2919648351972652e+00 2.7769768263066128e+00
    -2.2990852872404663e+00 2.9453400855065675e+00
    -2.2664786129886378e+00 3.3112377961146091e+00
    -7.3202353726596747e-01 3.9381693529034933e+00
    -1.3150187288082498e+00 3.4414688392252404e+00
    -1.8889787868882084e+00 2.5086320015521610e+00
    -1.9327043097563850e+00 2.5587544225255479e+00
    -2.0137861299729081e+00 2.6034282675720402e+00
    -2.0818318830129718e+00 2.6543046061448403e+00
    -2.1501365241582930e+00 2.6995028563055188e+00
    -2.2035799440301216e+00 2.7246698160363114e+00
    -2.2281297738904855e+00 2.7008464913531989e+00
    -2.1922885569866373e+00 3.1286536633492936e+00
    -4.3496007089029071e-01 3.3458545736675571e+00
    -4.1174225486705979e-01 4.5646559927680350e+00
    -1.2712000408138691e+00 2.4599811187766591e+00
    -1.8646966743266544e+00 2.4966841623907996e+00
    -1.9273623991362130e+00 2.5283333918318003e+00
    -1.9777166891410531e+00 2.5661043055112862e+00
    -2.0290547497791445e+00 2.6029170973179889e+00
    -2.0737682687881027e+00 2.6201963854015955e+00
    -2.0915927901354858e+00 3.1550393288698029e+00
    -4.2658704102105055e-01 3.3696639300853213e+00
    -4.0714304327753115e-01 3.5897302193822109e+00
    -3.8891874251768760e-01 4.0794460185781602e+00
    -3.5733379329178150e-01 3.8643136429059846e+00
    -3.6305635773164768e-01 3.5569076691859585e+00
    -3.7735348358774390e-01 3.3926013759438591e+00
    -3.8897972448976853e-01 3.2906024260942939e+00
    -4.0058530960331340e-01 2.5460263045486942e+00
    -1.9963425643947479e+00 2.5501960043694401e+00
    -2.0004908210181100e+00 2.5232481622574823e+00
    -1.9612521795102900e+00 2.9851274412822457e+00
    -1.9106077257143559e+00 2.4549998470812482e+00
    -1.8540024628321607e+00 4.0942795194641404e+00
    -3.5589288767608118e-01 3.9077249387094328e+00
    -3.5873538038403158e-01 3.6264729869877179e+00
    -3.7023422897753855e-01 3.4634382682875264e+00
    -3.8079620146357018e-01 3.3580357647918215e+00
    -3.9234735570192913e-01 3.3005207767507292e+00
    -3.9993580980075821e-01 3.3290636952572039e+00
    -3.9722421534121299e-01 3.4705516122546989e+00
    -3.8384503757250982e-01 4.0672691856728775e+00
    -6.7149181571674954e-01 2.9141860576764818e+00
    -1.8474618350342655e+00 2.4181044438719472e+00
    -1.8001157695578345e+00 2.4119898811652853e+00
    -1.8014729253213630e+00 2.7921086789242997e+00
    -1.8409653347507542e+00 3.5345810601260661e+00
    -3.7048127868857750e-01 3.4021317140907281e+00
    -3.8425569079353428e-01 3.3365930899895853e+00
    -3.9213648275556545e-01 3.3827941909788763e+00
    -3.8830655832090166e-01 3.9245182020848701e+00
    -1.6599732186757306e+00 2.4323031572557534e+00
    -1.8306190675493810e+00 2.4330968342931310e+00
    -1.8232542054777012e+00 2.4862942131825156e+00
    -1.8125284713355179e+00 2.4085470405267362e+00
    -1.8021688879714519e+00 2.4121868595032354e+00
    -1.8189925124770538e+00 3.5331215851216138e+00
    -3.6550327990879294e-01 3.4022972614468947e+00
    -3.7924205167856717e-01 3.3480796876012242e+00
    -3.8642738865319698e-01 2.4712387637710131e+00
    -1.9006459456875511e+00 2.4520655006295908e+00
    -1.8678333462545240e+00 2.4391969779741713e+00
    -1.8388452832600968e+00 3.2179024989266751e+00
    -1.8565426132025156e+00 3.8035109718697249e+00
    -3.6220487541103491e-01 3.2167919290332332e+00
    -1.8217148292459966e+00 2.4211237449866045e+00
    -1.8381043452916404e+00 4.0012184229956187e+00
    -1.2130716196725837e+00 3.3433692066858298e+00
    -3.7922913565319510e-01 2.4681643340506212e+00
    -1.9069428052268520e+00 2.4606753574301243e+00
    -1.8903406362314217e+00 2.4537968687553167e+00
    -1.8724454225125613e+00 4.1365245796586319e+00
    -1.5913866524865135e+00 3.7343108471527113e+00
    -3.7382067716471928e-01 3.5800939640684115e+00
    -3.7476102305618669e-01 2.6451661316499915e+00
    -1.9025989427691152e+00 2.4765754399044648e+00
    -1.9194380315622930e+00 2.4835130219704675e+00
    -1.9333018260644117e+00 2.4859410476619033e+00
    -1.9384538751967086e+00 2.4802887062214296e+00
    -1.9281485266780107e+00 2.4698571173101938e+00
    -1.9063571557449821e+00 3.6085167098954707e+00
    -5.4087603059891098e-01 3.5506590432348495e+00
    -3.8103778394942245e-01 3.6255127688522855e+00
    -3.7868881629643614e-01 3.3806444662173303e+00
    -3.9352923958583624e-01 3.1706896027691940e+00
    -4.1140901867754198e-01 2.5911039080891736e+00
    -2.0725708253220514e+00 2.6013047333562453e+00
    -2.0908058160861831e+00 2.5815418273701076e+00
    -2.0676633905260551e+00 2.5474867239361370e+00
    -2.0211023062185784e+00 3.1629025918383236e+00
    -4.0387194538066923e-01 3.2727395266548385e+00
    -3.9850849768854613e-01 3.4254273168253322e+00
    -3.9079450998674170e-01 3.5736751460285809e+00
    -3.8127963478168042e-01 3.2382459850940810e+00
    -4.0982776099681528e-01 2.9955593233765208e+00
    -4.3777181174080659e-01 2.7938019586303091e+00
    -4.6508167501979980e-01 2.7295177517067049e+00
    -4.7436829400912506e-01 2.7460592037078979e+00
    -4.6797083411722312e-01 2.8257673138474759e+00
    -4.5222715293421512e-01 2.9493514706628794e+00
    -4.3486608381811670e-01 3.1056270890451807e+00
    -4.1952951485686463e-01 3.3570723607945023e+00
    -3.9838891708947505e-01 2.4741893190465656e+00
    -1.8886441111637797e+00 3.1601374893454701e+00
    -4.1745826336032027e-01 2.9344331431820012e+00
    -4.4361114935987939e-01 2.7403922903325615e+00
    -4.7223275200367981e-01 2.6668137495390227e+00
    -4.8466433279531962e-01 2.6691063139953837e+00
    -4.8167085679230015e-01 2.7335196138629323e+00
    -4.6827497933939083e-01 2.8624827697665070e+00
    -4.4680493183345932e-01 3.0649918055755889e+00
    -4.2146613170055169e-01 3.3875161799765459e+00
    -3.9035899516499212e-01 4.2609548340974639e+00
    -1.3421761884399523e+00 1. 0. 1. 0. 1. 0. 1. 0. 1. 0. 1. 0. 1. 0. 1.
    0. 1. 0. 1. 0. 1. 0. 2.6395207134545182e+00 -2.1134956059089789e+00
    3.5451856590973434e+00 -2.0527819598172594e+00
    2.6480483815417459e+00 -2.1343301167816175e+00
    2.7107768433322521e+00 -2.0708370550551618e+00
    3.1081677003645161e+00 -4.0985711789534235e-01
    2.5042349956013412e+00 -1.9593290897994622e+00
    2.7545436945052391e+00 -1.9019366404962488e+00
    3.5219417909942208e+00 -3.6684639092636995e-01 1. 0. 1. 0.
    2.6786473017468948e+00 -2.1700016847981827e+00
    2.7356285293199183e+00 -2.2467463328742108e+00
    2.7115876274727273e+00 -2.2222532193936484e+00
    2.6465812171667342e+00 -2.1464920691528668e+00
    3.1413630857529968e+00 -5.9400108366640436e-01
    3.3327929476090841e+00 -6.7134365553748354e-01
    3.2710598968778268e+00 -3.8068410423990912e-01
    3.4368343834928323e+00 -3.6663082821195908e-01 1. 0. 1. 0.
    2.6818259865743923e+00 -2.1810533000935610e+00
    2.7457709763000442e+00 -2.2667656500315769e+00
    2.7312068836670220e+00 -2.2548180178650372e+00
    3.4286323669455920e+00 -2.0464916182976070e+00
    2.8844043497839920e+00 -4.3259254688140508e-01
    2.9980988619588027e+00 -4.1206009979639041e-01
    3.1872266379279526e+00 -3.8659403670465403e-01
    3.3279699987656781e+00 -3.7416867903838946e-01 1. 0. 1. 0.
    2.6601007799441443e+00 -2.1565481846714403e+00
    2.7217609363072022e+00 -2.2407708895415119e+00
    2.7646386509705962e+00 -4.6428977269465466e-01
    2.7969204548921649e+00 -4.5213946213295347e-01
    2.8706896230515415e+00 -4.3340511225873124e-01
    2.9801506604666810e+00 -4.1402199222903696e-01
    3.1355149219416605e+00 -3.9399652053811607e-01
    3.2290452782937638e+00 -3.8679822931246122e-01 1. 0. 1. 0.
    2.6425513037308437e+00 -2.1361888079350879e+00
    2.7030910782839084e+00 -2.2211189896763135e+00
    2.7598752164532101e+00 -4.6157160953068643e-01
    2.8033523978671124e+00 -4.4806405623562773e-01
    2.8869038755575707e+00 -4.2888819427076691e-01
    2.9837059687637000e+00 -4.1286743902935530e-01
    3.0944394266617326e+00 -4.0085009133009297e-01
    3.1412594762192061e+00 -4.0095779935327003e-01 1. 0. 1. 0.
    2.6360997075112289e+00 -2.1301223961833671e+00
    3.1343060005170407e+00 -8.2556699345940843e-01
    2.7495024469289513e+00 -4.6124344118545385e-01
    2.8802977457014944e+00 -5.0595024407438727e-01
    2.5605482918976397e+00 -2.0528481300986412e+00
    2.5278440044157642e+00 -2.0074134192484463e+00
    2.5193740764368417e+00 -1.9894470417673744e+00
    3.0797716359119409e+00 -4.1242128362489594e-01 1. 0. 1. 0.
    2.6319481539902236e+00 -2.1276412081412106e+00
    2.7673447909170421e+00 -4.6125940549976424e-01
    2.7503104667189739e+00 -4.6063689755660348e-01
    2.7027773275309230e+00 -2.1335163484971540e+00
    2.5504590522389772e+00 -2.0382975755994788e+00
    2.5347646130800769e+00 -2.0151398199725024e+00
    2.5409706810215433e+00 -2.0169841637378498e+00
    3.0351207064562971e+00 -4.2073126800992128e-01 1. 0. 1. 0.
    2.6303334556619586e+00 -2.1278290143364922e+00
    2.7727679894438255e+00 -4.5895151844870652e-01
    2.7737187050776839e+00 -4.5595295036162986e-01
    2.8693393774778091e+00 -4.3542434191923196e-01
    2.9577812191896546e+00 -4.1791475835586195e-01
    2.5548317534358223e+00 -2.0406056115349878e+00
    2.5692923322725489e+00 -2.0530969913599662e+00
    3.0112306971970608e+00 -4.2571919569097832e-01 1. 0. 1. 0.
    2.6316812078230019e+00 -2.1309499420346043e+00
    2.6781822615086330e+00 -2.1971631042846087e+00
    2.8156217744950065e+00 -4.4770187362076852e-01
    2.9058490553127849e+00 -4.2933306366678636e-01
    2.9523594121233674e+00 -4.1982787217979706e-01
    2.5839805579139603e+00 -2.0778499831862955e+00
    2.6012715754542155e+00 -2.0929566193763933e+00
    3.0049432241273708e+00 -4.2790904789674455e-01 1. 0. 1. 0.
    2.6468431791360887e+00 -2.1509137055695793e+00
    2.6664638402099348e+00 -2.1823231932475902e+00
    2.6161955387644649e+00 -2.1194167650605729e+00
    2.9481189479705701e+00 -4.2175261692449956e-01
    2.9565391006047479e+00 -4.1953750620324265e-01
    2.8941110484692008e+00 -4.3368130839148722e-01
    2.9251843001534414e+00 -4.3638377454718030e-01
    3.0265366903064583e+00 -4.2659969335074521e-01 1. 0. 1. 0.
    2.6755487009201508e+00 -2.1882548187338382e+00
    2.6747984604027608e+00 -2.1924261907117097e+00
    2.5998692173137417e+00 -2.0984197965876792e+00
    2.9736270006407501e+00 -4.1672387280673850e-01
    2.9662449888561579e+00 -4.1757400884012630e-01
    2.9073465412831516e+00 -4.3237630773270563e-01
    3.0446360444993528e+00 -5.1670951849652802e-01
    2.5754715041158387e+00 -2.0460598044962328e+00 1. 0. 1. 0.
    3.4714755089104146e+00 -1.2880641651441367e+00
    2.6887578151345934e+00 -2.2105377841112848e+00
    2.6053257852560656e+00 -2.1061640331498888e+00
    2.9704487573478202e+00 -4.1683680512747767e-01
    2.9840453483317435e+00 -4.1500027309919496e-01
    2.9595502617493925e+00 -4.2467432101863023e-01
    2.5777567449843319e+00 -2.0552697748940707e+00
    2.5587442317635842e+00 -2.0225084369048569e+00 1. 0. 1. 0.
    2.8055515846157171e+00 -4.5399749464383665e-01
    2.6853865982125429e+00 -2.2067046508458121e+00
    2.6189573079744828e+00 -2.1244805945679945e+00
    2.9412693365568998e+00 -4.2198758778354029e-01
    2.9938924336624382e+00 -4.1475304691443027e-01
    2.5528074319622278e+00 -2.0306294365536259e+00
    2.5533076024064232e+00 -2.0212809714475890e+00
    2.5567164132085303e+00 -2.0176509108731224e+00 1. 0. 1. 0.
    2.9201092146553562e+00 -4.3175591923501611e-01
    3.0101746298238701e+00 -5.9719107855891074e-01
    2.6061171499180458e+00 -2.1077150254578276e+00
    2.9316119666314449e+00 -4.2588140461933249e-01
    3.4241074225555499e+00 -1.8978262269247750e+00
    2.5539693114503454e+00 -2.0275364146024364e+00
    2.5574894667449608e+00 -2.0232676206317177e+00
    2.5818674531230656e+00 -2.0463891989199774e+00 1. 0. 1. 0.
    3.1746059969020854e+00 -3.9363466963160476e-01
    3.0589173821420048e+00 -4.0758408637371191e-01
    3.1569761304117847e+00 -5.6820108001065639e-01
    3.6866927562741227e+00 -1.4187058198424671e+00
    2.5714320551292036e+00 -2.0476224618875740e+00
    2.5812652774631752e+00 -2.0539196238228645e+00
    3.7720069206773297e+00 -1.7655242190828233e+00
    3.0944278476641442e+00 -4.3600856924331560e-01 1. 0. 1. 0.
    3.4321747790163166e+00 -3.6572314536426120e-01
    3.2997517339879736e+00 -3.7922397509083877e-01
    3.6520907788855599e+00 -9.2447432288353271e-01
    3.4413621845937108e+00 -1.9027198496507796e+00
    2.5737992276116866e+00 -2.0386301028416263e+00
    2.6031656384293189e+00 -2.0705089238056709e+00
    3.1080461728716213e+00 -4.3562545161950944e-01
    3.1049950753929023e+00 -4.4275528077839826e-01 1. 0. 1. 0. 1. 0. 1.
    0. 1. 0. 1. 0. 1. 0. 1. 0. 1. 0. 1. 0. 1. 0. 3.7413883670322474e+00
    -3.6595663135022671e-01 2.4808117634699491e+00
    -1.9081312788722233e+00 2.5466701242507459e+00
    -2.0093969187723069e+00 2.6113393258497974e+00
    -2.1024024844634459e+00 2.6704589275564028e+00
    -2.1838049885651687e+00 2.6900034680763212e+00
    -2.2119767135106563e+00 2.6522747243078024e+00
    -2.1632109108318471e+00 2.8909324715346387e+00
    -2.0577249008259635e+00 3.4989960360687169e+00
    -6.2954676370592066e-01 3.6957818205526274e+00
    -1.7405959840570258e+00 3.8193728423145008e+00
    -1.7332427414705485e+00 2.4241608006276172e+00
    -1.8281139636937216e+00 2.4553810277977255e+00
    -1.8844422048186007e+00 2.4804830156509468e+00
    -1.9275593589956623e+00 2.4979935643788731e+00
    -1.9576187992735750e+00 2.4925947573361338e+00
    -1.9538560417667903e+00 2.4626655643163340e+00
    -1.9118034980844911e+00 3.6971290068886282e+00
    -6.7551290994317914e-01 3.6741519111511383e+00
    -3.5065965920888470e-01 3.8776317960359856e+00
    -3.4395766513403547e-01 4.0324893001841691e+00
    -3.4960895958797966e-01 3.8408117648704194e+00
    -3.5511360023508731e-01 3.5669592672380031e+00
    -3.6703039649149766e-01 3.4106139161168967e+00
    -3.7390203473845163e-01 3.3423031091679891e+00
    -3.7374736793546570e-01 3.4034252896766763e+00
    -3.6291408992324864e-01 3.5862105364815458e+00
    -3.4550626004104623e-01 3.7881315107513820e+00
    -3.3325603432037310e-01 3.9836505431994471e+00
    -3.2944316222370135e-01 4.0584081154532470e+00
    -3.3505794336762063e-01 4.0029030579571225e+00
    -3.5956446472254583e-01 3.8238864385333877e+00
    -3.6577620434359570e-01 3.5225541790204309e+00
    -3.7889756334282804e-01 3.3501427079416386e+00
    -3.8636973027194038e-01 3.3070071210265146e+00
    -3.8275805732103807e-01 3.4143243051211698e+00
    -3.6705372947100007e-01 3.6459265691909102e+00
    -3.4572657662697504e-01 3.8455103603821739e+00
    -3.3444707225870601e-01 3.5280589817407217e+00
    -1.7237674219874823e+00 4.5076863404786485e+00
    -1.3399708820119087e+00 3.9897477862786439e+00
    -3.6949974772098498e-01 3.8044971484695198e+00
    -3.7744188900393200e-01 3.4779053156105353e+00
    -3.9197224501406075e-01 3.2968795835487428e+00
    -3.9989421745909787e-01 3.2581657689341883e+00
    -3.9587802120544568e-01 3.3611925787564778e+00
    -3.8080666600730673e-01 3.5501162381148585e+00
    -3.6325649662302756e-01 3.9541790133592536e+00
    -6.0364418505371020e-01 2.8548114316228652e+00
    -1.8240855498696891e+00 4.2180627172355543e+00
    -6.7393892560280644e-01 2.7629387741569058e+00
    -1.8693156816715955e+00 2.4825217688799261e+00
    -1.8840206290022363e+00 2.5154519247935929e+00
    -1.9422901232652348e+00 2.5264896135068606e+00
    -1.9678681239580809e+00 2.8763302235556134e+00
    -1.9646371345673341e+00 3.3674431219328675e+00
    -3.8732456142243665e-01 3.4748479792354803e+00
    -3.7806305449131139e-01 3.5428351427471867e+00
    -3.7586986371036490e-01 3.6674689127067159e+00
    -3.7533060198025664e-01 3.7558380693394109e+00
    -3.7482911028345389e-01 4.3199401499232595e+00
    -8.2216182832266171e-01 2.8619725620708265e+00
    -1.9285607102095699e+00 2.5302861634712874e+00
    -1.9642576915412209e+00 2.5347818185038733e+00
    -1.9773492946735483e+00 2.5169832728302870e+00
    -1.9577229741187778e+00 2.4940200798753027e+00
    -1.9286841895790854e+00 2.4879825251052456e+00
    -1.9190836097853992e+00 2.4949970014008538e+00
    -1.9236437928669756e+00 3.5666600627361738e+00
    -3.8808653432972545e-01 3.6928007940226371e+00
    -3.8163619006130139e-01 3.7027515702646530e+00
    -3.8297376953796630e-01 3.4609043304997016e+00
    -4.0038129620619378e-01 3.2378315313436210e+00
    -4.1641682367154403e-01 2.5663468840643047e+00
    -2.0200462733159350e+00 2.5397711272293888e+00
    -1.9871171208759044e+00 2.5177798555904016e+00
    -1.9590393931817229e+00 2.5135856745765857e+00
    -1.9529550106523819e+00 3.3719193780498649e+00
    -3.9863746403515171e-01 3.5411335444871779e+00
    -3.9165594278032639e-01 3.6988686309876249e+00
    -3.8176486892757389e-01 3.5512911983977982e+00
    -3.9362126332160452e-01 3.3031422979875322e+00
    -4.1431544603344500e-01 3.0960534390783607e+00
    -4.3211732663356583e-01 2.6126403435987196e+00
    -2.0851149929453880e+00 2.5792189179965188e+00
    -2.0439338092577346e+00 2.5526211072288505e+00
    -2.0089813289404268e+00 3.2444207362279363e+00
    -4.0747548211463996e-01 3.3588873590601538e+00
    -4.0100453166334327e-01 3.5853429899139049e+00
    -3.8759491844531035e-01 3.7584282455503590e+00
    -3.7662955333262366e-01 3.3717974878454928e+00
    -1.9479159924992249e+00 3.2164996730737561e+00
    -4.2173818179528588e-01 3.0201116676438708e+00
    -4.4071780893579970e-01 2.9712240292579897e+00
    -4.4319597244934994e-01 3.6927918990760449e+00
    -1.3196885626509649e+00 3.0467197172896077e+00
    -4.2913326557394499e-01 3.1621385298091651e+00
    -4.1896000126708877e-01 3.3570757141531793e+00
    -4.0351279221408515e-01 3.6394527568912944e+00
    -3.8364534793049720e-01 2.4598209977659455e+00
    -1.8580980222302810e+00 2.5279239584368169e+00
    -1.9611857554234218e+00 3.2150524472286901e+00
    -4.1612305287218887e-01 3.0505006589079926e+00
    -4.3015870731995726e-01 2.9746799609688153e+00
    -4.3675592365239801e-01 2.9470807778926962e+00
    -4.3847121308328635e-01 2.9801739443820146e+00
    -4.3586905117441926e-01 3.1230987309936231e+00
    -4.2336748191760032e-01 3.3672942430073842e+00
    -4.0188836491049007e-01 2.4740153667423970e+00
    -1.8823624687721123e+00 2.4579233711331927e+00
    -1.8564194806359355e+00 2.4976508554265644e+00
    -1.9237106576125631e+00 3.9636745756992853e+00
    -1.2027023848001070e+00 3.2222200054037335e+00
    -3.9920153035492467e-01 3.1323061553231399e+00
    -4.0629901413485114e-01 3.0554564074454342e+00
    -4.1590987929751849e-01 3.0525027852332451e+00
    -4.2110383911996735e-01 2.5509401753407661e+00
    -2.0071512926528841e+00 2.5022481245360999e+00
    -1.9320650333557985e+00 2.4630535756563297e+00
    -1.8703450240288948e+00 2.4580017299230676e+00
    -1.8578278431551800e+00 2.4561612639542227e+00
    -1.8682147660201693e+00 2.4400053059346201e+00
    -1.8585325165967259e+00 2.4270388645986936e+00
    -1.8535006380635857e+00 2.4319803709921235e+00
    -1.8670428352054984e+00 2.4567399952628626e+00
    -1.9024667731662692e+00 2.4833648113918945e+00
    -1.9331454195590601e+00 2.4844258477647672e+00
    -1.9239289013586494e+00 2.4650349593986567e+00
    -1.8873389927638593e+00 4.0923346526213047e+00
    -1.6339892956500341e+00 3.7944658046010145e+00
    -3.7163735046234458e-01 2.4459433518085065e+00
    -1.8565369680436430e+00 2.4350874817402843e+00
    -1.8546143654054490e+00 2.4241760100123684e+00
    -1.8539333715208977e+00 2.4239355419403004e+00
    -1.8614110458752966e+00 2.4381484911270719e+00
    -1.8818868947401697e+00 2.4583379918980435e+00
    -1.9045649731062415e+00 2.4714951626218831e+00
    -1.9122016234569414e+00 2.4764584179523270e+00
    -1.9075733660981806e+00 4.1714882142337659e+00
    -1.2162679766971851e+00 3.6339156743701473e+00
    -3.8572821752050929e-01 1. 0. 1. 0. 1. 0. 1. 0. 1. 0. 1. 0. 1. 0. 1.
    0. 1. 0. 1. 0.</input_scale>
  <output_scale>
    5.2631578947368418e-01 4.9999999999999994e-01 5.2631578947368418e-01
    4.9999999999999994e-01 5.2631578947368418e-01 4.9999999999999994e-01
    5.2631578947368418e-01 4.9999999999999994e-01 5.2631578947368418e-01
    4.9999999999999994e-01 5.2631578947368418e-01 4.9999999999999994e-01
    5.2631578947368418e-01 4.9999999999999994e-01 5.2631578947368418e-01
    4.9999999999999994e-01 5.2631578947368418e-01 4.9999999999999994e-01
    5.2631578947368418e-01 4.9999999999999994e-01 5.2631578947368418e-01
    4.9999999999999994e-01</output_scale>
  <inv_output_scale>
    1.8999999999999999e+00 -9.4999999999999996e-01
    1.8999999999999999e+00 -9.4999999999999996e-01
    1.8999999999999999e+00 -9.4999999999999996e-01
    1.8999999999999999e+00 -9.4999999999999996e-01
    1.8999999999999999e+00 -9.4999999999999996e-01
    1.8999999999999999e+00 -9.4999999999999996e-01
    1.8999999999999999e+00 -9.4999999999999996e-01
    1.8999999999999999e+00 -9.4999999999999996e-01
    1.8999999999999999e+00 -9.4999999999999996e-01
    1.8999999999999999e+00 -9.4999999999999996e-01
    1.8999999999999999e+00 -9.4999999999999996e-01</inv_output_scale>
  <weights>
    <_>
      -2.9374444379918177e-03 -2.6769055257860988e-04
      2.2390692052149910e-03 -1.6647843898284988e-03
      -9.7687448009856396e-04 1.4916536832400415e-03
      9.9558586356735868e-04 -1.4857103193858170e-03
      1.2761382129654469e-03 1.9092833326242703e-03
      -3.0808282304366258e-03 -3.1424954992175285e-06
      -1.7274664660136957e-03 -4.6523243138617639e-04
      -2.9284688666085549e-03 -3.0686097373850498e-04
      -1.0818695221591252e-03 -3.7761142740072833e-04
      -1.5253344843251027e-03 1.8019492570135413e-03
      2.9060488126446326e-03 -2.3298897126490651e-03
      2.6087756964920591e-03 3.0982344429437798e-03
      -1.0277730809274007e-03 9.7980395829463810e-04
      2.1642658376379142e-03 -2.6815974869247449e-03
      3.0442505266123228e-03 -2.4148724514671490e-03
      1.1852718983549687e-03 -2.4735982236373500e-03
      -5.3382329710212166e-04 1.0263795913237619e-03
      -2.5839266480804156e-03 2.0071646606579152e-03
      -2.7979404555183943e-03 2.2501763077311093e-03
      1.7909351014051911e-03 9.0235815575715915e-04
      -3.0054955144383274e-03 9.7807727732304966e-04
      -3.0024656337293192e-03 -1.6884438202939432e-03
      -2.7535313306603065e-03 -1.8169997937710377e-03
      1.5550599780553070e-03 -3.0420228719211266e-03
      -2.3100439855112923e-03 -2.2533205586200171e-03
      -1.4146929101014646e-03 -2.1888726172122103e-03
      1.8063088016782726e-03 1.8088592162589833e-03
      -2.8268302957960775e-03 -3.1564263722190784e-03
      8.6727909032451955e-04 -2.9277331522978962e-03
      9.0038254711702315e-04 -8.5026737182382405e-04
      2.5565422499766116e-03 7.8169814245330615e-04
      -4.4150783406066373e-05 1.8698826464714192e-04
      9.5494331465605965e-04 -1.1965683165071864e-03
      -2.8916702099271931e-03 -3.8054748901472668e-05
      2.5516066197089934e-03 -2.1912901104686531e-03
      -7.8044198198055437e-04 2.3612155785566434e-03
      1.9030609205418797e-03 1.3537105880946107e-03
      -1.6756413142645663e-03 -2.4611030794455201e-03
      1.3955055265256036e-05 -9.5890545732852468e-04
      1.9363157591455278e-03 2.9347348823033272e-03
      1.7696922947950859e-03 -7.6638865869432088e-04
      6.8090565106592870e-04 -1.4089304925579502e-03
      -1.9669535511153348e-04 -1.4756587874072702e-03
      1.6598308455722084e-05 -2.1424967929118432e-03
      2.4428815045735935e-03 -2.6391326926272851e-03
      1.9549762970783205e-03 5.2642223615275438e-04
      6.8799208220712946e-04 2.5745852810513167e-03
      2.0359502397524218e-03 1.3392726715415185e-04
      2.9202975503320083e-03 5.3075278374716916e-04
      -1.4108127424823894e-03 -1.8832762923863659e-03
      -4.8836097437157955e-01 -7.3041633880857895e-02
      1.2447959395910620e-01 1.4818328163237360e-01
      -1.6197324899081286e-01 -5.4364171876854599e-02
      -5.8193125366959302e-02 4.8588316526775178e-02
      1.5955387338839305e-01 1.1615915489654008e-02
      -1.1047527089124083e-01 2.6750798478079992e-02
      8.0594258175214137e-02 -1.1874434437957447e-01
      2.8311730319726960e-02 2.9223150277686519e-02
      -4.7117031187742187e-02 6.8663445481867078e-02
      4.0099353601207664e-02 2.9608258835300230e-02
      -9.3634843797409287e-02 -6.7144930982482740e-02
      -1.2688878168551662e-01 -1.4541198132645409e-02
      -7.5867019406108585e-02 -6.2749064353408462e-02
      8.9425044882406671e-02 -1.0593613291343398e-01
      1.1833468229811069e-01 -6.6170379728581669e-02
      1.0357308403478574e-01 -3.7503495148400868e-03
      -2.8526448362616075e-02 4.7450320254670747e-02
      -1.4322410689010953e-01 4.5634746714392407e-03
      2.0678236366580652e-01 -4.7497160512337419e-02
      -8.1014239958408993e-03 1.4107252603444403e-01
      8.2669997880309293e-02 -1.9830340206287021e-03
      -8.6457589116410410e-02 6.1418365663096455e-02
      -1.3897177703315070e-01 -4.1055479056944108e-02
      4.0137256100827530e-02 -2.6829015984910439e-02
      -4.9245317919643927e-02 -1.1387356062021382e-01
      3.5601356933220585e-02 -3.7956838307655047e-02
      -2.1500907153738089e-01 2.4820773341652950e-02
      3.3125191430497976e-03 8.6261542949110457e-03
      5.0685471578232305e-02 7.9833533788759084e-02
      4.7644703549863054e-02 -2.3327814887768760e-02
      -7.9969390002478949e-02 4.5965678367648359e-02
      5.2255555222806387e-02 1.6407158079385303e-01
      -1.7551744975312686e-01 -1.6779930450658201e-01
      -4.7334236158925583e-02 1.4285538762620312e-01
      4.8526589776006823e-02 -8.0469638926177089e-02
      -6.0354979017429942e-02 -1.1790681558409029e-01
      5.8712034052907723e-02 -3.3706066868272183e-02
      -9.4812536140321743e-02 -1.9724202788780107e-02
      -8.4354990918002332e-02 -2.5449698701551941e-02
      1.0737744867343245e-01 7.6932904534812108e-02
      9.7422806270237569e-02 2.0688499098225625e-02
      6.5053289228193881e-02 -2.2602483419408037e-01
      4.3182923603997690e-02 2.5171370433491297e-02
      -2.0410101733033806e-01 -1.9787573993917291e-03
      1.8423723505335940e-01 2.1690090628332492e-01
      1.1592849127449016e-01 7.2681977283807819e-02
      1.5777049434890997e-01 3.2839882505004817e-02
      1.8062503186056844e-02 6.0881508587212751e-02
      3.8234813133656356e-02 -3.9434237212959911e-02
      -1.1554157104934003e-02 4.8081599535655169e-02
      -8.9511797488779121e-01 -5.4102021001236421e-02
      4.7265274833782692e-02 7.3944623742762186e-02
      -2.0023169527157283e-01 7.8626674325135482e-02
      -1.4169331304076729e-01 -4.3174049949553400e-02
      3.7802494533002023e-02 -2.1029407199029393e-01
      -2.3616342737531500e-02 1.7509660392894161e-01
      1.6323812385719261e-01 -2.8766567224178623e-02
      -4.8178268304264485e-02 3.5762849645293977e-02
      -3.3666987227943188e-02 -1.5129624546754139e-01
      -3.0253981105400146e-02 3.0399691404548672e-02
      -5.2202391194172984e-02 1.6641521583338103e-02
      -7.9535745983112804e-02 -1.5907224310179333e-01
      5.7578038835625983e-02 -7.5197193075589308e-02
      8.2384508234053674e-02 -1.4640885917634591e-01
      7.0624663071668398e-02 -4.9679602929929102e-02
      1.0374495985400486e-02 -1.3916841855878262e-02
      -6.6475599730922976e-03 2.9991934057449442e-02
      -1.8651429439595940e-01 2.1477610352069770e-02
      -1.0119736440290310e-01 -1.0941010174082946e-01
      -1.0112431912569890e-01 -1.1979722687541411e-02
      7.7903151444786878e-02 -2.0743358115256094e-01
      3.4627050081795716e-03 1.5732135802782207e-02
      1.0922772867768922e-01 9.1881195959773579e-02
      1.2791792788655418e-01 9.9361740282794386e-03
      7.9124611040687035e-02 -2.2271053963226672e-01
      4.2802268658071428e-03 -1.9116704877893742e-02
      4.0668140397261115e-03 -3.8659115186911230e-02
      1.1654636939414066e-01 2.9527701793864748e-02
      -2.4550852878479665e-02 3.7306236450117679e-02
      3.6835718318814915e-02 -1.5736418688944272e-02
      -6.4708681048707362e-02 5.3557064500067565e-02
      1.5147574712227196e-01 -1.8195673379709534e-01
      -1.5480443659853857e-01 -8.4676899040929551e-02
      3.1399983127279617e-02 -1.9372089474752059e-02
      -4.2578369233076764e-02 -7.4217948436882550e-02
      -8.3133137427294737e-02 7.3978142958931792e-02
      -4.3442247460853158e-03 7.2780363984557866e-02
      4.3841376021008231e-02 -5.3490669104670027e-02
      -6.3255844830422972e-02 -8.8650421237251465e-03
      -6.4975158562707247e-02 -3.6180156479799115e-02
      2.9589210531495919e-01 3.7877501612547472e-02
      -2.6870319698573453e-02 -1.4509726851318508e-01
      -2.9938848404814370e-02 -8.3791107145085253e-02
      -3.4278131639139092e-02 1.3257282528065606e-01
      -9.3016973576070625e-02 3.2364611906169605e-01
      1.0254161157226269e-01 7.5915130607469350e-02
      2.5913611318486251e-02 2.7697541352807647e-02
      -7.5854301619088779e-02 -3.2053302128331723e-03
      -4.0752085981308625e-02 -5.9591912046002213e-02
      -4.8770945350014271e-02 1.1641850898179895e-01
      -8.5598817487110379e-01 1.9107366757633323e-01
      9.8205908490636817e-02 3.2521487177280359e-02
      -3.8628130725218153e-02 4.5589073187657467e-02
      -7.4286153986269851e-02 -4.5380470686496782e-02
      1.8467398843727272e-02 -2.2985599901444234e-01
      5.7746910727465205e-02 2.6083087303991177e-02
      6.7251884970083206e-02 1.3142957353927967e-01
      1.0983193040043346e-01 -1.1774915585763008e-02
      1.7618862877570496e-03 3.9757178491946883e-02
      -2.4651424438088357e-01 -6.2431743961913672e-02
      -1.4683319111207940e-01 -3.4151881741489769e-03
      -1.1622666798065177e-01 -3.4524208121277884e-02
      -4.7853718769124851e-02 -3.9426471199562052e-02
      -2.4478217037133834e-02 -1.8461621752550994e-01
      -5.9234540098792886e-02 1.7175747657818105e-01
      -6.3471551126048811e-02 1.8631625077662564e-01
      1.2897223129836077e-01 3.8678694347413459e-02
      4.8343097542517477e-02 -7.6998795494954680e-03
      -7.2066320649750659e-02 1.1267372350098284e-01
      1.0330988169854373e-02 -8.6427817869873441e-02
      1.5041277929209620e-01 -4.3072567570816539e-02
      3.4167317246620012e-02 6.3334233032952048e-02
      1.8233730956244826e-01 -1.2361543009498223e-02
      1.1014405090925634e-01 -1.5049119127060561e-02
      5.7966093512613705e-02 2.2019795832204023e-02
      -1.5486309016326605e-02 1.3052718911482900e-01
      6.9427559859553322e-03 8.3380062722016549e-02
      1.7245833838214743e-02 7.5094585182052698e-02
      -2.4159292089167713e-03 5.9977974813668275e-02
      -9.3085439431366324e-02 -1.1854847623997904e-01
      -8.7041186460879258e-02 1.4613406759983666e-01
      -6.3055061715964311e-02 -1.4733754030699142e-01
      1.5422582390877250e-02 6.1839235079271034e-02
      1.9657651922646190e-02 -6.3847304539762090e-02
      -1.1011823459887471e-01 -9.5692851688253172e-02
      -1.4002481943955512e-02 4.0433578695076598e-02
      1.5118194469410828e-01 1.4349199037729610e-01
      -1.7655970724774907e-02 1.5928048799725009e-02
      8.1859390345591074e-02 -6.5370383354852336e-03
      2.2983887604046602e-02 -3.8148014968477473e-02
      2.0160952773450452e-02 -2.2848886325739073e-02
      9.7071108171634071e-02 -7.0215859338215669e-02
      -1.0437842405221448e-01 -5.5240085937871414e-02
      3.9725078554472756e-03 9.7894222736004080e-02
      -1.3489241120084991e-01 2.3642672391221592e-01
      -9.2530604117079904e-02 2.0717172040143721e-02
      -4.6430312495543115e-02 1.1644289693142870e-01
      3.1278095014439962e-02 -1.1149874587248962e-01
      -2.2706098325415647e-02 2.0873513793447488e-02
      -6.3391470123015839e-02 2.1527952490724181e-01
      -4.4954940951410399e-01 -3.1355909035869364e-02
      -1.1596047400725117e-01 -6.6373875373082702e-02
      1.0541567652951328e-01 3.9099325950408903e-03
      2.6858481214363697e-02 -1.4044028805536282e-01
      -3.7566434134984519e-02 -1.1492974985886513e-01
      1.0935426350349917e-02 9.6481711958376570e-02
      -3.0747965261462774e-02 1.1199726790898375e-01
      1.4156460242854585e-01 2.0202818797041846e-03
      1.8814291273622476e-02 1.6870898356149550e-01
      -1.1231158096007612e-01 4.9983766737127448e-02
      -7.6562517438511557e-02 5.5494942245427094e-02
      -4.9023122589187250e-02 -3.1165203680072629e-02
      -7.8421885599551003e-02 -7.2634156091992211e-02
      -2.0349379735249966e-02 -1.5940198887794587e-02
      -3.8609431418370407e-02 3.0276401625893866e-02
      -1.3446055956265188e-01 2.7117622631864981e-02
      4.8701262106766285e-02 6.6604467291951908e-02
      3.7834525446885349e-02 -4.4437724688852084e-02
      -2.0568148775354411e-02 6.1725238381651101e-02
      -5.5375483989657644e-02 5.2254156385543885e-02
      -6.2110623849326741e-03 2.3182060965093367e-02
      -2.1474340072083364e-01 -2.9270757914112690e-02
      -2.4630532339893127e-01 -4.8580343865172862e-02
      1.2759125728531936e-01 -8.0054539342835962e-02
      1.0906668914694988e-01 -1.3573092456132205e-02
      3.2887104370348003e-02 1.1130644100619871e-01
      7.4801908171425652e-02 1.1556634216927551e-01
      -2.6530644473793993e-02 2.5375900425779762e-02
      -2.1096459544472767e-02 -7.9686637853258774e-02
      -9.3785048886209366e-02 -4.5275406219089855e-02
      -5.7374501887226682e-02 1.0548427613190121e-01
      -9.4349482101822688e-02 -1.5954378460491897e-01
      -7.3733904157957811e-03 -9.2352042284496352e-02
      -3.2998582057030629e-02 -4.6924595173426363e-02
      -5.1015409074802148e-02 -1.3123199638409644e-01
      1.2633755529196097e-01 -1.4174018725360782e-01
      3.2766647550794104e-01 8.1083943573143677e-02
      2.0807261192931848e-02 5.1059400173414760e-02
      -2.4606576375500368e-02 -4.9405197492641446e-02
      2.1358808904965419e-02 -6.8934619378294995e-02
      7.1174293075028400e-02 -6.1021262527069998e-02
      1.9799904788719715e-02 -8.6566252539124283e-02
      -1.6332246715316218e-01 -6.5239678795215444e-02
      3.1116435072983818e-02 -1.5192231112350749e-02
      4.5101792897199337e-02 2.8362896355299771e-01
      -8.3627313588373983e-02 1.5203937802532692e-02
      5.1424778749684139e-02 -8.5809054409101380e-03
      -7.3455592145848181e-02 -1.0352847724970415e-02
      -1.0543485378412089e-01 2.3823954809793305e-01
      -1.8253435799418273e-03 2.5425976310616616e-01
      -2.5861987518868185e-01 -8.1824319228340000e-04
      -1.6277460856921336e-01 1.1044645719584283e-02
      -8.0898979224539785e-02 1.9873767056691947e-02
      -6.0105999172221126e-02 -6.6738562532962967e-02
      2.5884515616451449e-02 -1.3904145019040950e-01
      3.2503011769981265e-02 1.4694504442967091e-01
      -9.4371669137514394e-03 -1.6270888638682994e-03
      -1.7316913259890018e-01 -5.4014155890338027e-02
      1.6107223307011609e-01 3.9615597936940569e-02
      -5.5386033980673988e-02 -9.0081648482881069e-02
      7.3537787557625370e-02 -1.5399796179215763e-01
      -1.3726065053685541e-01 8.0793433309353790e-02
      -7.0242975667299992e-02 9.6211034371237431e-02
      -3.2908918527899775e-02 -6.7501893791826126e-02
      1.0852528122235156e-01 -1.8105628468988061e-01
      -5.6132025984730466e-02 1.7141541453140605e-02
      2.7717645174549760e-01 6.6504567069753634e-02
      1.0054524965408257e-01 -1.1848316633040971e-01
      3.4954399411519475e-02 -1.6499243724783413e-01
      9.3809798468079172e-02 2.8656279884318307e-03
      -1.6050593931859564e-01 -3.8791741214182690e-02
      -9.2146054148199708e-03 -2.2316915761830383e-01
      -9.2110446496558182e-02 1.4280321221638492e-01
      1.1639078100774243e-01 6.2063913336706848e-02
      -1.4151129672955590e-01 4.4036322047367737e-02
      1.2908373532518014e-01 2.1733023534588689e-01
      9.3250402706156657e-02 1.4056038578807747e-01
      6.2799217249014981e-03 -1.7069801628207350e-02
      -5.1261171493860697e-02 -7.6785103012337068e-03
      -6.8294168847420123e-02 1.5426541781146006e-02
      1.1975194115142054e-01 8.7751408679687587e-02
      -1.0738345449042835e-01 4.7347561709147362e-02
      6.4087261824419511e-02 -6.6425486029367667e-02
      7.1509199900329931e-02 1.1612761015439456e-01
      1.8527347938247056e-02 -2.1334274823354399e-02
      1.2205611354219235e-02 -6.9021315779537629e-02
      4.5556027235940495e-02 1.7721997821044302e-01
      1.4692186206165678e-01 1.2996804807528899e-02
      -9.9882258868445470e-02 -8.8156935860914082e-02
      3.7140318825129187e-01 -6.8865883903777264e-02
      1.1851992397132456e-02 -2.4756526379960098e-01
      -7.3652349128045941e-02 -1.4933203849682733e-01
      -4.8311298369246650e-02 1.7828019227481556e-01
      -3.3356627384834046e-02 2.0971600015080600e-02
      -7.2435824991511537e-03 2.3220743334503044e-01
      -2.4790049025807023e-01 -1.5704492687039218e-01
      -7.4452917622848225e-02 -4.6984578409241355e-03
      -7.6772853531506110e-03 -2.1617143106119247e-02
      8.7001906104331988e-03 1.0852644767950040e-01
      -2.3196613408266537e-02 1.3439402760622660e-01
      -4.3174401714403698e-01 5.2140936526260132e-02
      6.3162876320694589e-02 -8.5679157731214955e-02
      -5.2575207202570480e-02 8.2634538640968345e-03
      -1.1095437699933026e-02 -8.3425013813110752e-02
      8.8993026026969332e-02 -6.7213074091611855e-02
      -1.0856864260627154e-01 -6.0571056072230962e-02
      1.2992573211956895e-01 5.4061331048813395e-02
      1.5130433401536442e-01 2.4129354863078201e-02
      1.3486634070199238e-01 -9.7784842304431477e-02
      2.3661807154047764e-02 -7.7664015792613311e-02
      -1.9164699939498878e-01 1.3075325141851171e-01
      7.7770501502543096e-03 8.3432825905546432e-02
      -1.5015450982747525e-01 1.4310780157352855e-02
      2.3104585852992726e-01 3.8222430036421035e-02
      2.2757308586320982e-01 -1.5609521984189020e-01
      1.2674892311585577e-02 -9.7382208191889488e-02
      7.3888005284690000e-02 -1.1458047671512406e-01
      -2.5056985651995208e-02 -1.8880717628353541e-01
      8.0902687270197851e-02 1.6231003347293280e-01
      1.1987380106487125e-01 1.4316962963773597e-01
      -1.9315192739508122e-01 7.5899384753105523e-02
      4.7312500781952774e-02 -8.5905885824981251e-02
      -1.8605354351443632e-02 7.6777749184693883e-03
      -1.7906467870814963e-01 1.3364004464697685e-01
      5.3216260153892511e-02 -9.5776662595431578e-02
      1.2526925546415907e-01 3.6341082211684819e-02
      5.3587001873139833e-02 8.4482976631568119e-02
      5.2439511364529845e-02 -3.9290781671826027e-03
      1.2405198801102616e-03 1.5727989747988971e-01
      4.5423526664636589e-03 -1.2021335697781807e-01
      -1.2115160367425953e-01 -2.4743850990978734e-02
      1.0382839930156705e-01 -4.3585120260768800e-02
      -3.5208461825039741e-02 -9.9338187127463017e-03
      -6.8400975111498452e-02 3.0762293714415440e-03
      1.1807429425775508e-01 -9.3455888857456329e-02
      -9.0295425513545177e-02 8.2636643783175090e-02
      8.4671363800474811e-02 1.2848274924698819e-01
      5.0026366592192742e-02 -1.2800314030768387e-01
      -1.4741649414640236e-02 -2.5460910599073722e-01
      1.4224614271254127e-01 -1.2289015642777658e-01
      -1.4467046175760973e-02 -4.1231821486478880e-02
      3.0398628635335132e-02 -1.9708254590199487e-01
      -1.2301272789449855e-01 1.0471608843050121e-02
      -2.0635280830235411e-02 -6.0891465537657424e-02
      -3.1638787375293971e-02 5.4700262400097538e-02
      -1.6123717800911155e-01 -6.4886373164453476e-02
      2.2719106133236730e-02 -7.6785049732722876e-02
      4.1959110421974422e-02 -1.5785455479666137e-02
      -7.0910929636044562e-02 6.0232359617056967e-02
      -4.4626568006822347e-02 -1.0145980110241851e-01
      -4.4723243432776186e-02 -1.8850435692679645e-02
      -1.1039205513816666e-01 -8.6723994833110440e-02
      6.0911067032421766e-02 7.1197643314349635e-02
      -5.2151960206540920e-02 6.7236796271694821e-02
      2.9089165254469380e-02 -8.3940977494310565e-02
      -1.3844328013047965e-02 -3.9737501314379343e-02
      1.2786157362351603e-02 3.9097072703757368e-02
      2.4999244982136740e-02 -1.2320006296496428e-02
      3.1162598765669118e-02 -2.4874425403955902e-02
      -1.9483842322898229e-01 6.7487721342756740e-02
      -4.5164123333540356e-02 1.8040059475631065e-01
      1.2133899963098081e-02 4.8529917192152612e-02
      2.2271770955796605e-02 -2.6879449070065474e-02
      3.2613691962851815e-01 1.3357417040706834e-01
      1.0223501523545292e-02 3.2524472673175576e-02
      -7.9491411381354144e-03 2.0381122522117098e-02
      5.2985365869851475e-02 -1.5236758781475018e-01
      -2.1000856723710060e-01 -6.1019983879248889e-02
      9.5787756895122825e-02 2.3236600796934415e-01
      1.6702231410175439e-01 2.1676485722498534e-01
      1.2065819417373896e-01 -5.8109773647689886e-03
      7.9596947927767794e-02 -6.0472760407995256e-02
      -7.3131897152994244e-02 -3.1755993634326241e-02
      -1.5342171237586683e-01 4.4427818082048084e-02
      -1.1483835946182532e-01 -4.4703384060851843e-02
      -4.5814640349540053e-02 -1.4811472102148221e-02
      -7.3202937155473118e-03 3.2086344642841595e-02
      -1.9742530269070713e-01 -6.8935171339897317e-03
      5.8651542305703977e-02 8.8718027222211282e-02
      1.6194806493462718e-01 -4.7621352205976970e-02
      -1.7888406773520002e-01 -1.8589719209077878e-02
      1.8254572497097887e-01 -3.8462036157965729e-03
      -5.8774823189931399e-03 1.7120987661192621e-01
      -1.0042081745862118e-01 -2.2938461783369601e-01
      1.8021731201765451e-01 3.1834277036798163e-02
      -1.4738710359376925e-01 -2.4349481422564416e-03
      -3.5741524114943989e-02 1.9742845173525103e-01
      9.2554217344046716e-02 -2.2584502808777319e-02
      -8.7590430768707442e-02 -1.3656691767301507e-02
      6.0817277243806478e-02 -1.3764840803870457e-01
      1.1608988152301371e-01 -1.0802709210070127e-01
      -2.4257631271654059e-02 2.7532118750736695e-01
      -2.2813538931160088e-01 -1.3381793503137307e-01
      -1.0585688715632723e-01 -9.5060364625805197e-03
      -1.7162055383712344e-01 9.9606073739063494e-02
      -1.0677614612907600e-01 1.4355844667435391e-02
      4.5989873683605867e-02 -2.6918407236366220e-02
      -9.3214446758857192e-02 4.2528762207107440e-02
      7.6257998521780931e-02 1.1293458450288364e-01
      -1.0214131446174904e-01 -2.1551886050278535e-01
      1.2280121505516188e+00 -8.6486528479140429e-02
      -1.6449719941915028e-01 -1.1367673292062330e-01
      -1.6096644780221303e-01 -9.6392260181095549e-02
      -2.4263106195814732e-02 -3.4580077911638529e-02
      -1.6945386345679971e-02 2.0558003738540379e-01
      1.1478004873037424e-01 -6.1229860841078003e-02
      7.8780382078614680e-02 1.2027631153221119e-01
      -3.3806761736649615e-01 -2.6819350040153914e-02
      -1.0559431865237867e-01 -4.4917921725332065e-02
      -4.2930061116419884e-03 -6.1301252941783811e-02
      -3.8398303314277206e-03 9.1282782479224639e-02
      2.5145610161712347e-02 1.2516568229525613e-01
      6.2552045316884739e-03 9.3158030470772649e-04
      -1.5837385076892541e-01 2.2997154272977555e-01
      -9.0870935394006119e-02 5.7771436768578363e-02
      -6.6382077995160632e-02 -1.6928612496018031e-02
      -1.5114591878729627e-01 -1.2505248786902651e-01
      1.7134431357550026e-01 1.6582533432460059e-01
      -1.4683992216611502e-01 7.0601184546242632e-02
      7.3760963051456643e-02 2.1515089271752483e-01
      6.1473468134510316e-02 1.2234720214196958e-03
      8.7770605248760222e-02 -3.2134588914998041e-02
      3.4336654543575040e-02 -7.8818861310383185e-03
      1.7025897227089783e-02 5.9598604875416412e-02
      -5.2021545786583752e-02 2.6225086758017539e-02
      -3.5566204660811902e-02 2.4709374301725765e-02
      -5.1448959587704492e-02 -1.0984405835372482e-01
      5.8311191957244185e-02 9.3599850722262388e-04
      2.1528790152435362e-02 1.1306206730844209e-02
      7.1724739840910684e-02 3.9632924220523995e-02
      -8.0779904412974488e-02 -9.2656260661047540e-02
      -3.7710611180902194e-02 1.2465231494810282e-02
      9.4880587533540922e-02 2.6214420819109496e-01
      1.2335270258130863e-01 -8.9196494570796800e-02
      -4.6726841103724706e-03 2.9973931790456881e-01
      -1.1464855475423338e-03 2.1983856289637088e-01
      -1.8188041510419509e-01 1.2200875346380920e-01
      -7.2581189799855061e-02 2.1991329958276240e-01
      -3.5421038684899854e-02 3.5084321168318937e-02
      6.1454997612157204e-02 4.8935555815538934e-02
      5.6290445662136417e-02 5.1766824399158758e-02
      -8.7746332268979807e-02 9.2715533738790351e-02
      -9.4665809555800604e-02 2.3454358730697389e-01
      -8.4868664727421425e-02 -6.3162057314261430e-02
      -7.0223812551220774e-02 1.2693053559528261e-01
      1.3608192094501459e-01 -2.5569989266150717e-02
      1.0676614875871333e-01 -2.8033527173697174e-02
      -1.7807334323221441e-01 -1.2839165110221840e-01
      6.2423428522667595e-03 -1.9549469153523718e-02
      -6.9223761791430555e-02 -2.2139880277653229e-01
      9.3624872379456030e-04 -8.7277942378030703e-04
      3.8266106402877905e-05 -3.2500356099705494e-03
      2.5617409692236552e-03 -1.2346571936940073e-03
      -2.9251686393022697e-03 3.0987697688275827e-03
      1.4562546599682980e-03 4.7439329072751252e-04
      -5.5175222304725501e-04 -2.5625176483240323e-03
      3.1332557139942159e-03 1.1879892473837961e-03
      8.2777579848808327e-04 -8.2372869960116207e-04
      -8.1675913901716715e-04 -1.2294512085474821e-03
      -1.1354256502157025e-03 2.6629457444420973e-03
      -2.9611032439695825e-03 1.1292999289420176e-05
      9.3616688781232794e-05 2.4480966582852795e-05
      -2.0508018872450748e-03 5.7374029276660793e-04
      -1.3580962248349268e-03 2.6799933676551553e-04
      7.3073680215259907e-04 2.4456470715615323e-03
      2.5845423065987512e-03 2.5293129223257133e-04
      -1.4944627075905205e-03 -1.4076150664023592e-03
      2.3981957783417193e-03 2.0266356883697338e-03
      2.3266630029893104e-04 -1.2332049315108100e-03
      2.7984711239761851e-03 -1.8134343556574343e-03
      1.3014384067325474e-03 -2.1133455154334264e-03
      -2.4393019151935837e-03 -3.0175377645479582e-03
      -1.4519223494774414e-03 7.7776554763884739e-04
      -2.9483064926332260e-05 -2.8765698172376858e-03
      -2.8545726325248286e-03 -9.6580961717136456e-04
      1.0005883402770634e-03 5.5654652757528662e-04
      4.8079123607282508e-04 -1.8789367870518127e-03
      -5.3888847119380149e-04 2.3388475861092985e-03
      -2.5230250728304921e-04 -1.5792478210235464e-03
      -1.3555958637139921e-03 2.6630735721849398e-03
      1.0052308052998129e-03 -2.0552260708428167e-03
      2.7496124878809013e-03 3.4897513843709746e-04
      2.0412775263757032e-03 1.5459718877769300e-03
      1.4052958375741502e-06 2.9362558592719109e-04
      -1.9970631307787068e-03 -1.9820971828242492e-03
      -2.2123127179476767e-03 2.1837177450449246e-03
      -1.2807669065190302e-03 3.0831262061540663e-03
      1.7718148869991363e-03 -1.9812805941388017e-03
      4.8348906969328086e-04 2.2253088828343942e-03
      -2.5545256764316769e-03 1.7755139355777778e-03
      -2.5243056985069668e-03 1.4441488945861830e-03
      1.5290531347603731e-03 2.7668114610845396e-03
      2.8142751937716959e-03 2.8409113955144170e-03
      2.1751746984293467e-03 -1.3941604560178858e-03
      8.2028489639636654e-04 -2.5999750207472133e-05
      1.2714561227565539e-03 -2.1476569225586164e-04
      -3.0843110387249904e-03 -1.8166189413343877e-04
      -9.7172531877534412e-04 -1.3573834838996148e-03
      -7.2317657088450695e-04 1.9407796137640267e-03
      -4.2747083328262237e-04 2.4917786386119412e-03
      7.7721177961116738e-04 -2.9968865333132280e-03
      -2.1617350003806080e-03 1.0706266965853488e-04
      2.8677616320621590e-03 2.2118488970274317e-03
      8.6180424065243077e-05 1.6092777137745060e-03
      -2.1313895960617447e-03 -3.0116668949429423e-03
      4.4940459129045457e-04 -1.8791128189782347e-03
      -1.0933607244439372e-03 3.6896231433553440e-04
      -1.5281899290474628e-03 -1.1510612969705251e-03
      2.5038231262559676e-03 -8.1296460365108756e-04
      -1.4115886747299601e-03 -9.5428217834821064e-04
      -1.5077730015200742e-03 -3.0367258005106483e-03
      2.3413829349368601e-03 -6.9474428936438040e-04
      -2.3083832712059850e-03 -1.9525091208606018e-03
      -2.0838043140565909e-03 -2.6759624985960837e-03
      2.4761300289491317e-03 -2.2493293215851266e-03
      -9.3106191074099017e-04 -2.7101751331748071e-03
      -2.9900506374661451e-03 -2.8293613592487183e-03
      2.2151351466118503e-03 -2.2925199136311948e-03
      2.4429943319728893e-03 1.5680816303736496e-03
      3.2542249604007633e-04 -9.8430163356679314e-04
      4.6329662481279981e-05 2.8542024835619519e-03
      -1.7789318752757274e-03 7.0591364483217210e-04
      2.6262116832259717e-03 1.4932091990542686e-03
      -3.0804669391570508e-03 1.2690159500523773e-03
      1.1727933498817972e-03 -2.2541385107631580e-03
      2.0411693287895262e-03 3.9331589347483989e-04
      3.0205074565911099e-03 1.0047235990319288e-03
      1.8723008604980571e-03 -5.8038665455925587e-04
      1.5783472728787989e-03 -2.2317969629429930e-03
      -1.1046238348329834e-03 -2.8380577913921321e-03
      -3.6319752333145749e-05 1.5369105993731024e-03
      -2.7640450507350352e-03 -1.7851451855711662e-03
      9.3409403580336375e-04 8.7215507150876235e-04
      1.9119950704462221e-03 2.1477648541059165e-04
      9.5177736507706776e-04 -1.0582222609244398e-03
      -2.5033391296336530e-03 6.8474418502849908e-04
      -1.1129242652283071e-03 -2.9060535830031345e-03
      1.0649368184199102e-03 -5.0259261447273024e-04
      -1.3558681846317284e-03 2.3975299874373149e-03
      -1.3506817077304724e-03 2.5325486646756699e-03
      1.7131989311308920e-03 -1.4789514025324356e-03
      3.8352764029298616e-04 2.4500125393178535e-03
      -3.2110775268198791e-03 -4.7948466233828244e-04
      1.0743035871226922e-04 -2.4827738396563620e-03
      -1.2188435222067163e-03 -9.7828930287624256e-04
      8.6156614284421153e-04 2.7011139318084314e-03
      -1.3808084876280504e-03 -5.3804952120598158e-05
      1.6100510530390872e-03 -2.4689060567469104e-03
      2.3387845147989734e-03 2.6754375347144321e-03
      -2.3670483097626340e-03 -2.5282490073925330e-03
      -8.2935416835121689e-01 -1.8160605734038401e-01
      5.1230888005855041e-02 8.2719398289147039e-02
      -1.8320341369762266e-01 3.3302513952825130e-02
      -1.2144335373616416e-01 -4.6416447810727832e-02
      1.1394003827894165e-01 -2.0723347243795756e-01
      5.6891347082697649e-02 4.5893967305382387e-02
      -3.8302154696049778e-02 -3.5093288442099087e-02
      1.7844996380877030e-02 8.2961454045094543e-02
      -7.5918511946642356e-02 7.8281640587576376e-02
      3.6275260009161953e-02 1.4689909257021286e-01
      -1.9399657785685219e-02 -9.5968603134699557e-02
      -1.3971494287433547e-01 4.2469058161464526e-02
      -4.0299068854122190e-02 -2.1483578695064169e-02
      1.1470030845099290e-02 -2.3219347775421416e-02
      8.1340554860945394e-02 -4.9510957347955374e-02
      -9.4230987821350545e-02 5.4686101676482371e-02
      1.7631306158559659e-01 -6.6426821202245231e-02
      8.0785247295678236e-02 1.2095131803967945e-04
      1.5099529577589213e-01 1.1454259321743428e-01
      -4.7786079862837914e-02 4.1183516226924732e-02
      7.6122903998036701e-02 1.9883857125968968e-01
      -1.5899593131330131e-01 -9.3355606281515180e-02
      1.9549427926562203e-02 1.8386494283602547e-02
      1.4583958023322582e-01 -4.6534690791526549e-02
      1.8893512655417010e-02 -7.3730271188491856e-03
      1.6665459628850989e-02 2.8507155874318849e-02
      -3.4669799561828629e-01 1.3866375295397915e-01
      -1.0935949722121784e-01 4.1108468396259222e-02
      4.1683456899515171e-02 -1.6547976147102954e-02
      -2.7645486778946137e-02 1.0473800225674655e-01
      6.8788560762050838e-02 4.4919657711491305e-02
      1.3792481777276983e-01 1.1429197258140351e-01
      -7.4544466329299980e-02 -6.4421204468369866e-02
      -3.6822555220179909e-02 5.4782076558465731e-02
      8.2779401304793124e-02 -1.1379793620869395e-01
      -1.7235731437461117e-02 -3.3198166259753900e-02
      3.4875023191949427e-02 -2.7584511934794834e-02
      2.8282413518219633e-02 2.3981448458042145e-02
      -7.6064735385369203e-02 1.0451333757707673e-02
      1.0223054177372857e-02 7.9814726541738962e-02
      4.3314385493584587e-02 3.9267365190454442e-02
      4.5439141807928109e-02 -1.8523565937810310e-01
      1.2943952226076966e-01 -1.3382272018074948e-03
      -1.2747730053936621e-01 4.3866327360931628e-02
      3.6404292371131158e-02 1.3096157960904742e-01
      7.3105922918825950e-02 2.9935100341835851e-02
      7.0423500616969698e-02 1.8419850442892366e-01
      -9.3592371522969980e-02 1.4384965629271754e-01
      6.7927775270400767e-02 -9.1347902323585556e-02
      -1.4386879788659257e-01 6.6428630208203845e-02
      -1.5375192737043732e+00 -1.0665326070462378e-01
      1.4319243113239818e-01 -7.8517799530837706e-02
      -6.5660152573367783e-02 7.0913550720517124e-02
      -8.4340316280529584e-02 -7.2249033337010451e-02
      2.1668940268947753e-01 -1.6675810007779945e-01
      -7.6987744663706420e-02 6.7687555479456790e-02
      7.0153673035219508e-02 -7.9708753854768784e-03
      1.0265889339440037e-03 1.2615233142832626e-02
      1.6093011797120978e-02 -8.6766430606834602e-02
      1.8818989503875571e-02 9.4916025055407541e-02
      -1.1841256280500640e-02 1.3566190643014372e-01
      -1.5607417030431622e-01 -2.8340525537857771e-02
      5.1252098618552906e-03 -5.2924703549128961e-02
      1.0549594361139253e-01 -7.9525538320180833e-02
      1.1240809239849359e-01 1.4684778573296756e-01
      2.0372683465257134e-02 -5.3560909045537453e-02
      2.3690970011505798e-02 3.0755194715713741e-02
      -4.0152666939978050e-02 2.2224229355355971e-01
      5.6958985483174136e-02 -1.1795903174710498e-01
      -5.4158076928070877e-03 -5.6709095244612984e-02
      2.1842014941310556e-01 7.3170671973797757e-02
      -2.3194728103103676e-01 -7.3059881911752920e-03
      8.8100333373897291e-02 6.0538273059934179e-02
      1.1470259488347022e-01 -1.5146133144156629e-01
      -8.5533597891464447e-02 -1.4026255019897324e-01
      2.0457535887505426e-02 -1.4863626135520430e-02
      -2.7192983312588304e-01 7.2442902312941301e-02
      -2.1000597169501277e-02 4.1485823769809249e-02
      7.2557765305682420e-02 -6.7286996992228384e-02
      -5.2682531584038669e-02 8.2060159554392664e-02
      -1.3956555601853310e-01 -4.2262606432964284e-02
      1.1069082478219701e-01 2.1944494362648611e-02
      -2.5408313755440549e-02 -1.0571548222041806e-01
      1.2470680441756565e-01 -1.2098778332230740e-02
      -1.0803185287484335e-01 1.1686029906087657e-01
      1.9809874106322151e-01 2.3908806594795239e-02
      5.1725241786458369e-02 8.3880158705350649e-02
      5.7698475401460336e-02 -9.0887275649440435e-02
      2.0006940407826143e-01 5.4654657681146482e-02
      2.6422491077355757e-02 -7.4845525914876795e-02
      3.5766852593577293e-02 1.2487322954302478e-02
      -1.8088455264756394e-02 -1.0008633736576256e-01
      -4.0760822420063160e-02 -1.1645498518335777e-01
      -1.5056318738220048e-01 1.4258855885940822e-01
      2.1091978583604624e-02 2.1436652675675652e-01
      -1.4953690138714039e-02 6.1344471712452830e-02
      -2.2971973404375654e-02 1.9533360931003521e-01
      -2.8749181212942215e-02 -2.7748561003066278e-02
      -8.3438339963978564e-02 -1.0787203788220553e-01
      -9.0088105580088590e-02 7.8153011585337162e-02
      -9.0381515090405451e-01 -8.0246375814339355e-02
      1.8565862651430183e-03 1.1269441881124492e-01
      -3.3847506060566718e-02 5.4992459965144749e-02
      -2.9249911650081655e-02 -8.1592974028227586e-02
      9.2141933839445953e-02 -1.9965078222970545e-01
      -2.0353079708793478e-02 7.6647514874022910e-02
      1.0933436014606843e-01 -6.8127034539870499e-02
      1.6756550097550646e-01 6.8570092784926290e-02
      6.4190729045442665e-02 -2.7383383627540052e-02
      -1.2659235988773895e-01 -1.0448755229893489e-01
      -8.3317019010483911e-02 1.2500988428634174e-02
      5.3743275340501669e-02 6.6907045841231638e-02
      -4.6990048921784445e-03 -7.7159465852701559e-02
      -8.2708248768054646e-02 -7.0304019461215631e-02
      -9.3353515676101853e-02 1.1077431993239072e-01
      -1.5337823198325734e-01 -1.3784815337189950e-02
      -6.1636646716405619e-02 8.5622967498680772e-02
      -6.1051120463524872e-02 1.7677838677679993e-02
      -1.6764788941950820e-01 1.0899125735914834e-01
      5.1685028032434688e-02 6.4942482761467775e-03
      1.5938661992441880e-01 1.0625075769765784e-01
      -1.0027790987420759e-01 -7.5188043685080544e-02
      1.3834208555215752e-01 -1.4338903851743492e-02
      5.0450970774875981e-02 -1.7072474046769442e-01
      -1.5307779143304273e-02 4.4390987834186921e-02
      2.9883460972367014e-02 -1.8647827138929408e-02
      4.3791321724432210e-02 9.6588959337051195e-02
      -2.0225089039067040e-01 1.7060150873750800e-02
      7.7872403357200054e-02 -1.7459086185748895e-01
      -8.7636391464496297e-02 -1.5655170679886432e-01
      -1.1241459402725408e-01 -2.6566787912209958e-02
      -2.8711734633126811e-02 -7.1967006752858759e-04
      1.0833816921762612e-01 6.5146333852240307e-02
      1.5461407510798417e-01 3.2884158911742990e-02
      -1.0297181702579083e-01 4.4450311336707148e-02
      3.0295009605692522e-02 -7.9662221640758743e-02
      1.0550212620590299e-02 1.7173354233956126e-01
      1.2610568762160806e-01 5.1265737192865970e-03
      8.8486176051411694e-02 -9.2808387597731287e-02
      -5.6461977792166981e-02 -1.6785097133499242e-02
      -5.3213733000435838e-02 6.0666150310783970e-02
      8.4374120423066412e-02 -8.8007173125758439e-02
      -9.4232948917521001e-02 6.6446634704187033e-02
      -2.5306447137607557e-02 3.0128158522590747e-02
      -1.7513183804149002e-02 1.0446619026183929e-01
      3.7217330193846425e-02 -1.4420003586251692e-02
      -1.3528812401941093e-01 1.2755683572653345e-01
      9.4715307142507851e-02 -1.4407505273580870e-01
      -1.6759278303301445e-02 6.6716152989731936e-02
      -6.2237737595486786e-02 2.6495551891128089e-01
      -7.6608513302098391e-01 -9.3716750834216975e-02
      4.9282412626700529e-02 -5.7053410957167032e-02
      -4.6361709958441327e-02 1.5818205199778182e-01
      -5.5034323201260185e-02 -1.1233456868944681e-01
      -1.4438704974288274e-01 -1.5840053287165215e-01
      2.1239499487578226e-02 2.0467516676623190e-01
      8.8718957598157455e-02 -3.6576927314286883e-02
      5.4795234735416920e-02 4.7604566078980289e-02
      5.2847408978245830e-02 1.4424937815025568e-01
      -1.5370092222839662e-01 1.6837748826987912e-02
      8.1909389395520130e-02 1.3164912711468451e-02
      -9.1005502072377523e-02 -3.1523295307381877e-02
      4.2542403063918037e-02 -3.5018802578165566e-02
      3.0589564748515416e-02 -2.9310866606796430e-02
      -6.8454139725748306e-02 8.0646277959676563e-02
      -6.9156576108548723e-02 -1.3863007503088531e-01
      7.1563982582962274e-02 1.2631021420527314e-01
      5.6687476589620873e-02 7.3112401122244278e-02
      -1.2962761663005090e-01 4.8149125497214597e-02
      -9.9688557541925918e-02 6.0493195814972776e-02
      1.0602179952715046e-01 -8.6278745614319814e-03
      -8.9295468030082342e-02 -4.7403184918916812e-02
      -3.3685291279430769e-02 5.1663591085278883e-02
      7.5201584778154959e-02 -1.5119155310660878e-01
      -1.9377802553904999e-01 -1.3427834754646709e-01
      -4.1420277112907460e-02 1.2862425918567905e-01
      -8.8841734074793094e-03 1.0904133259569186e-01
      -1.4049764631286318e-01 4.1485734883773776e-03
      8.2843939778999620e-02 -1.4983168242320722e-02
      -1.5831981813431684e-01 6.9632208300530796e-02
      3.3070589713492055e-02 -1.0236718625616665e-03
      -4.9234219633254035e-02 -4.3643479872996299e-02
      -3.9996544940702664e-02 -5.7580267625625133e-02
      8.1166058044115821e-02 -1.6453938570696153e-01
      -8.0724319666307970e-02 -1.2952870103386135e-01
      3.2971214388832916e-02 -2.3225346790794837e-02
      4.1933738620692107e-02 1.8596051898255447e-01
      4.9596320229840403e-02 -7.3743699402219753e-02
      -1.3754309425561535e-02 -1.0701660918379918e-01
      -8.6151088705534798e-02 -8.8427333550858883e-02
      8.3638456216369506e-02 4.8578006258181157e-02
      9.7980726641954466e-02 -6.3629327982731979e-02
      -6.0004496247532936e-02 -9.1539031747676719e-02
      1.9430671955085972e-02 -1.4147968094222174e-01
      2.8344520972759107e-02 1.5898679768560067e-01
      -5.5629849809407973e-03 -2.5107952300763875e-02
      -3.2175999295665357e-02 -8.7336019312927615e-02
      -2.3989080525331510e-02 -5.0307448316942713e-02
      -4.9627753556234791e-02 1.8028383878836796e-01
      6.0176519325409912e-03 1.7870258993482302e-01
      -5.0292843472984561e-01 -1.9665346974647319e-04
      -1.5964340804899287e-02 1.3656743332540418e-02
      -5.9556568064184516e-02 -4.5423044008171383e-02
      -2.8117823505833348e-02 -5.1646719687414352e-03
      -2.0003200629800866e-01 -1.2144462957626626e-01
      -1.6361030072256455e-01 -2.7055322300067609e-02
      2.9892534720419722e-02 1.2508553948815188e-01
      7.1159492378572303e-02 2.2615122182202692e-02
      8.0293360574970746e-02 8.7196362514585152e-02
      -4.5504977146357234e-02 -2.2375289371398626e-03
      -3.2701549321571058e-02 -1.6701252944980455e-01
      -1.2200438808928435e-01 1.1079452705037948e-01
      -5.5430212075158830e-02 1.5812653234530644e-02
      -4.5879115498075690e-02 -4.9812101187149925e-02
      1.5174676536336636e-02 -2.0163361268045629e-01
      -6.2715563619269665e-02 -1.0191663099378481e-01
      -9.1423026571587143e-04 -3.1206172625669673e-02
      -6.6824683252947339e-02 -3.9475992016782310e-03
      9.4367557087214810e-02 -2.7904808643082587e-02
      -1.0189460755855069e-01 -1.0410036809182732e-01
      -4.9324846471169356e-03 -5.4199461618281250e-02
      1.0881444674664387e-01 -1.5856989202026750e-01
      -1.0183844709338524e-01 8.5184011616624040e-03
      1.2516443426277332e-01 5.0525133943380103e-02
      -6.8423663579453717e-02 -1.1221696576740241e-01
      7.6569176172767581e-02 2.7519203435489736e-01
      8.7834882860241312e-02 1.9900358737228920e-02
      -1.0379470840786095e-01 1.1143512254077345e-03
      -6.9776435126598202e-02 -7.1123306359890753e-02
      -1.5047496969378335e-01 -1.3574015764419992e-01
      -2.6682835329714574e-02 1.0316937108225728e-01
      8.3007104594790285e-02 2.5205875346334120e-02
      -6.9133937420353841e-02 1.8497518448919353e-01
      -3.7839596047493894e-02 5.5200579700532146e-02
      -6.0097629946612385e-02 -8.4027776115621747e-02
      -9.6319258903495644e-02 4.7144236588397725e-02
      1.2308717753909348e-01 8.8995128750930810e-02
      1.7563863994689607e-01 4.9514505128355348e-02
      -4.7645599237699177e-02 -5.3307200791703549e-02
      5.3853546758384364e-02 3.0141449415174892e-02
      2.7181332202489437e-02 -1.5069011041875618e-01
      6.4830262083950263e-02 -1.0456272635363181e-02
      -1.7009151020600277e-01 -4.0114267520432864e-03
      4.9187213465722787e-02 9.3544328844066230e-02
      -5.3163601967789312e-02 1.8822775868554703e-01
      -5.9447626498703388e-02 -5.3429605106975100e-02
      3.2109106205069828e-02 -9.9262032010952905e-02
      6.0630919102484991e-02 -1.4526812543273603e-02
      -7.9709200442893161e-02 1.5113964137197849e-01
      7.3119892848940493e-02 -8.0388216033214388e-02
      -1.0510030334825650e-01 7.2598016111950797e-02
      -5.8821589022494368e-02 -4.1538033809334581e-02
      -9.4989743734033613e-02 -2.6977380963387372e-02
      -5.6029420096616211e-02 -4.9482242811583900e-02
      -1.2173187819180424e-01 -9.3873938179597716e-02
      -1.5642493635551544e-01 -2.6685261826404162e-02
      2.1581619783273654e-02 7.2971123742893024e-02
      1.4316140111209122e-01 6.4046670786824023e-02
      1.1474598716898257e-01 -1.1169041123749963e-01
      -2.6820698072656284e-02 -7.5136346145024888e-02
      -3.6182910579806569e-02 1.6751796239294578e-01
      -4.1378078795779254e-02 1.2230525882369267e-01
      -1.6823074762941331e-01 3.7806415663066015e-02
      4.5519769906604930e-03 1.6574628163283070e-01
      1.9782219505431209e-01 -3.9419522354613767e-02
      -5.7496300152235141e-02 -1.9222233082437784e-01
      -7.0715412317537626e-02 -4.4614484258972423e-02
      -1.0760217698588020e-01 -1.6992208306138426e-01
      -6.6212966676679696e-02 1.0183230225295516e-01
      5.1148672313497533e-02 1.2743122787308173e-01
      -9.4020172075026914e-02 6.2198114543623676e-03
      -4.8531059136676269e-02 -1.1437423576312740e-01
      2.1444868232496108e-02 2.1496450749637305e-01
      -8.9532985588778147e-02 7.6959839079396408e-02
      1.0580074328985783e-01 -7.7794088303851441e-02
      -5.6305067142841017e-02 1.0470113609479671e-02
      6.5474985770455157e-02 2.4977303156278281e-02
      -5.6576243103132154e-02 2.6340508625434002e-02
      -5.2600316197923311e-02 3.5624991754022249e-02
      5.5671043529537279e-02 -1.3649381547104686e-01
      1.9424078059848915e-02 -3.9347767012700652e-02
      1.9049957775605206e-01 1.4643995243737323e-01
      -1.4925502437348093e-01 1.9039738922663826e-01
      -9.6051222292297053e-03 3.0045019221435444e-03
      -1.6840855430487849e-02 -9.6947944858709612e-02
      -3.6197039489030282e-02 1.4901955597027925e-02
      -8.4007777920194607e-02 1.5120077716991021e-01
      5.8759129513814519e-02 -1.2070272725248442e-01
      5.6957788329295512e-03 -1.5948945134529086e-01
      5.5258513807411591e-02 -3.6319706468528529e-02
      -8.5260084619712878e-02 1.5851515299091810e-02
      -6.8691720739060422e-02 5.1610896275817745e-03
      -1.5743544522843242e-01 -4.1309027829534467e-02
      -7.6196957348507359e-03 -1.1101354012477326e-01
      -5.4475240461475012e-03 1.6989867876733653e-01
      -1.1263059897837166e-01 -1.6533291970364547e-01
      -1.5633658528522675e-02 -9.4257624620682254e-02
      7.9246739618641732e-02 -8.4712074915029564e-02
      -8.6552356992250806e-02 2.2823110192221607e-01
      5.7664315070827622e-02 -2.6675092226069258e-02
      5.3430791124092980e-01 -7.8165325961468565e-02
      -8.6778643349518167e-02 6.1423002703334829e-03
      3.1111743941310186e-03 -2.0846382086221978e-03
      5.0500667148901002e-02 1.1669339205994712e-02
      -9.3136077051633959e-02 -1.0258690957872257e-01
      5.5461144423593978e-03 -1.2891216556958884e-01
      -3.3249206515178192e-03 3.3006159543294715e-02
      -2.5841486730485034e-02 -5.4346563413156836e-02
      -6.0333838470604625e-02 1.2109080341422319e-02
      -2.9312166623266734e-02 -8.8918582232232410e-02
      4.3827546005405345e-02 9.7238337441043654e-02
      2.0204658892014151e-03 1.1179939005387922e-01
      1.0237682872641697e-01 2.2620257127604820e-02
      6.4370751996288514e-02 1.1254082020553016e-01
      7.3542842300346120e-02 5.5363598118208665e-02
      -8.8600762819659049e-02 -3.8879820787801597e-02
      3.2224859197397672e-03 9.5851947058460590e-02
      5.6418402885465825e-02 -2.6091222896890653e-02
      1.1338994730715972e-01 3.6572716452110368e-02
      2.2088119148809357e-01 1.5924571783485753e-01
      -2.3570541260479090e-02 -3.2759637866336559e-02
      1.3626881363311893e-01 5.0927277555439583e-02
      -4.2057014194397759e-02 2.4637613574312045e-01
      -3.0975619933823728e-01 2.7541545451702620e-02
      4.8192392719544494e-02 1.4725054414494196e-01
      -9.9089886709108205e-02 -5.5393450253514914e-02
      6.6816817723100455e-02 1.2378166734198554e-01
      -1.9381649320585923e-02 -1.2065142796744796e-02
      1.3920969833579971e-01 1.2432273085875099e-01
      2.5239753967276002e-01 1.2894805708687385e-01
      4.9083686903015379e-03 -5.4539267319841531e-02
      3.4505063569111545e-02 1.4355101358749547e-01
      1.2412534038763141e-01 2.1280389762819651e-01
      -1.0595678066193416e-01 -1.8637640431631786e-01
      1.1590908941369445e-01 -2.2338314055694426e-02
      -8.8351065501267090e-02 -6.1983071742628550e-02
      -1.1049062850299370e-01 1.5056761832032384e-01
      1.9512895359830987e-02 1.1339084625639034e-01
      -5.7122386573973220e-02 -3.1838118217929409e-02
      -3.6492880400492617e-02 -3.0921077730124990e-02
      1.6643086233505053e-01 -2.8685490630941477e-02
      -1.2235061577558257e-01 1.6780712672705675e-01
      -1.5141668672985411e-02 -5.7509159337699525e-02
      -2.8838812753932110e-02 -1.3503953010952771e-01
      -4.5785763161682223e-02 2.5885833960270020e-02
      -1.0414073788227121e-01 -2.6509596197842733e-01
      1.5023419567847104e-01 1.9131011745792147e-02
      -7.7482352762354642e-02 -1.1219433350171032e-01
      5.6545023347624478e-02 2.3873000782570653e-01
      1.7218373155855324e-01 -2.0761835851984958e-01
      6.9875355136728723e-01 4.4311628338547848e-02
      -1.9523661396223660e-01 -1.2795911269376745e-01
      -1.1778891617130801e-02 -1.0613309868172072e-01
      4.7496643970545489e-02 3.5315350691327116e-02
      -1.0331615072484744e-01 1.2141887801484978e-01
      1.8734027270385137e-01 -9.1960513783752348e-02
      -3.8419268158891198e-02 1.4876094860337766e-01
      -2.2727738915566623e-01 3.5741225423857305e-02
      1.1500341110458482e-02 -6.1853729850704212e-02
      3.5120282193424258e-02 -6.4714074532109395e-02
      -7.6516775068404971e-02 1.0281828803689658e-01
      2.7698949507678153e-02 -2.0517299981561744e-02
      -2.6062489520101095e-02 6.4566876526457638e-03
      -2.1170363816188667e-01 1.1457988783374229e-01
      -6.2147337568411537e-02 4.2221716917318297e-02
      -1.1819940079826487e-01 -2.6715318147137714e-02
      -2.7964544235504318e-01 -1.0164888261137803e-01
      2.6871453795943695e-01 5.3341142511559227e-02
      -1.2721663583284856e-01 1.2660967651294142e-02
      1.4605416051409916e-02 1.8741824231434470e-01
      1.1508509019972397e-02 1.8645807594682540e-02
      1.2061352439962111e-01 -4.0748676855280670e-02
      -7.4567248648930343e-02 -1.3170517753851091e-01
      -5.2462437744606842e-02 1.3638485251454843e-01
      -7.4322279103400363e-02 3.4128079606443013e-02
      1.3252447483572044e-01 -7.4020998692984591e-02
      8.2446438602506264e-02 -2.3606208495689538e-02
      1.4081320419486207e-01 -3.5900980060237418e-02
      6.8838072205669254e-03 -2.3448727180488169e-02
      1.1565069299485831e-01 2.6827522089435918e-01
      -5.7648900979742283e-02 -1.8405504528281116e-02
      -6.4689307417779895e-02 -5.4117088884561286e-02
      1.2898719019840762e-02 1.6904063005746878e-01
      1.8518368658782522e-02 -1.5486309217048345e-02
      5.6728294677269177e-02 1.1684715609248045e-01
      -4.0326752409657593e-02 1.8618713238238813e-01
      -7.1569552186605004e-02 -3.7130174970689315e-03
      -4.4800756961562195e-02 7.6969228101697304e-02
      -1.6320051247945520e-02 -3.4677183338795672e-02
      1.6396158757737089e-02 -9.8204372424928361e-03
      -2.4797676108689340e-02 6.9675964864465478e-02
      -1.1194450299831896e-01 3.2127527969876481e-02
      -1.3521298109597667e-02 -7.2479964976156011e-03
      -4.2311323501871737e-02 1.0199567172473344e-01
      -3.5949583072164282e-02 2.2311257795904964e-02
      2.2135755534769798e-02 1.8199391156486631e-02
      6.9584813123019673e-02 4.9974618647011429e-02
      -2.2634587370354203e-02 -3.6874077630886549e-02
      -1.4599597960856118e-02 -6.7381310472678382e-02
      3.0117227758740713e-02 -2.3456155862919750e-01
      -2.9734975233142945e-03 2.5180824106022441e-03
      -3.0549853645906507e-03 5.2315405172496520e-04
      -2.5138750579112665e-03 -1.6400805488875174e-03
      6.5707371347955288e-04 -3.2647569649816911e-03
      -2.5682534412109189e-03 -1.7139835574993486e-03
      -6.8137435079609909e-04 -1.7914510336439475e-03
      6.1951938802417661e-04 -2.2790440753693553e-03
      -1.1562131598123737e-03 2.2015636560046670e-03
      -2.0471152508914582e-03 -1.3060042295534628e-03
      4.9919892502897872e-04 -1.6258845554898238e-03
      -2.4693459095123569e-03 -1.7650708107633379e-03
      2.1211942222377502e-03 -3.4453637029413032e-04
      -1.4001627315734406e-03 2.3912795734818445e-03
      2.8946202489166704e-03 2.8585238909133405e-03
      -1.4283368977808970e-03 -1.3366195062392487e-03
      1.3183695743750926e-03 3.8934903164327306e-05
      2.7440190018946509e-04 -2.2232406612991958e-04
      7.3531894793208612e-04 -1.7108059270297890e-03
      -1.4273741678712557e-03 2.4890605207773270e-03
      -1.1699030682625774e-03 -1.7437695043195179e-04
      8.7790821811842929e-04 1.1905478182879746e-03
      -7.3562973224818343e-04 -7.0675333030797635e-04
      1.5999693571763101e-03 1.2466455848112591e-03
      -2.8163421962136810e-03 1.4899756856019447e-03
      1.2824616959945113e-03 -2.2317413537360628e-03
      -1.9981972325479398e-03 -1.3456485429920546e-03
      -8.9314634457101348e-04 -2.6454516311254835e-03
      1.6548640521595640e-03 -8.4607743579366242e-04
      2.0725725236221170e-03 -1.3226972667727272e-03
      1.9988942341143362e-03 -5.2851853982940065e-04
      1.4311251454630321e-03 2.5101019640656540e-03
      -2.8504547329051473e-03 3.8006305791541214e-04
      2.2062860240569027e-03 -3.7977551875147537e-04
      -2.0419374155640191e-03 -3.1201025428012888e-03
      2.7053440441463726e-04 4.5558742161238988e-04
      2.2390673671059577e-04 1.8950615393967692e-03
      -5.2064003543350981e-04 1.9253408548857748e-03
      -1.4803029850087909e-03 1.7779519684363635e-03
      -1.6204497972353647e-03 -1.1704500731575245e-03
      -7.9160072588829028e-04 -1.0987468650035435e-03
      -3.9245412609313472e-04 -2.9246416482364467e-03
      2.9527757785169691e-03 2.0612332533265754e-03
      3.2341476150657814e-03 3.2126387680008000e-05
      7.2761424437437828e-04 1.8672529166692156e-03
      -2.1490355915929006e-03 1.9503749020648095e-03
      -1.1035682980484913e-04 1.2460685628506237e-03
      3.8631847641209925e-04 -2.3291893954240752e-03
      1.3826810385378539e-03 2.4744134074928918e-04
      -1.2445263000104717e-03 -2.6517270342956995e-04
      2.0313473610838813e-03 -1.6752271627401981e-03
      2.5764687741893066e-03 2.2512990573048575e-03
      -1.1787458641444827e-03 8.9540548936730552e-04
      -1.0745264188572019e-03 -2.8236036791037217e-03
      1.1936762225275260e-03 1.1866209817248923e-03
      3.1430705832655352e-03 -1.5233248858564905e-03
      -6.3164617442741655e-04 -8.4100205658327169e-04
      -1.4953284095979868e-03 1.8232268822270332e-03
      3.0697772727077827e-03 1.2388501813421424e-03
      4.6624677826793146e-04 -7.9468952242637875e-04
      1.4669768903487319e-03 6.6094002811702547e-04
      7.3109971950467700e-04 7.3381649465660656e-04
      2.7093153939792211e-03 -2.9915717751232047e-04
      1.3468857019836040e-03 -2.6994675713038112e-03
      -1.2693394990238708e-03 2.1769610649492875e-03
      7.9176320262169830e-04 4.8130109634501140e-04
      3.0622562202790651e-03 2.1908950952539831e-03
      5.2068403675844849e-04 1.5821009231966117e-03
      -2.5835884311211296e-03 1.0776116272701078e-03
      1.3995397566924810e-03 4.9839906781542511e-04
      -2.2979129000897307e-03 1.1748855617148583e-03
      1.1286283372118049e-03 -6.9232255805018916e-04
      2.0792730672043380e-03 -1.6475266485910267e-03
      -1.5164756660280204e-04 -2.1961831751164868e-04
      2.2806589727868798e-03 2.5641973052437103e-03
      -4.4342821048460831e-04 -1.9994520192018712e-04
      3.1796894870341564e-03 -2.2298572788135781e-03
      -8.1582619421722939e-04 -2.1773524304320780e-03
      1.7266116115147901e-03 1.7954154476305542e-03
      -2.3105487431150143e-03 -1.3853179731137882e-03
      -1.5409186640550691e-04 2.4069563937010059e-03
      3.1018298270686553e-03 -8.5277153621503917e-04
      2.9406389556125906e-03 -2.6686068664495813e-04
      -8.7972821496495380e-04 3.0695258830353662e-03
      -3.0474982211585620e-03 -9.0080706428363223e-04
      -2.2590635788150219e-03 4.4224348624238434e-04
      9.3021379425385110e-04 2.8015080577277140e-03
      -2.6277539186091645e-03 2.7908188327798586e-03
      -1.1820690216506617e-03 6.4413685071412448e-04
      5.6896326487012509e-04 1.5253659011278862e-03
      2.3780676633445791e-03 -2.2939837626230765e-03
      -2.6631307605655338e-03 -2.2451756835201301e-03
      -2.9350194802424978e-03 -2.4300738145734118e-03
      2.5188490695459221e-03 -4.5461006945663108e-04
      1.3542958017810074e-03 -3.0024340834565815e-03
      -1.6789149845254933e-03 -2.2094967565827305e-03
      6.0182127084766786e-04 2.8747227310021569e-03
      3.7986505602610044e-05 1.7363118305507472e-03
      -2.9945643446924225e-03 -2.3117207337014735e-03
      7.4654505989619796e-04 -1.5708994652774593e-03
      1.8404372398908239e-03 -9.9683473673357870e-04
      -1.3388280162825825e+00 -9.5754067871098331e-02
      1.0712161996609325e-01 1.8755256571610493e-01
      -1.7333267863875029e-01 -1.3765049898122220e-01
      -1.0332342169105926e-01 4.4076264255870350e-02
      2.1304879833894030e-01 -5.6372356686975475e-02
      -6.4613457397716889e-04 -1.4725064148065503e-01
      -4.6459809422260707e-03 1.2140207712781551e-01
      3.4901218044642704e-02 9.2915753734457845e-02
      -1.2678136391986058e-01 8.3281002457126899e-02
      4.3171171517137209e-02 3.7185309016979896e-02
      3.6826355821956751e-02 -8.9531086616549405e-02
      -9.1924524337266569e-02 -4.8732317787337893e-02
      -1.5723122232162748e-01 1.9120220307371150e-02
      2.8919608547762887e-01 1.4956332968594646e-01
      9.3787297687275326e-02 7.1777577243814325e-02
      -4.2513525998749406e-02 5.7778460912847662e-02
      1.8246958334424912e-01 3.2300290668381859e-02
      -2.2792115199445174e-02 -5.0462017503425514e-02
      1.7073069245225803e-01 4.2685394585592819e-02
      -7.7819339506975517e-04 5.6287993145550212e-02
      9.3430180623342338e-02 5.7744688866599267e-02
      -1.1847370527537933e-01 -2.3024335938660176e-01
      7.8559112539733925e-02 1.5357077801340518e-01
      7.3547732641367006e-02 2.3168023220841751e-02
      5.1213050874871699e-02 9.4515456127376943e-03
      3.6856091296359715e-02 1.0655365905768512e-02
      -2.0516468071838426e-01 -7.1277426244013070e-03
      1.0683439621119964e-01 3.7622412244059628e-02
      5.2505899057942874e-02 1.8222331851418531e-02
      -2.9626861398116437e-02 8.6146549112992687e-02
      1.6964382287467639e-01 2.3751050154270325e-02
      2.2880498480472816e-01 2.6952135883171352e-01
      -6.7299615511283162e-02 -1.4043509780178778e-01
      -4.7550047476204810e-02 -5.5910760498975580e-02
      3.4595120245281975e-02 7.0956979136135301e-02
      8.0244571234494314e-02 -6.1513876318674061e-02
      -9.4770513139801518e-02 -4.0138496881022022e-02
      -1.1350567988169552e-01 -1.1384021683992988e-01
      -4.1064116630824814e-02 -6.1329588082742791e-03
      1.2182844833993514e-01 -5.8582388404278783e-03
      7.7087359000075434e-02 5.7404929704469802e-02
      1.2735732718202964e-02 -2.6275735702714048e-02
      9.8409031009555295e-02 2.0430941086798715e-02
      -1.3422609508788427e-01 3.4267220983426341e-02
      1.0723414727475537e-02 1.8437711073858451e-01
      3.7501375652808748e-03 -6.4874243385746780e-02
      7.7991166108209151e-02 1.1556862013080825e-01
      -3.5057715643934645e-02 1.2149209086952845e-01
      1.2345134566196891e-01 -5.6286308490817276e-02
      -1.5015576082208096e-01 -1.2418919457956314e-01
      -1.7382026571086915e+00 -1.2653082204622101e-01
      3.0184289888828618e-02 -6.0477608899131945e-02
      -1.1231696519349960e-01 -3.4584857823401004e-02
      4.6002848107539178e-02 -9.4804882015336864e-02
      3.0918704993433636e-02 -1.5850017599689067e-01
      5.1319352491713197e-03 -7.5719393752240807e-02
      -5.3722745664758993e-02 -1.9099965378019328e-02
      -2.5252192509924505e-02 1.9470282947696449e-01
      -6.2208431675449252e-03 -1.2281474427859419e-01
      6.8415686357798974e-02 -5.5529751413577841e-02
      -8.6875425157073555e-02 1.2465191348301835e-01
      2.6386040598950194e-02 -1.2496094788393616e-01
      -6.6653801296202037e-03 1.2983659162234483e-02
      -5.1894490001734997e-03 -4.0974767377474804e-02
      3.4859546707931066e-02 -8.4276910688384100e-03
      1.0080962443702102e-02 -8.7034591666928618e-02
      1.8631149617722081e-01 -9.6209234222558698e-02
      -1.6011371895449206e-01 1.4016970390134384e-01
      1.1426181468442799e-01 6.3831377542158826e-02
      1.6741181596712340e-01 -1.9157775746161831e-01
      -7.6491642375143658e-03 2.0595582363085457e-01
      -2.1107682280478132e-01 1.0505978332687623e-03
      -2.9589263626583564e-02 5.5673976281476023e-02
      5.5835371857777753e-02 -9.4184021507269858e-02
      -1.1870216607101428e-01 -8.7760754179934494e-02
      1.7781325069186368e-01 8.9060023569775357e-03
      -6.9527625414589220e-02 9.0590765076593263e-02
      -1.1490029797825391e-01 1.1956603683425344e-02
      1.8304592742507075e-01 -1.4704642135842244e-01
      -7.8852123929349274e-02 1.0828535394460641e-01
      7.7959251233723798e-02 -7.6235127212859405e-03
      3.1249440777470421e-02 1.2021032902336594e-01
      -1.0252772938646848e-02 -1.2108181019658915e-01
      8.2283835015123111e-02 -4.6612501523582203e-03
      -3.9478201112111505e-02 2.0323648641360023e-01
      1.1705332951247800e-01 8.8023562494331492e-02
      -2.8731047268640236e-01 5.1816773115108641e-02
      1.0370778971554899e-01 -1.6147246005567312e-01
      1.2801840129125336e-01 6.0015532189820774e-02
      -1.7872380383763108e-02 -7.2264226564338382e-02
      1.3676118960500716e-01 4.3901378836926686e-02
      -1.3495463385305234e-01 9.0298517390180501e-03
      8.8129480989548120e-02 -7.7249842891635168e-02
      -6.2512591731658018e-02 1.9575303142059849e-01
      -1.4353132720532364e-02 1.8371514483558532e-01
      -1.0758674038075842e-01 1.0422235713397277e-01
      -1.6655818975661563e-01 2.6083011550500212e-01
      -1.2922101660294309e-02 -3.1102671848965778e-02
      -6.1000294082365403e-02 -1.8083265199264820e-01
      -3.9665179376762505e-02 -1.7069292164680595e-02
      -1.1028645213397439e+00 -1.1047114291409597e-01
      -8.2954417559640795e-02 5.0373882872865816e-02
      -3.1577518541947694e-02 1.3964423969607215e-01
      -9.1982639617680884e-02 8.9794125395534344e-02
      2.5336704934641231e-02 -6.7458233355758970e-02
      -1.6995314185725148e-02 2.1956754670324646e-01
      -1.0530937961427986e-01 -1.1931351677413722e-01
      1.4037512618018996e-01 6.2494305934052044e-02
      -6.1048306638869995e-02 4.5358792198240537e-02
      9.0853723564759525e-03 -9.9171111491945699e-02
      -2.2755345812525613e-01 2.1807048793133366e-01
      -2.5314687374742715e-02 1.6917975859945186e-01
      -4.9843272496828254e-05 -8.4902904703563556e-02
      -1.3408760832516817e-01 -1.2292057872927364e-02
      -9.5922352167756617e-02 -1.6438057642882362e-01
      -2.2380606979435663e-01 -8.0184060445018884e-02
      -4.2828143064124587e-02 9.4499085473506474e-03
      -2.2044043005838759e-01 5.4495841591755162e-02
      1.1131309548899532e-02 -7.6254268101930006e-02
      -4.8489511328950654e-03 -9.2693318313387951e-02
      9.1966177400837110e-02 1.3982596614916029e-01
      -1.1726986561745402e-01 -1.4856053495878871e-01
      -6.0193253397096920e-02 -8.8219887158612467e-02
      5.8827864325233868e-02 -1.3231210051384917e-01
      -1.2132363012553050e-01 -1.9645321874151141e-02
      4.2791233071213151e-02 6.6447349467294345e-02
      7.2624515524628563e-02 1.7576713000157157e-01
      -2.2969304915715144e-01 -4.0652487156361147e-02
      2.4787709410106065e-01 -1.9038936497168021e-01
      -2.7692896639261125e-02 -1.4968595388485238e-02
      3.0365236089619652e-02 7.1285108409829920e-02
      9.6158327887430228e-02 -8.0264401357896156e-02
      1.4504577746805556e-02 -6.9223963566016719e-02
      3.4834839407198497e-02 8.4123014495854423e-02
      -1.5587256305593133e-01 8.8555029024731918e-02
      -1.4027810767480404e-02 -9.2054581000408364e-03
      -1.5408210396709321e-01 -5.0485011609809720e-02
      6.0485390451927856e-02 1.1822817593231393e-01
      5.7332715378793142e-02 -7.8078035287109673e-02
      -1.5195285403432007e-01 -3.3171236243949742e-02
      -5.1431678403514397e-02 -2.3582472600867675e-02
      6.3464205465207826e-02 5.9168312375131600e-02
      2.1643689939877669e-02 -1.6176295915417388e-02
      -8.4094808089877876e-02 1.3249458213179127e-03
      1.4190090368417801e-01 1.7829762191195461e-01
      1.0878476641323844e-02 -6.6362618040108678e-02
      -1.3677326777646642e-01 -1.3046888531017173e-01
      3.1051194689305173e-02 -2.1999465393621070e-01
      -5.8747564334301311e-02 3.2656254143470231e-02
      1.6546382592522257e-01 9.8138241411235311e-02
      -1.0938589872733699e-01 -1.2777480166991611e-02
      3.7731288586393734e-02 -5.0646628330775538e-02
      1.7703076574020909e-02 7.2212364760115638e-02
      -3.3081919664720037e-02 9.5217677512579577e-02
      -1.3954195848845632e-01 -5.8116453336535347e-02
      -8.5139394874225519e-02 1.4971676570484663e-01
      -2.8124042160475756e-02 7.5965660153838002e-02
      8.3188362181119940e-02 9.2734595747206369e-02
      1.7268234975049304e-01 4.0069119206823579e-02
      -1.6484586182371749e-01 -9.5302232706066109e-03
      -1.7466158686020968e-02 1.1867843076662388e-01
      -1.0772352961533910e-01 5.1428352460908454e-02
      2.4108484756120785e-03 -1.0789215992152563e-01
      -3.7994563868468715e-03 -1.1894947710656598e-01
      -5.0125084264438999e-02 -1.3411125414550340e-01
      1.2223685780124487e-01 -1.5883502901974303e-01
      7.2334154360117461e-02 3.4246448837268705e-02
      -1.4247813695332269e-02 -5.9314778877802975e-02
      -3.4060842107244187e-02 -1.3958450633029509e-01
      -1.1189005856104592e-01 7.1778397493970095e-02
      2.7449514819379003e-02 -1.0504768548422809e-01
      -2.3075494803327982e-03 -1.2446847126338135e-02
      -5.5273410430639082e-02 1.1748632103283987e-02
      1.4937281186210766e-01 -1.1640972697799637e-02
      -1.7418644888746726e-01 -1.0069401227810408e-01
      3.3485218482904311e-02 5.3124520380283709e-02
      -3.4491037268516669e-02 3.2097412419637872e-01
      3.0986405908732122e-02 -1.7446877857812890e-02
      7.4602534272095650e-02 -4.8428648881324282e-02
      -7.7209815490421246e-02 -1.6596820417365277e-01
      9.0383617303071026e-02 5.6964435986230390e-02
      -3.0282038801116595e-03 1.0285731351305108e-02
      -1.6197488486955169e-01 -3.1912413515461896e-02
      1.1948401881172492e-01 -4.0105639842145019e-02
      -4.5541645258006982e-02 -9.1723086796570957e-02
      -1.7938234201526326e-01 2.5025695122569896e-02
      -1.3844635832848431e-01 1.0954656234607772e-01
      -3.5275224196277474e-02 1.3142231027300821e-01
      1.8608874081380952e-02 4.7187336477267264e-02
      -4.8251257113668278e-03 -6.3660238401074876e-02
      7.6531636107494971e-02 5.5803237107708584e-02
      3.9209681874515564e-03 1.3437674639620131e-01
      -3.0593037157008757e-02 -1.5811334375654923e-01
      -4.5428462659375619e-02 5.7984123275598855e-02
      1.5332138823310462e-01 9.6491881534042159e-02
      4.4046640100547430e-02 -4.6993600011682082e-02
      -3.4111944154443831e-03 2.8107500932011305e-02
      3.9321989767905907e-02 -1.7875916313080154e-02
      -7.4343591382882462e-02 8.7687645923082411e-02
      1.7657900849976330e-01 -1.4070736644584960e-02
      3.8549687770066871e-01 -1.6009765797873977e-02
      -9.3176039748530129e-02 2.5563626370843505e-03
      -3.4922869951103885e-02 -2.5956457869111799e-02
      -1.5431901330312967e-01 8.8134528621097927e-02
      -1.2473125557467957e-01 3.2688403070565788e-03
      -7.0836010674097435e-02 -9.5968796615535697e-03
      1.6089000136693375e-02 1.4460355705792907e-01
      3.7543118063104820e-02 1.8114561420336225e-01
      9.3013496405631266e-02 1.4192975319224088e-01
      -2.4965628583695718e-01 2.5131238858991465e-03
      -1.0534121710191047e-01 -1.3203546104060329e-01
      -8.4212928181046684e-02 6.3702818871788899e-02
      -6.4603305394391949e-02 1.3295026432430310e-02
      1.1459587120300574e-01 -2.3056586114957228e-01
      1.3752823613238144e-01 -2.7291904957245555e-01
      -3.1169463528949039e-02 -6.1652793710616417e-02
      -2.5274991612501112e-02 4.1747421133601088e-02
      -7.6908626308328870e-02 -4.9758796688087671e-02
      1.5600339934271715e-01 -6.6647047337665383e-02
      -4.5145911774040221e-03 -2.5565323474631044e-02
      1.8733011755034050e-02 -3.0126712823494828e-02
      7.5490754565000623e-02 -1.7593651691424499e-02
      -1.0267320546623579e-01 -3.3773247284723994e-02
      2.2482907368283028e-01 -3.1594534259991175e-02
      -1.0955781003289390e-01 -9.4795923752437145e-02
      7.7806878718408884e-02 1.4204192877801535e-03
      -3.2464372736118526e-02 6.3765739415974701e-02
      8.9670635956296582e-02 4.1076822787352293e-02
      -5.0764011603343304e-02 -4.3542015875815632e-02
      -1.1322790469256303e-01 -7.4538407640131032e-02
      -3.0131478970307074e-02 -4.1791739365889681e-02
      1.7895492704559365e-02 -2.6463980592634551e-03
      5.8069100834082354e-03 6.7090736635356960e-02
      6.3020993945832695e-04 1.4360010702674428e-01
      -1.0549305438305115e-01 -7.6968410876033871e-02
      6.9896393116226391e-02 9.5173598605227339e-02
      -1.0067328559637344e-01 2.1689282006585625e-01
      1.5569742188624268e-02 4.9056814267517311e-02
      6.9851505488120511e-02 -9.6363301048390373e-02
      1.5832882980910831e-01 1.1571156474406501e-02
      4.1362579517867343e-02 -1.5043054350199514e-01
      -5.4646228352809245e-02 2.0731650243163736e-02
      -8.6646759176221805e-02 6.6054185145787439e-02
      4.4622796400632686e-02 8.1355070853715614e-02
      -4.2726817559310251e-02 2.7404854870079837e-02
      -6.9292440881696518e-02 -1.1041136731000501e-02
      9.1332268409699699e-02 -4.6374134750339205e-02
      1.2796743495259766e-01 8.9909195019617950e-03
      1.3737521463228483e-01 2.1247821798464944e-01
      6.9761829764604846e-03 1.2545603705557698e-01
      7.7499927909453448e-01 -2.3590470539825655e-02
      2.7843262982755915e-02 -1.2175214793123507e-01
      5.4204156215816653e-02 -6.7982031287451644e-02
      -1.2713676038407845e-01 -1.4714368836084115e-02
      -1.1433199982830899e-01 -8.0947243807874714e-02
      -7.3355636021649490e-02 -9.3953030123364187e-02
      4.3907945655488813e-02 -1.2933568011747873e-02
      6.1682512923983156e-02 2.4481486618167052e-02
      8.0592513461909293e-02 1.4538129458232121e-02
      -5.1307167665862227e-02 -9.4852338602507344e-02
      -7.5159327254891523e-02 -4.3050182570521359e-02
      -1.0463808619401320e-01 2.5250652607491686e-01
      -4.6280623243639914e-02 1.1368196544208589e-01
      9.2452112130833500e-02 1.8029307101939199e-01
      2.2336033935613811e-01 -1.3168754517604256e-01
      2.0324459926382592e-02 -1.8102351353521912e-01
      5.5421266426070294e-02 2.4138529740603950e-03
      -1.6557854532536349e-02 2.7992062257501431e-02
      4.3486618466303570e-02 1.2671415871511957e-01
