<?xml version="1.0"?>
<opencv_storage>
<my_nn type_id="opencv-ml-ann-mlp">
  <layer_sizes type_id="opencv-matrix">
    <rows>1</rows>
    <cols>4</cols>
    <dt>i</dt>
    <data>
      1080 100 100 10</data></layer_sizes>
  <activation_function>SIGMOID_SYM</activation_function>
  <f_param1>5.0000000000000000e-01</f_param1>
  <f_param2>1.</f_param2>
  <min_val>-9.4999999999999996e-01</min_val>
  <max_val>9.4999999999999996e-01</max_val>
  <min_val1>-9.7999999999999998e-01</min_val1>
  <max_val1>9.7999999999999998e-01</max_val1>
  <training_params>
    <train_method>BACKPROP</train_method>
    <dw_scale>1.0000000000000000e-03</dw_scale>
    <moment_scale>1.0000000149011612e-01</moment_scale>
    <term_criteria><epsilon>1.1920928955078125e-07</epsilon>
      <iterations>1000</iterations></term_criteria></training_params>
  <input_scale>
    7.6572361486472289e+00 -5.7572392349400936e-01
    4.1175536384756377e+00 -6.5603728498872171e-01
    4.2280048849525498e+00 -6.6433540120557621e-01
    4.5753834870224797e+00 -6.6519042317004318e-01
    4.4916289836345387e+00 -6.6413314016094649e-01
    4.2646093508462819e+00 -6.9155873206403529e-01
    4.0766827716782919e+00 -7.1125314422899488e-01
    3.9846369821737109e+00 -7.0906474374297135e-01
    7.2927817017320757e+00 -6.2571722811098562e-01
    6.8005047994483476e+00 -5.9650293044259739e-01
    3.5310096153812736e+00 -6.8991928550347015e-01
    3.3504629566452748e+00 -7.6320822746789874e-01
    3.6753150378437223e+00 -7.6803664237852842e-01
    3.9255296710368301e+00 -7.6174587644313119e-01
    3.5898107926755674e+00 -8.2407555164498281e-01
    3.2511977073632976e+00 -9.1662455709470425e-01
    3.1736233556837372e+00 -8.9578455298867365e-01
    6.2344625066190149e+00 -7.4331128494951615e-01
    5.6222011672308243e+00 -6.1564223598730428e-01
    2.9582650430273660e+00 -7.2698219899189598e-01
    2.7043342038251588e+00 -9.0963015799321356e-01
    2.8661034450342759e+00 -9.2158085336811757e-01
    3.1985309270827953e+00 -8.3717181983296240e-01
    2.9795356792408167e+00 -8.8176743318778816e-01
    2.7128958792967701e+00 -1.0752145525068493e+00
    2.6058460108954495e+00 -1.1270429262431518e+00
    4.9761746273676746e+00 -8.8594607685821092e-01
    5.1384508254985581e+00 -6.7623136866431655e-01
    2.7688050701041438e+00 -8.6440895770934756e-01
    2.5996637125081112e+00 -1.1528253377798963e+00
    2.6823128585534262e+00 -1.0502244233360625e+00
    3.0928763318247539e+00 -8.3636512539248342e-01
    2.9714375832157596e+00 -7.8358361586460279e-01
    2.7525189507716639e+00 -9.2669820476095788e-01
    2.5612185212041019e+00 -1.1228127547757267e+00
    4.6198531905574010e+00 -9.3429408397635305e-01
    5.1045257494795955e+00 -7.3203759941375834e-01
    2.7923722857573750e+00 -9.8402622940439632e-01
    2.6193630194013093e+00 -1.2330588943797218e+00
    2.6862069104856960e+00 -9.9010063415695082e-01
    3.1877071273648796e+00 -8.0326840831118096e-01
    2.9386346934929857e+00 -7.6417354867480380e-01
    2.8559027625356808e+00 -8.1297533759558327e-01
    2.6344061724059191e+00 -1.0123140556621815e+00
    4.6016042282580036e+00 -8.8157421617317744e-01
    5.2079291652133683e+00 -7.0678118383837985e-01
    2.8793061594776641e+00 -9.1835948566117764e-01
    2.6236201659413889e+00 -1.0994184229339490e+00
    2.7425664052753485e+00 -9.0711485627208910e-01
    3.1795362656506332e+00 -7.9273553894954929e-01
    2.8648473258337863e+00 -8.0626050002696770e-01
    2.8023330502307191e+00 -8.4233178070876003e-01
    2.6405383686692145e+00 -1.0054819235983170e+00
    4.6442143278452024e+00 -8.5264936080681131e-01
    5.2086368354415091e+00 -6.8983615533562803e-01
    2.8966683578173438e+00 -8.3205516030636950e-01
    2.6648504318610251e+00 -9.6766239624723860e-01
    2.8005952766298239e+00 -8.8799052475275486e-01
    3.1162251020331548e+00 -8.3135379308285884e-01
    2.8525730776205829e+00 -8.7701129901177877e-01
    2.7101709186799976e+00 -9.7270374707964435e-01
    2.6062126738427493e+00 -1.1179788777695785e+00
    4.6626891375530306e+00 -8.8865799810681756e-01
    5.1474571526356518e+00 -7.1552519397871717e-01
    2.8312465867981369e+00 -8.1517598143504122e-01
    2.7138163218646594e+00 -8.9516897321564914e-01
    2.8685220441676438e+00 -8.7361915367306331e-01
    3.0295344351493618e+00 -8.6802826622024798e-01
    2.7994225420773584e+00 -9.3856874157857118e-01
    2.6381788656632690e+00 -1.0489659675219170e+00
    2.5568955318493796e+00 -1.1934011111406249e+00
    4.5826422826638185e+00 -9.2757641289552362e-01
    5.1341657591653611e+00 -7.5303158284544280e-01
    2.7939783240867917e+00 -8.9584561440752819e-01
    2.7155520759074419e+00 -9.8750700155529081e-01
    2.8336323510645514e+00 -8.9971156020149501e-01
    3.0789831401818248e+00 -8.4386284045436966e-01
    2.8578054896712217e+00 -8.7518704254484991e-01
    2.7496629684300782e+00 -9.3730776177924269e-01
    2.5796241042108474e+00 -1.1162437608268780e+00
    4.5395116629573531e+00 -9.1636899172385045e-01
    5.3497209685111420e+00 -7.3583791460617620e-01
    2.9190311280111145e+00 -9.2046784487441413e-01
    2.7596384712182909e+00 -1.0518559512677677e+00
    2.8303086748915525e+00 -9.0617366890494211e-01
    3.1671321837318445e+00 -8.0872047575699690e-01
    2.8326723818503727e+00 -8.1247601168952499e-01
    2.7594731316303758e+00 -8.4438120943178419e-01
    2.6045283415001079e+00 -1.0443903268884789e+00
    4.5294308790012607e+00 -8.8740596419683926e-01
    5.5629055940415721e+00 -6.7624272340724079e-01
    3.1159503701748799e+00 -8.2133712142856830e-01
    2.8480900481424021e+00 -9.4986173216381375e-01
    2.9037039242498537e+00 -8.6598041983481788e-01
    3.1639494817902674e+00 -7.9804027225755725e-01
    2.7886403909204178e+00 -8.2829750075912145e-01
    2.6779417255137381e+00 -8.8534314650270507e-01
    2.5942697550942344e+00 -1.0925169958864032e+00
    4.5295734467657498e+00 -9.0302406246333833e-01
    5.3457440269982337e+00 -6.7084371970862688e-01
    3.0722321858465214e+00 -7.5268542102699609e-01
    2.9374547312846491e+00 -8.6346442199348783e-01
    2.9620016073841073e+00 -8.6394122267010454e-01
    3.1554827283609845e+00 -8.2218157346845722e-01
    2.8043723210785942e+00 -8.7711981957209173e-01
    2.6378714568767885e+00 -1.0337809435869640e+00
    2.5843112817691583e+00 -1.2338209845087171e+00
    4.5381643158631411e+00 -9.5503363401883878e-01
    5.1322902585110928e+00 -7.3247715377326106e-01
    2.8617789332554784e+00 -7.7572228178817237e-01
    2.9606629680440411e+00 -8.1396105915959582e-01
    3.0493326898970441e+00 -8.3036588517060328e-01
    3.1254430643617455e+00 -8.4491936856729488e-01
    2.7688960269691840e+00 -9.5072270281897719e-01
    2.6155748954422782e+00 -1.1159422173702764e+00
    2.5573734281946865e+00 -1.1583448756245389e+00
    4.6823414672039423e+00 -8.6802545777840145e-01
    5.3922858385581680e+00 -8.0777509289036253e-01
    2.8578562180057872e+00 -8.8748656900300726e-01
    3.0537131494347425e+00 -8.5886743495073703e-01
    3.3845809181565700e+00 -8.1764932845179839e-01
    3.4012307584097345e+00 -8.2263934066070143e-01
    3.0026294014352861e+00 -9.0261040886978283e-01
    2.8388966491912808e+00 -9.2873387950149466e-01
    2.9154059189898671e+00 -8.3710756921559226e-01
    5.7490025486473124e+00 -6.5493229396399499e-01
    6.0907589964292157e+00 -7.5308223558811171e-01
    3.1646281329040908e+00 -8.6376341536964907e-01
    3.3690197325239239e+00 -8.3953464561504809e-01
    3.8589713942764399e+00 -7.8420628326218944e-01
    3.9057798288032068e+00 -7.4991153295658275e-01
    3.5559073049328780e+00 -7.6300013657725618e-01
    3.4443382404483183e+00 -7.1649181474055856e-01
    3.8467469714073244e+00 -6.2558300321656979e-01
    7.5464083868123799e+00 -5.2155831008965081e-01
    7.2432695317548328e+00 -6.1248113261030568e-01
    6.7441610145082604e+00 -6.1430004497432100e-01
    6.2981409061637299e+00 -6.2322911968104022e-01
    6.0802839479032071e+00 -6.3077106842037634e-01
    5.9546451071403093e+00 -6.3344009091950781e-01
    6.0106640967882230e+00 -6.3516643460614031e-01
    6.3284454279184041e+00 -6.4113892055994814e-01
    6.9586742700490731e+00 -6.5054919849867254e-01
    7.4856680534636366e+00 -6.3762642073198095e-01
    3.4340719635110615e+00 -7.2194893035481156e-01
    3.1411278070155659e+00 -6.9883015687207850e-01
    2.9885492830080809e+00 -6.9399014270205184e-01
    2.9796307531789070e+00 -7.0567053026565041e-01
    2.9875029187751521e+00 -6.9639437899051160e-01
    2.9897491048871561e+00 -6.9248506862497072e-01
    3.0438221750971262e+00 -7.0986685047505926e-01
    3.2304856146071836e+00 -7.4889921596217190e-01
    3.5633143020019706e+00 -7.6127108782247699e-01
    3.0278817406057912e+00 -8.3851296887071813e-01
    2.7288243733524205e+00 -8.6184932125567282e-01
    2.6198533033289428e+00 -9.3253794245875687e-01
    2.6165027306600654e+00 -1.0166746700902349e+00
    2.6148615952681347e+00 -1.0041411509070155e+00
    2.6434453308498029e+00 -9.4831103585515453e-01
    2.7459540960991338e+00 -8.6424983820453993e-01
    2.8783125913222345e+00 -8.2305164588323820e-01
    3.1163396865451602e+00 -8.3389750507760296e-01
    2.9242877237346843e+00 -9.3228732158559147e-01
    2.6116129321679722e+00 -1.1146364143891383e+00
    2.5929313903157087e+00 -1.3414398027655976e+00
    2.5964141969524643e+00 -1.4285818713671483e+00
    2.5363624684754225e+00 -1.3717439915889456e+00
    2.5306748590241801e+00 -1.3017317688606067e+00
    2.5911944438328351e+00 -1.1399471764154945e+00
    2.7666941555694371e+00 -9.5787841528489626e-01
    3.0683263461483503e+00 -8.6605887880034260e-01
    3.1638669203054826e+00 -8.5193711215435997e-01
    2.7434808807699707e+00 -9.9301526725930844e-01
    2.6590053444597594e+00 -1.0391011854665000e+00
    2.6782019987842309e+00 -9.7091189137650002e-01
    2.6831064422683242e+00 -9.3005532942517577e-01
    2.6704748031211674e+00 -9.5604243637284669e-01
    2.7449747534999935e+00 -9.6503779912327148e-01
    2.9683776382814533e+00 -9.1554564162943941e-01
    3.3806674882407264e+00 -8.2942328955019295e-01
    3.7100394160681129e+00 -8.0059237819534490e-01
    3.2979418412372024e+00 -8.4371489660459187e-01
    3.3169587286013753e+00 -7.7536211715882997e-01
    3.4067976982774009e+00 -7.0647708938321507e-01
    3.3786963227526869e+00 -7.0197899035658184e-01
    3.3115797580872748e+00 -7.3388708018401327e-01
    3.2604406061290931e+00 -7.8798563319152903e-01
    3.3519139902394306e+00 -8.3425621372580283e-01
    3.7383542870724833e+00 -7.9851741397698339e-01
    3.7196432705366549e+00 -7.8204237043644020e-01
    3.2241548663860984e+00 -8.2607753882229973e-01
    3.1211807428161573e+00 -7.5924089589378529e-01
    3.0915518205609427e+00 -6.9076029335081879e-01
    3.0473410122602416e+00 -6.8134472094068044e-01
    3.0648222311996953e+00 -7.0691814651105400e-01
    3.0087309367599313e+00 -7.7725899702757240e-01
    3.0887409070475291e+00 -8.3352979867940358e-01
    3.5665819672064725e+00 -7.8381847793030823e-01
    3.5409751963830387e+00 -7.7969430190798616e-01
    2.9251298888614814e+00 -8.9530964876656127e-01
    2.7336189846032299e+00 -9.7148666870981382e-01
    2.6886164436338227e+00 -9.7827159487553172e-01
    2.6596292598581566e+00 -9.7264293212739039e-01
    2.6799752659108562e+00 -9.6827510107744319e-01
    2.7246108009707486e+00 -9.5535726356298656e-01
    2.8850466564473249e+00 -8.8674626672161494e-01
    3.3252860549313263e+00 -7.8005778793365943e-01
    3.4982688512150855e+00 -7.8075566728086010e-01
    2.8944298921759999e+00 -8.9184352257237554e-01
    2.6091902468064396e+00 -1.0383293104634843e+00
    2.5134418255849478e+00 -1.1207349969735287e+00
    2.4854854494584986e+00 -1.1274414076542085e+00
    2.5263386346542385e+00 -1.0972633077398399e+00
    2.6575324704389214e+00 -1.0279930231889769e+00
    2.8885794996086944e+00 -9.0442996668610309e-01
    3.2356540088626846e+00 -8.0122330484603677e-01
    3.7479607676024762e+00 -7.5515455390943309e-01
    3.3286623712390391e+00 -7.8210790455854518e-01
    3.0721078450638348e+00 -7.9352980085124969e-01
    2.9390202138496750e+00 -7.8428451214242156e-01
    2.9399378817943460e+00 -7.7835119224031790e-01
    2.9604961712945146e+00 -7.9160106935151897e-01
    3.0182373125858524e+00 -8.1914688492283827e-01
    3.2073421203657433e+00 -8.3443416757483380e-01
    3.5407031341913808e+00 -8.0152119933799837e-01
    3.6932098834089846e+00 -7.6675233573379231e-01
    3.3944263968975625e+00 -7.7130808048266863e-01
    3.4477439116060058e+00 -7.0150668401615213e-01
    3.5584803075052482e+00 -6.4761244428823683e-01
    3.5615845033545512e+00 -6.4123882187874492e-01
    3.5005789818385242e+00 -6.6249499476798235e-01
    3.3420920375688747e+00 -7.3745685710501740e-01
    3.2963663909578931e+00 -8.2862977032947838e-01
    3.6069121206273524e+00 -8.0060564031381232e-01
    3.1989045472669151e+00 -8.1575411607187143e-01
    2.8957797649061114e+00 -8.6801206832065991e-01
    2.9141531303734332e+00 -8.0163969392967716e-01
    2.9800753178681991e+00 -7.3805884606799321e-01
    2.9447104878530985e+00 -7.4010686481069732e-01
    2.8934315065684619e+00 -7.8527484316491769e-01
    2.7878211856172816e+00 -9.1052869446434304e-01
    2.7790880934487925e+00 -9.9285789605283770e-01
    3.0707761456991531e+00 -8.7076159424345945e-01
    2.9708444039245503e+00 -8.9078214644704667e-01
    2.6370134976396260e+00 -1.0586642542915330e+00
    2.5668418828930744e+00 -1.1156510360055236e+00
    2.5869948053222873e+00 -1.1022878425352938e+00
    2.5848825573186356e+00 -1.1391130901763837e+00
    2.6028251910761200e+00 -1.2601480914775027e+00
    2.6260256711695904e+00 -1.3939241038033161e+00
    2.6040926937310931e+00 -1.2551098177063020e+00
    2.8208042767754633e+00 -9.3980522004588329e-01
    3.1356503377377876e+00 -7.8639859321497618e-01
    2.6577546953172320e+00 -9.2708348647826722e-01
    2.4904761536101012e+00 -1.0401570326941822e+00
    2.4776469534360168e+00 -1.0957492504073716e+00
    2.4812897625488035e+00 -1.1506910853104160e+00
    2.4951631472109845e+00 -1.2228923919042904e+00
    2.5064400266618900e+00 -1.2176268904455045e+00
    2.5827720544508690e+00 -1.0143921477241409e+00
    2.9777698527372056e+00 -7.8632730633160719e-01
    6.8115070512016285e+00 -5.7707997730953642e-01
    5.8297622264773814e+00 -6.2316223878902177e-01
    5.2155970685101725e+00 -6.6212876552716171e-01
    5.0333432224807151e+00 -6.7959847697196996e-01
    4.9527933908404584e+00 -6.9066262772142273e-01
    4.9335972944994504e+00 -6.9756882176863766e-01
    5.0692019319825148e+00 -6.8132274619310917e-01
    5.5803907454626458e+00 -6.1821004154856463e-01
    6.4569769192026829e+00 -5.5793114227279395e-01
    7.3931645272488575e+00 -6.4215464954534107e-01
    3.9886193239538108e+00 -7.2844880133235956e-01
    4.0127829923268727e+00 -7.1871668070123285e-01
    4.3251264756339918e+00 -7.0560970143398849e-01
    4.5567725418539213e+00 -6.8255308695749550e-01
    4.4457396738071440e+00 -6.6394145211048305e-01
    4.3155600178966189e+00 -6.5569833034288960e-01
    4.5201514387414550e+00 -6.5102292524763106e-01
    8.4181231649156985e+00 -5.6679414655047500e-01
    5.8223586943688286e+00 -8.3921212431577319e-01
    3.0600702303750595e+00 -9.7720516958590642e-01
    3.2100636088080781e+00 -8.8803120761331422e-01
    3.5786079212264377e+00 -7.9437356066075926e-01
    3.8812265953077412e+00 -7.4684856928886922e-01
    3.8737735792487120e+00 -7.2133335297780854e-01
    3.7778978609025113e+00 -6.7977757205900902e-01
    3.8169690317335849e+00 -6.6651905059223349e-01
    7.2929023193868643e+00 -6.0933955655420102e-01
    4.7270587297451243e+00 -1.0721472588096155e+00
    2.6056088009420280e+00 -1.2806391579020384e+00
    2.7017239367366543e+00 -1.0247740531598324e+00
    2.9218270517694620e+00 -8.5869797855714403e-01
    3.0604143069009733e+00 -8.4778844430330591e-01
    3.0023350875471366e+00 -8.5804787506688018e-01
    3.0571891346417255e+00 -7.7105734564733819e-01
    3.1878864345045703e+00 -6.8474777377835372e-01
    5.9245655072425505e+00 -6.4152502315442750e-01
    4.5307573269170351e+00 -1.0770414010569143e+00
    2.5683127436751731e+00 -1.1986102804791436e+00
    2.7908190822051462e+00 -8.9090680506749820e-01
    2.8718882432532471e+00 -8.1941225101989235e-01
    2.8981132714658209e+00 -9.3281766185041548e-01
    2.6858058637400233e+00 -1.0578035279116911e+00
    2.7013631601228982e+00 -1.0049692104669370e+00
    2.9891127627072192e+00 -7.8192403014251943e-01
    5.3920702788868464e+00 -6.7206022661582943e-01
    4.5748496226282622e+00 -9.3601036655926173e-01
    2.6691199543766837e+00 -9.8443762881654018e-01
    3.0331689977573939e+00 -7.6620437417147313e-01
    2.8507064363516492e+00 -8.1575454939771541e-01
    2.9153702196199500e+00 -9.4299160407657512e-01
    2.6243371583331574e+00 -1.0696235647506931e+00
    2.5902998005440843e+00 -1.1232927406758959e+00
    2.9356361734689407e+00 -8.7550710820950794e-01
    5.2731521781539046e+00 -6.9442764928674983e-01
    4.6404883068844001e+00 -8.7689938326799488e-01
    2.7054056117047312e+00 -9.4140016847292352e-01
    2.9977260107971055e+00 -7.8422810746093952e-01
    2.8047810749112569e+00 -8.5381669214648059e-01
    2.9297251778465552e+00 -9.2517715443469351e-01
    2.6692492850129215e+00 -9.9743021264710252e-01
    2.6015702488415071e+00 -1.0719658630111792e+00
    2.9510083318458920e+00 -8.6214250456150809e-01
    5.2542210884514642e+00 -6.9708380698091366e-01
    4.7213907632158794e+00 -8.8207324643710072e-01
    2.6636822587670554e+00 -1.0283113030707680e+00
    2.7770524418271778e+00 -9.3125388385903973e-01
    2.7901902502063542e+00 -9.2919532483214717e-01
    2.9649091724890346e+00 -9.3202750697030345e-01
    2.7447103059633706e+00 -9.7435008429269865e-01
    2.6628307313484854e+00 -9.9436942376373938e-01
    2.9140884988542948e+00 -8.1653700962472997e-01
    5.1422604311495830e+00 -7.1424551620377907e-01
    4.8052002325599155e+00 -8.7417675677908868e-01
    2.6110936527293465e+00 -1.0671920986011487e+00
    2.6350764091470982e+00 -1.0273813592546701e+00
    2.7735459733507648e+00 -9.7721024876570795e-01
    2.9864635037226956e+00 -9.3195481147704051e-01
    2.7861830039775577e+00 -9.6197124883249985e-01
    2.6754691697096233e+00 -9.7289949571227075e-01
    2.8029931410615481e+00 -8.1635606365566282e-01
    4.9614098510475415e+00 -7.4472001451799830e-01
    4.9584659786419776e+00 -8.2080909198111507e-01
    2.7265490028169208e+00 -9.4079275339171553e-01
    2.8580249191087335e+00 -8.9308562879398445e-01
    2.9090841884489578e+00 -9.0431352169394608e-01
    2.9721908514532474e+00 -9.3911427764689892e-01
    2.7069089371723853e+00 -1.0328304097312659e+00
    2.6471525117560697e+00 -1.1116313359077734e+00
    2.7679871560900762e+00 -8.9615411846808457e-01
    4.8835427434528302e+00 -7.6649102238407429e-01
    5.0648773804514873e+00 -7.7287986163354361e-01
    2.8908883434149897e+00 -8.2248102301355719e-01
    3.2185272116429475e+00 -7.3436241173466510e-01
    2.9967174974763524e+00 -7.9379518700631158e-01
    2.9664749382148337e+00 -9.1496736086846608e-01
    2.6470618004532023e+00 -1.0637696235210512e+00
    2.6005463082096680e+00 -1.1850549807626918e+00
    2.8075456750918755e+00 -9.3711634955019896e-01
    4.9117037013475482e+00 -7.5999212868975130e-01
    5.0768549421868681e+00 -8.0432195292470665e-01
    2.8832949268853776e+00 -8.7741893504432933e-01
    3.1220955142156823e+00 -7.5387930570713113e-01
    2.9657221070794200e+00 -7.8229386636342713e-01
    3.0002814522058694e+00 -8.8583416977716622e-01
    2.6687072938948742e+00 -1.0157656192211795e+00
    2.6006960855984023e+00 -1.0995857161207754e+00
    2.8780773639758346e+00 -8.8318367563921085e-01
    4.9569565740802837e+00 -7.3472003220479132e-01
    4.8943283642000655e+00 -8.8006421634450149e-01
    2.6776005055472853e+00 -1.0188909886082538e+00
    2.8568006444577421e+00 -8.8616484262647743e-01
    2.9821961786700437e+00 -8.2741023090311105e-01
    3.0400564730984532e+00 -8.8672179732671041e-01
    2.7378829285545492e+00 -9.8255604582891276e-01
    2.7034294481523826e+00 -9.7868990104828468e-01
    2.8793566080625284e+00 -8.1909961283419497e-01
    4.8641692365575624e+00 -7.5132424234589690e-01
    4.9243075928744426e+00 -8.4055686250769657e-01
    2.5963196838571152e+00 -9.9689145811049462e-01
    2.7406133839133759e+00 -9.3861001011364942e-01
    2.9880555798533952e+00 -8.5317909699491035e-01
    3.1308281255416506e+00 -8.5255156206663940e-01
    2.9038468634717844e+00 -8.8703412844199425e-01
    2.8078701422602781e+00 -8.9380111882569746e-01
    2.7065523860338989e+00 -8.6990191324054533e-01
    4.7602857573208022e+00 -8.5952606324766001e-01
    5.9701141930187580e+00 -6.8433032239526592e-01
    3.0746946907153352e+00 -7.8206838551081681e-01
    3.1753771517434353e+00 -7.8999158817039239e-01
    3.4192224600306931e+00 -7.6392302479709129e-01
    3.6423248987317125e+00 -7.5788844939521172e-01
    3.3747338530316338e+00 -7.9584097444817381e-01
    2.9307970011871620e+00 -9.1449442226754851e-01
    2.7495597999171326e+00 -1.0432786296548013e+00
    5.0776131007186072e+00 -9.8582333777624120e-01
    7.5143173704649184e+00 -5.6281682592186955e-01
    4.0631669159443415e+00 -6.1476000583418167e-01
    4.1008480331506796e+00 -6.2843312684109920e-01
    4.1669034177321027e+00 -6.4350804794081962e-01
    4.3169284765349349e+00 -6.7238253798039738e-01
    3.9911569177958732e+00 -7.2783604934600099e-01
    3.2671250793378595e+00 -8.5646281321908069e-01
    3.0487665058661158e+00 -9.8812048486168980e-01
    5.6720619322275958e+00 -8.9184434185286043e-01
    6.9908595341697479e+00 -6.5500182145517905e-01
    5.9847900517346764e+00 -7.5218926811396225e-01
    5.4461946028827812e+00 -8.0127220944325839e-01
    5.3350712650935836e+00 -8.0237956677890354e-01
    5.2740944849662608e+00 -8.0018563082270577e-01
    5.3439544881047070e+00 -7.9161777918553899e-01
    5.7620079824133477e+00 -7.4371653161223283e-01
    6.6926466334304902e+00 -6.6632630242676794e-01
    7.5554633123715815e+00 -6.0411987033426606e-01
    3.2515671072807764e+00 -8.0175809688261690e-01
    2.6943802911630019e+00 -1.0426229192468131e+00
    2.5614064193244883e+00 -1.1934429095988626e+00
    2.5564388114042411e+00 -1.1916262951097600e+00
    2.5402838157153624e+00 -1.1912944068676106e+00
    2.5374363041688381e+00 -1.1741798086253710e+00
    2.5985315596176344e+00 -1.0464643055251390e+00
    2.9320619409544935e+00 -8.4988568712270984e-01
    3.6363280307968107e+00 -6.9836563080166880e-01
    3.0157166159875715e+00 -8.2166395073313636e-01
    2.5706584519337401e+00 -1.0733345805539012e+00
    2.5237777204860716e+00 -1.1441738415586369e+00
    2.5866358058123131e+00 -1.0608948089337815e+00
    2.5820740410336631e+00 -1.0433527885863227e+00
    2.5571925604910244e+00 -1.0787812884972290e+00
    2.5534438672650137e+00 -1.0661273526493442e+00
    2.7033712559369305e+00 -9.3101370446167853e-01
    3.2843329553980425e+00 -7.2476506774115890e-01
    3.2158167396583393e+00 -7.4903796703352632e-01
    2.8459243484161885e+00 -8.3937000744984991e-01
    2.9176670033460961e+00 -7.9812496046813874e-01
    3.0362539028147206e+00 -7.3777422091285261e-01
    2.9652769181559098e+00 -7.3842305941541753e-01
    2.9373349406161138e+00 -7.6759665187641635e-01
    2.8904502892064974e+00 -8.0549347033617891e-01
    2.9100504861050451e+00 -8.1273782614859280e-01
    3.3323624332051676e+00 -7.1212841693535589e-01
    3.3741469402165669e+00 -7.2800884346088579e-01
    2.9474349064434886e+00 -7.9818785166915784e-01
    2.8169457358188472e+00 -8.6153869478463707e-01
    2.7293468096037872e+00 -9.1960193641257515e-01
    2.6747718478845530e+00 -9.3532011049927721e-01
    2.7347341181385572e+00 -8.9698359075589695e-01
    2.9103169882613074e+00 -8.3026470097948724e-01
    3.1570953843252245e+00 -7.5856362029541302e-01
    3.5736081340135772e+00 -6.8813395666998234e-01
    3.7814220072094589e+00 -7.0214925869682809e-01
    3.2275708600445889e+00 -8.1865832066739574e-01
    2.9015418181624830e+00 -1.0030661576122155e+00
    2.7564257074816418e+00 -1.1003850949472924e+00
    2.7029609465288611e+00 -1.0809690401402883e+00
    2.7356117067113401e+00 -1.0343025748905961e+00
    2.9199643904759873e+00 -9.4221646451536334e-01
    3.3510991953086271e+00 -7.9730052052560740e-01
    3.8667018142418597e+00 -6.8619154616192701e-01
    3.9061552198593033e+00 -6.8833225569119871e-01
    3.2719419398161707e+00 -8.0045918013547646e-01
    2.7611952317112136e+00 -1.0018610460259931e+00
    2.5571262457252377e+00 -1.1202897333760995e+00
    2.5260288829055124e+00 -1.1213954727310924e+00
    2.5808723260873103e+00 -1.0858141191536768e+00
    2.7167875877852592e+00 -9.8772845481171856e-01
    3.0356595557510975e+00 -8.3158589225435131e-01
    3.5616595678612533e+00 -7.1407328594815345e-01
    3.6545876507324042e+00 -7.0181384089270582e-01
    3.1942715422941608e+00 -7.6262372010622137e-01
    2.9378113975722759e+00 -8.4851560242995183e-01
    2.8069990110864222e+00 -8.9353422376809444e-01
    2.7813963761670197e+00 -9.0066991321307532e-01
    2.8412531726125394e+00 -8.9526594002538484e-01
    2.8763356452007374e+00 -8.8052045666137757e-01
    2.9675801881706549e+00 -8.4050475460569130e-01
    3.3556145695960167e+00 -7.5860061215840457e-01
    3.4772780440747684e+00 -7.0685627662594452e-01
    3.0846517606760924e+00 -7.6385908550300408e-01
    3.0496468463757962e+00 -7.7196177828825263e-01
    3.0735893607348883e+00 -7.4647376701145440e-01
    3.0214981799403544e+00 -7.3501898529410747e-01
    3.0468033689940506e+00 -7.5640636820261486e-01
    3.0400427914575348e+00 -8.0584508619664286e-01
    3.0560501156947142e+00 -8.2201679375322756e-01
    3.4264974419295799e+00 -7.4317032643626646e-01
    3.5700226195889875e+00 -7.1460134082642146e-01
    3.0707742672723239e+00 -8.2860957871330276e-01
    2.8480871224777813e+00 -9.4556566231270700e-01
    2.7071825062777046e+00 -9.9830222903785693e-01
    2.6777887209543776e+00 -1.0001503690869036e+00
    2.7365568319890232e+00 -9.8121145993522996e-01
    2.8677540023928354e+00 -9.3869540497677839e-01
    3.1114345921820075e+00 -8.3411449170837682e-01
    3.6161704429782811e+00 -7.1458729851998715e-01
    3.7886683279188413e+00 -7.0907742895873460e-01
    3.1471784532237672e+00 -8.3971924435075651e-01
    2.7985203756926413e+00 -1.0277004589982650e+00
    2.6961047492838812e+00 -1.1410875224162440e+00
    2.6859461808041192e+00 -1.1395280700341803e+00
    2.7032063034311742e+00 -1.1259775630966473e+00
    2.8114838903828909e+00 -1.0327806625698290e+00
    3.1702704564052899e+00 -8.4584247057372719e-01
    3.7711560504491306e+00 -7.1355548745932595e-01
    3.4726386474502386e+00 -7.1261733286656359e-01
    2.9116129222953582e+00 -8.2052787672975847e-01
    2.6447488557498895e+00 -9.8356581307433244e-01
    2.5492371906196225e+00 -1.0876618095969639e+00
    2.5337245017108980e+00 -1.0924938690399180e+00
    2.5527504597097024e+00 -1.0869684774933914e+00
    2.6719664850875811e+00 -9.7335319100528961e-01
    2.9547962158611685e+00 -8.1090850142137749e-01
    3.3786174394854371e+00 -7.2268809339630191e-01
    3.4034660263355501e+00 -7.0858549426042339e-01
    3.0813604389668718e+00 -7.3660957117241810e-01
    3.0037512892905012e+00 -7.7738021725963313e-01
    2.9247701663515708e+00 -8.2357487692831621e-01
    2.8917276893198207e+00 -8.2867797818801203e-01
    2.9341413222588066e+00 -8.0294982443161755e-01
    3.0019836620741782e+00 -7.4903669105154980e-01
    2.9622166477792877e+00 -7.3997268339823141e-01
    3.1418404601332037e+00 -7.5134100151888217e-01
    3.1105286752948800e+00 -7.8142732823760563e-01
    2.8228508444348819e+00 -8.0311493791232236e-01
    2.7657238494928351e+00 -7.8317620829274748e-01
    2.8042442645440149e+00 -7.7674005792568679e-01
    2.7862398277735654e+00 -7.7984485819080562e-01
    2.7258969684052516e+00 -7.9471966431882279e-01
    2.6252199951338535e+00 -8.3510758732792501e-01
    2.6637291915181969e+00 -9.0163941623194765e-01
    2.9135122342365998e+00 -8.8835625994745715e-01
    5.4964355424259770e+00 -7.9286077527070775e-01
    4.9721919448088459e+00 -8.7160368983516423e-01
    4.6622528625063344e+00 -9.0267556573186725e-01
    4.5671545920770233e+00 -9.1291883939002505e-01
    4.5190847097075011e+00 -9.3772572984389502e-01
    4.5011816844255934e+00 -9.9353481459431736e-01
    4.5477943128147054e+00 -1.0568079172696867e+00
    4.7954057461255752e+00 -1.0423794804298205e+00
    5.1850076609548612e+00 -9.0948011605679480e-01
    4.7772272452105362e+00 -9.0012954694258351e-01
    3.3496787801906005e+00 -9.6105151722455084e-01
    3.3623272210517854e+00 -9.9110811573476121e-01
    3.5029918965265261e+00 -1.0059330696830611e+00
    3.6405131634867551e+00 -1.0110631908648418e+00
    3.7083830433177796e+00 -9.9101862368665949e-01
    3.8252358506909552e+00 -9.3427328211876082e-01
    4.0585100116182486e+00 -8.4946892051055978e-01
    5.6083810592080363e+00 -8.1199152942936004e-01
    2.9021757638313095e+00 -1.0270923262968401e+00
    2.5149312394307111e+00 -1.2410393544502141e+00
    2.5104842216055738e+00 -1.2813553561602200e+00
    2.5081313091358299e+00 -1.2678210788802782e+00
    2.4993624799474539e+00 -1.2776843150997195e+00
    2.5100179458788645e+00 -1.2081492137674614e+00
    2.6425388616711354e+00 -1.0290896025477216e+00
    3.1208842005420916e+00 -8.4171069107890228e-01
    3.6200046734302713e+00 -8.1714483609012922e-01
    2.7504719260842583e+00 -1.1133885373894428e+00
    2.4428645024180455e+00 -1.3364342503475497e+00
    2.4922660838231354e+00 -1.2073936540488217e+00
    2.5289977069134966e+00 -1.1200423314415715e+00
    2.5198616574222834e+00 -1.1352726174128358e+00
    2.5211992781950312e+00 -1.1235285776675141e+00
    2.6194789360341604e+00 -1.0179267113913129e+00
    3.0379207515736866e+00 -8.3577331275815692e-01
    3.6336080519819740e+00 -8.9496566249226728e-01
    2.9885494645986723e+00 -1.0883483745913780e+00
    2.5314931706592829e+00 -1.1016965226304865e+00
    2.7247172897404104e+00 -8.6658009486058485e-01
    2.7133106404481078e+00 -8.2595000939576757e-01
    2.6804569487684984e+00 -8.8207987950662037e-01
    2.6907418472634914e+00 -9.3379295818469044e-01
    2.7202131213813487e+00 -9.3176881309394977e-01
    2.9297924953873626e+00 -7.9685643879529999e-01
    3.5793623583310064e+00 -9.2953356914122076e-01
    3.1652517380128464e+00 -1.0848015331660952e+00
    2.5951301176732087e+00 -1.0409486291213901e+00
    2.6416845155543234e+00 -8.8494035103311885e-01
    2.5009201061360526e+00 -1.0211311927223474e+00
    2.5436273923278612e+00 -1.1622868905265555e+00
    2.5479164665917544e+00 -1.1806690418533530e+00
    2.5785475598353891e+00 -1.1483398479399516e+00
    2.7687487600686942e+00 -9.0404579291315357e-01
    3.4657744231651142e+00 -9.3164097849558714e-01
    3.3688849285585611e+00 -1.0981305442499709e+00
    2.6224353853201614e+00 -1.0998944444942169e+00
    2.6238348629298121e+00 -1.0258423295464738e+00
    2.5439326895494596e+00 -1.2260652395099194e+00
    2.5869169533401672e+00 -1.3386491013131250e+00
    2.5090658579513634e+00 -1.3064033033421358e+00
    2.5378038931776570e+00 -1.2599613979536699e+00
    2.7506274865126721e+00 -9.5489252285477733e-01
    3.4729307902246180e+00 -9.2363534466383013e-01
    3.5153378772469530e+00 -1.1013274260082209e+00
    2.5967308618857601e+00 -1.1240544624874560e+00
    2.5506127329513011e+00 -1.1089049470627881e+00
    2.4980813644131201e+00 -1.2693595407429268e+00
    2.4923927246174697e+00 -1.3262739702712059e+00
    2.4659393224898594e+00 -1.3031455950511885e+00
    2.5198487906926905e+00 -1.2197971449145071e+00
    2.7431237358039389e+00 -9.3505827910987105e-01
    3.2815736654698466e+00 -9.1869144667264702e-01
    3.4227684593868712e+00 -1.0606121181239636e+00
    2.5948177231392697e+00 -1.0485297352590150e+00
    2.6007502486647129e+00 -1.0028330868045703e+00
    2.5936635526630316e+00 -1.0467100519709553e+00
    2.6068163106131550e+00 -1.0587639490021963e+00
    2.5594795710173752e+00 -1.0693367180253477e+00
    2.5624676196043850e+00 -1.0723653103233133e+00
    2.7405797117551667e+00 -9.1313741172601948e-01
    3.2634895282331566e+00 -9.8295424601958536e-01
    3.3056657861567995e+00 -9.9978972761968532e-01
    2.6683482392819609e+00 -9.4918133104553226e-01
    2.7742286457942429e+00 -8.6717836536410553e-01
    2.6981990744896636e+00 -8.6043748162925493e-01
    2.6802995783128680e+00 -8.9218181901658611e-01
    2.6219016942496989e+00 -9.7497611838653941e-01
    2.5925933562538650e+00 -1.0709838048846936e+00
    2.6877883103749811e+00 -9.3489172599802262e-01
    3.3852391375637421e+00 -1.0275558644696885e+00
    3.2879571928726494e+00 -1.0087405267111325e+00
    2.6835737283450749e+00 -1.0096250388121990e+00
    2.6762649844011328e+00 -9.7552963417165317e-01
    2.5153146477328128e+00 -1.0814592764721516e+00
    2.5355928383014459e+00 -1.1946365855070438e+00
    2.5381976618806057e+00 -1.2645770981393860e+00
    2.5560154325443674e+00 -1.2876204469105008e+00
    2.6445495252484186e+00 -1.0020226433151591e+00
    3.3733568898359332e+00 -1.0022729892595850e+00
    3.2973082189486571e+00 -1.0226707182687425e+00
    2.6408538736720253e+00 -1.0922988589901259e+00
    2.6301197501983449e+00 -1.0848248684891664e+00
    2.5564353663808337e+00 -1.2206723204300154e+00
    2.5598799275802744e+00 -1.3277744272692278e+00
    2.5017613171551250e+00 -1.3673587559624840e+00
    2.5160482898189711e+00 -1.3223142577153997e+00
    2.6559169845394277e+00 -9.9699529739155801e-01
    3.3076207548732883e+00 -9.5862621308312612e-01
    3.1945039307976431e+00 -1.0176431859358821e+00
    2.5178838404871406e+00 -1.0839551498672244e+00
    2.5555303444097661e+00 -1.1049208582219985e+00
    2.5351992446138909e+00 -1.1782586928644250e+00
    2.4810166593840202e+00 -1.2440479910285567e+00
    2.4566398793006683e+00 -1.2727389636167941e+00
    2.5015506796193856e+00 -1.1596294346532769e+00
    2.6717563925120538e+00 -9.2123690606519038e-01
    3.0685166987798023e+00 -9.1581634788652311e-01
    3.4695231604336860e+00 -9.7368332255551771e-01
    2.7820975992719617e+00 -9.0630575666635560e-01
    2.8428769967803094e+00 -8.9705237909715685e-01
    2.7976216478399105e+00 -9.0352715402499006e-01
    2.7190955846883393e+00 -9.3145042132099665e-01
    2.6947680161888616e+00 -9.1743897654930395e-01
    2.7151018494525467e+00 -8.6804296234879508e-01
    2.6405035389722067e+00 -8.5471916163136286e-01
    2.8560985398304606e+00 -9.3288617429359499e-01
    3.3469395326696669e+00 -9.4120215552912312e-01
    3.0151681438311759e+00 -8.3329490800338435e-01
    2.8058072894661978e+00 -8.3206360712577099e-01
    2.7292687424895794e+00 -8.2712464753943415e-01
    2.7042645947409643e+00 -8.2699205578002355e-01
    2.6601911442365576e+00 -8.3496854572495027e-01
    2.5336066068981200e+00 -9.0483187446744584e-01
    2.4402233435546834e+00 -1.0595002563727884e+00
    2.6880435948856585e+00 -1.1052641656919986e+00
    4.8809576353522397e+00 -9.9541769159144622e-01
    3.7270776336872475e+00 -9.5499876949388451e-01
    3.6609877389858050e+00 -1.0506011884006938e+00
    3.5465167522596137e+00 -1.0799922697383200e+00
    3.4657562546289817e+00 -1.0905602547533064e+00
    3.2639316535244034e+00 -1.1138902839555052e+00
    2.9374364068751269e+00 -1.2035442319192009e+00
    2.8446490474670028e+00 -1.3237941038307643e+00
    3.7938990751260806e+00 -1.2317489384200189e+00
    5.1758242690718967e+00 -8.7272025908789330e-01
    3.6950482837238026e+00 -8.8519197709350406e-01
    3.6810928337046365e+00 -8.9556602120373885e-01
    3.7933727971712004e+00 -8.9979970210289095e-01
    3.8289199385117114e+00 -8.7653104186654307e-01
    3.6890021694675674e+00 -8.4481311284931826e-01
    3.5468339075199844e+00 -8.1853333202313960e-01
    3.6511885820151515e+00 -8.0430341076748457e-01
    5.1103005566930824e+00 -8.0189688048350827e-01
    3.3333002922274186e+00 -9.2821074888429977e-01
    2.9539741802332991e+00 -8.7315842288684242e-01
    2.8088542690222327e+00 -7.9206909638203771e-01
    2.7929062007629706e+00 -7.8696505997424349e-01
    2.8226147556863772e+00 -7.8090321959147069e-01
    2.8094745980178941e+00 -7.6108942495230414e-01
    2.7890934133786383e+00 -7.6329643346315490e-01
    2.8376286175083050e+00 -8.0123749736354588e-01
    3.1885596515114680e+00 -8.6872219332364375e-01
    3.1750505053787013e+00 -1.2153736699948656e+00
    2.6520256950118348e+00 -1.1673883042188593e+00
    2.5405630925535854e+00 -1.0116480581739331e+00
    2.5278658170078985e+00 -1.0643707032126557e+00
    2.5530546431965679e+00 -1.1114043729672216e+00
    2.5620465374523738e+00 -1.0270990368390644e+00
    2.6203972823228270e+00 -8.9660885639674981e-01
    2.6888082863629830e+00 -8.2677893301616956e-01
    2.9219003431650883e+00 -9.3199307821434152e-01
    2.9998159681873435e+00 -1.3495459951381339e+00
    2.5249381297171758e+00 -1.3915300848306982e+00
    2.5160360802333361e+00 -1.2589782432944809e+00
    2.5418075677471155e+00 -1.4037311382207542e+00
    2.5627522987502886e+00 -1.5219302017055061e+00
    2.5065464109217621e+00 -1.4325344137604195e+00
    2.5106726844906246e+00 -1.2273944685127849e+00
    2.6500610964914779e+00 -9.5671340715568154e-01
    2.9584582290981580e+00 -9.8528385191802670e-01
    2.9855974243391534e+00 -1.2016407960819078e+00
    2.4940284413571265e+00 -1.1709581231849697e+00
    2.6179215996541552e+00 -9.6867191179622902e-01
    2.5482548499033801e+00 -1.0246641895150330e+00
    2.5097560703465400e+00 -1.1060768563729309e+00
    2.4492989329667987e+00 -1.1659648167592158e+00
    2.4949442822659891e+00 -1.2020246225945235e+00
    2.6874118367705457e+00 -9.8149781256964497e-01
    3.1945821705056154e+00 -9.9908945276776817e-01
    3.1665171716377611e+00 -1.1179204187043517e+00
    2.5820046913945180e+00 -1.0333770599275984e+00
    2.8270389476014248e+00 -8.1367404082223760e-01
    2.6729102028166634e+00 -8.3315381015739620e-01
    2.6777767758531126e+00 -8.9685945289624480e-01
    2.5891155012202720e+00 -9.7903676336139112e-01
    2.5585314677183386e+00 -1.0724474039922782e+00
    2.7499165258459386e+00 -9.2523050893085779e-01
    3.4251224264507796e+00 -1.0136211377102435e+00
    3.1435872332898489e+00 -1.0835930870705131e+00
    2.5721860504803997e+00 -1.0775717817728911e+00
    2.7018623055954785e+00 -8.9755888489752478e-01
    2.6105511737779121e+00 -8.5217878133395042e-01
    2.6339401748005447e+00 -8.6789609809642632e-01
    2.5916109461474446e+00 -9.3003756210087063e-01
    2.5550507999438694e+00 -9.9010816977028315e-01
    2.7032023792248814e+00 -8.8149403480249033e-01
    3.3596887565031976e+00 -1.0186833168036884e+00
    3.1077660854474836e+00 -1.0664815342707912e+00
    2.5297505560487323e+00 -1.1498171600800595e+00
    2.5468722770182475e+00 -1.1231499701538601e+00
    2.5365965957988688e+00 -1.1464752905375859e+00
    2.5560745858927776e+00 -1.1496435629184001e+00
    2.5370010242506633e+00 -1.1747383059794412e+00
    2.5423260395079126e+00 -1.1472843440984049e+00
    2.6352075422654835e+00 -9.3026507607006859e-01
    3.1621797046809657e+00 -9.9729220458366163e-01
    3.1753816225927221e+00 -1.0636008773879659e+00
    2.5418678706565943e+00 -1.0969881851426577e+00
    2.5154507173559648e+00 -1.1225303914238771e+00
    2.4988329065641572e+00 -1.2622574761815821e+00
    2.4963346340839503e+00 -1.3306327081700489e+00
    2.4866301203370411e+00 -1.3658608478244800e+00
    2.5488191381860341e+00 -1.3351848671625748e+00
    2.6234715865485856e+00 -1.0145746246429361e+00
    3.0239930450228267e+00 -9.9154330548225700e-01
    3.3247661660445416e+00 -1.0301403137556151e+00
    2.6693571119121073e+00 -9.4827963108132507e-01
    2.8045371293057197e+00 -8.6386434935307410e-01
    2.6814493975978828e+00 -9.1562797387857819e-01
    2.6051141777597913e+00 -9.8221409073092558e-01
    2.4802863024184880e+00 -1.0785293517437515e+00
    2.5096305809298562e+00 -1.1752897107533713e+00
    2.6904835351978327e+00 -9.7592814522643079e-01
    3.1968588242496172e+00 -9.9823466224461577e-01
    3.2611454984211830e+00 -1.0300092433891419e+00
    2.6837257618873700e+00 -9.4426618278768970e-01
    2.8838648586773230e+00 -7.9296882998178853e-01
    2.8135865681177852e+00 -7.7537989228230186e-01
    2.7766174582952057e+00 -8.3053444733506054e-01
    2.6142163555303277e+00 -9.3225960338375347e-01
    2.5477268678348013e+00 -1.0271736077567486e+00
    2.7213933111998307e+00 -9.1162967755399338e-01
    3.3864568920240639e+00 -1.0508466911760570e+00
    2.9999389660131373e+00 -1.0784693051296059e+00
    2.5820547200773190e+00 -1.0799792338382621e+00
    2.6636160949925292e+00 -9.2159199182242835e-01
    2.6784294869753147e+00 -8.4152956995093131e-01
    2.6419986817727406e+00 -8.7443912343929631e-01
    2.5951415039637515e+00 -9.5854729987556742e-01
    2.5630831335100948e+00 -1.0049962287577132e+00
    2.6202670426041781e+00 -9.4292502307161041e-01
    3.2891584352110019e+00 -1.1933530403324693e+00
    2.7997013522440994e+00 -1.0966050612161253e+00
    2.4706192529297457e+00 -1.2029692792532654e+00
    2.5140141390635065e+00 -1.2076477266688426e+00
    2.5368180421479587e+00 -1.1760777076071647e+00
    2.5347668227739524e+00 -1.2238854560174146e+00
    2.5417630684981307e+00 -1.3050993256271528e+00
    2.5512898804527491e+00 -1.3072765168207612e+00
    2.6172609272566643e+00 -1.2115414591118436e+00
    3.1974863947045549e+00 -1.3259611265406888e+00
    2.8548302603901266e+00 -9.0466940885908620e-01
    2.4934950529137034e+00 -9.8808206571124668e-01
    2.4636434988586244e+00 -1.0946410218951308e+00
    2.4666217873777252e+00 -1.1539732206488975e+00
    2.4548606067940359e+00 -1.1998468641865758e+00
    2.4536503660558937e+00 -1.2317252933868061e+00
    2.5037381583234577e+00 -1.2210563720845786e+00
    2.6703465760438561e+00 -1.1628702322517797e+00
    3.0973771815629467e+00 -1.0835129524659466e+00
    4.7180767949685869e+00 -7.3992581110133815e-01
    3.4357834238016713e+00 -7.6400348708701482e-01
    3.4360964628793349e+00 -8.1533587176968636e-01
    3.5054715336627642e+00 -8.6648709813494451e-01
    3.6013489818102666e+00 -9.1078704888906414e-01
    3.5751295972929187e+00 -9.5870488071238147e-01
    3.4353632437840451e+00 -1.0714012393384229e+00
    3.3448467492136404e+00 -1.1517405699011494e+00
    4.8392473833788427e+00 -1.0533917747925761e+00
    4.9106338985897979e+00 -7.8375866062998456e-01
    3.5433794042785243e+00 -7.9707300340170939e-01
    3.6149158673992052e+00 -8.2442046246762923e-01
    3.7458480848268660e+00 -8.3605289885689138e-01
    3.7348270321994521e+00 -8.4783600771715473e-01
    3.7018230081934185e+00 -8.7866628673026126e-01
    3.7224321981374335e+00 -9.0177433907138826e-01
    3.6835068888853195e+00 -8.8817290856688924e-01
    5.1506234169172709e+00 -8.8013910827815811e-01
    3.1054973367511733e+00 -8.0669190956866965e-01
    2.8044193676146332e+00 -7.4992619404064598e-01
    2.7822927322080475e+00 -7.7648070804560554e-01
    2.7996464816797553e+00 -7.7698692660961544e-01
    2.7921604917209355e+00 -7.6234722601266836e-01
    2.7907199826719595e+00 -7.8405498863184209e-01
    2.8355099638937133e+00 -8.4387909215388768e-01
    2.9783130903649671e+00 -9.1441805337922533e-01
    3.3523261198871759e+00 -9.3780474959577209e-01
    2.8624045715422368e+00 -9.0276807350353339e-01
    2.5890091510348103e+00 -8.3968304241537595e-01
    2.5358823063998246e+00 -1.0309656676183716e+00
    2.5409639605990204e+00 -1.1047120926816709e+00
    2.5470107307886316e+00 -1.0529274409559197e+00
    2.5674640214938211e+00 -1.0220586477866045e+00
    2.6107861746886889e+00 -1.0352444872209436e+00
    2.6958546884576764e+00 -1.1139159601115809e+00
    3.1821137943732487e+00 -1.1201823711874610e+00
    2.9471049206952373e+00 -1.0647322978179681e+00
    2.5417949630887966e+00 -1.1014685323779474e+00
    2.5655646826029010e+00 -1.5130182939554568e+00
    2.5408165853464730e+00 -1.5288191418330335e+00
    2.5038225239900944e+00 -1.3735577063781323e+00
    2.5262014882871879e+00 -1.2781309327426238e+00
    2.5546093753223658e+00 -1.2125735375193105e+00
    2.5389533320992865e+00 -1.2733172476547425e+00
    3.1157401185236941e+00 -1.2322600104780210e+00
    3.1308814055096370e+00 -1.0364605821482102e+00
    2.5850086817539926e+00 -1.0931156199501877e+00
    2.4846475277558939e+00 -1.3464141287906910e+00
    2.4459835237090193e+00 -1.1293900893049258e+00
    2.5914995194600832e+00 -9.7722046297718357e-01
    2.6310342855618187e+00 -9.6333192570299919e-01
    2.6528334676904297e+00 -9.8836963444110071e-01
    2.5366135082616803e+00 -1.1630837580792526e+00
    3.1145455973148382e+00 -1.1593276414243330e+00
    3.4215670310164454e+00 -9.9806559344919132e-01
    2.6980774712572178e+00 -9.5358370472497644e-01
    2.5360828389075820e+00 -1.0858201930725686e+00
    2.6634511719515426e+00 -8.9493154034190303e-01
    2.8891260304789612e+00 -7.9957437542162269e-01
    2.7239717226247020e+00 -8.2052668315877730e-01
    2.7053939618307634e+00 -8.8168710622532409e-01
    2.5777239667523437e+00 -1.0948362505676861e+00
    3.2034992086736200e+00 -1.1023000506883245e+00
    3.5374736262755695e+00 -1.0243828518867168e+00
    2.7338131525139238e+00 -9.1055189678928028e-01
    2.5915993197854119e+00 -9.8028789998606614e-01
    2.6753384032522671e+00 -8.5962094917998400e-01
    2.7144021898886272e+00 -8.0714453351938309e-01
    2.6002541114244151e+00 -8.5478269066712664e-01
    2.5951137104772650e+00 -9.4831876333318155e-01
    2.5595503293479220e+00 -1.1432588659861165e+00
    3.1687679335809915e+00 -1.0933711066640028e+00
    3.4213858136510771e+00 -1.0340828833168731e+00
    2.6585448579179292e+00 -9.7562090097530907e-01
    2.5470742860552318e+00 -1.1121531863986223e+00
    2.5577413691265445e+00 -1.1140594582278156e+00
    2.5668209836113913e+00 -1.1126443688583321e+00
    2.5288394858607837e+00 -1.1287074058733158e+00
    2.5272732001733913e+00 -1.1197269781709402e+00
    2.5503911661655567e+00 -1.2238494027992557e+00
    3.1962027938098134e+00 -1.1356500534217051e+00
    3.2604822538165723e+00 -1.0012947048714764e+00
    2.6414324293734155e+00 -1.0477253758913523e+00
    2.5508525749143609e+00 -1.2821168281467172e+00
    2.4903404846318269e+00 -1.3104473235448677e+00
    2.4897860832725054e+00 -1.2693743739065180e+00
    2.5092671111849567e+00 -1.2188808499169652e+00
    2.5494246557311491e+00 -1.1218730586112329e+00
    2.5338520374623341e+00 -1.2096060364267864e+00
    3.2655690365666135e+00 -1.2000723334389065e+00
    3.3340628401905206e+00 -9.2984313303287514e-01
    2.7614773592483388e+00 -9.3346155583901569e-01
    2.5892659676276972e+00 -1.0550405457966585e+00
    2.5475183547342652e+00 -9.6517317981245210e-01
    2.6721166591968637e+00 -9.0699744986486031e-01
    2.6709482115927523e+00 -9.1272703680734590e-01
    2.6772022239020825e+00 -9.2630809096768674e-01
    2.5462248889478682e+00 -1.1268519465020670e+00
    3.2800226573555804e+00 -1.1718811769032125e+00
    3.3140272531458987e+00 -9.2629501180803187e-01
    2.8077740123229549e+00 -8.5012839234270121e-01
    2.7078592521160485e+00 -8.9721590169193266e-01
    2.8038833918675992e+00 -8.1300809804436303e-01
    2.9020336991355551e+00 -7.7861978244300334e-01
    2.7093487604972513e+00 -8.0175500031443570e-01
    2.6374024482027649e+00 -8.8587112520570865e-01
    2.5278787352058876e+00 -1.1376011417201712e+00
    3.1161697956226000e+00 -1.1165217513537380e+00
    3.1298471118528286e+00 -1.0016647075672895e+00
    2.6873830019245966e+00 -8.6127086530522268e-01
    2.7196957126494130e+00 -8.8349141541994214e-01
    2.7514698272749309e+00 -8.6424925447858914e-01
    2.6868450493747695e+00 -8.5085020575653425e-01
    2.5637180041800929e+00 -9.0136638815205916e-01
    2.5158474508514526e+00 -1.0633878509609644e+00
    2.5061195114983410e+00 -1.2865916000994280e+00
    2.8257497526857711e+00 -1.1372229993225473e+00
    3.1173824502398104e+00 -1.1369633740805754e+00
    2.6427993130420147e+00 -1.0618914650192972e+00
    2.5967067360129232e+00 -1.1391481030310213e+00
    2.5661989864539470e+00 -1.1915607132049042e+00
    2.5534760472966309e+00 -1.2358249365376417e+00
    2.5423592752850497e+00 -1.3562902246180901e+00
    2.5609043875790651e+00 -1.4866311170569135e+00
    2.4879583509013021e+00 -1.3971205150417407e+00
    2.6658371127655012e+00 -1.1200427575320711e+00
    3.1769578608415534e+00 -1.0179702875030636e+00
    2.7136869340685714e+00 -1.0707501674379702e+00
    2.5328234799767539e+00 -1.1275468099591943e+00
    2.4770716201592569e+00 -1.1894089445717331e+00
    2.4900643652019432e+00 -1.2661500676858981e+00
    2.5067451010939088e+00 -1.3501290642781740e+00
    2.4753447383498641e+00 -1.2956388774895591e+00
    2.4475295352437958e+00 -1.0523412354746835e+00
    2.7598888549140397e+00 -8.7581625085387060e-01
    5.0192087884841623e+00 -9.6543093064825936e-01
    3.3963995028057807e+00 -1.0513042915602226e+00
    3.4797906546474842e+00 -1.0677267668469117e+00
    3.5310913869506106e+00 -1.0148327027601183e+00
    3.4508359116098193e+00 -9.8623763597040215e-01
    3.2522613452073421e+00 -9.7997732916882485e-01
    3.1571914683703768e+00 -8.9360945974116102e-01
    3.3610357491312182e+00 -7.5669496093613109e-01
    4.6908756249820991e+00 -6.8722730090150541e-01
    5.1618683132255656e+00 -8.4925537341094226e-01
    3.7172211350386348e+00 -8.9184591423209159e-01
    3.6400320295397375e+00 -9.5965294153847180e-01
    3.7236245637893175e+00 -9.9072014338180026e-01
    3.6675480875478756e+00 -9.9876370975625428e-01
    3.5171829096544269e+00 -9.9606657715055269e-01
    3.3810426325544154e+00 -9.5150795288014922e-01
    3.3939566433263408e+00 -8.9228980300270122e-01
    4.8713609199740633e+00 -8.2974033859219698e-01
    3.3079896331685661e+00 -9.0707356221749724e-01
    2.8280091170006458e+00 -9.8692798258693670e-01
    2.5397072427154392e+00 -1.1906666182466694e+00
    2.5231255914102375e+00 -1.2540009514550126e+00
    2.5167764781470301e+00 -1.2552152521080917e+00
    2.5026981183839081e+00 -1.2776233299328406e+00
    2.4808516824820539e+00 -1.2120558456167467e+00
    2.5517668741380959e+00 -1.0492686563332554e+00
    3.1042310753748636e+00 -8.7281387293494916e-01
    3.4273975134289576e+00 -9.6901608474643597e-01
    2.7963942110015978e+00 -9.3327451835304653e-01
    2.4806866220382586e+00 -1.1448565169529017e+00
    2.5075198471055855e+00 -1.1431645917065616e+00
    2.5468492267632619e+00 -1.0871365280978325e+00
    2.5081664565392252e+00 -1.1512142205170146e+00
    2.4657540724796663e+00 -1.2374274482234857e+00
    2.4367307657971646e+00 -1.1779385077258639e+00
    2.8658562663509231e+00 -9.4184220189981949e-01
    3.3520393658547469e+00 -9.1944513786913762e-01
    2.7158856674050087e+00 -8.3688806862615717e-01
    2.5789279324121224e+00 -9.8800801191039889e-01
    2.6930253723634152e+00 -9.0272098470424889e-01
    2.8022470907855830e+00 -8.0461446374951195e-01
    2.7240951349983162e+00 -8.2833722233642881e-01
    2.6367449702162569e+00 -9.5014819890241098e-01
    2.5227905404201043e+00 -1.1001051437958174e+00
    2.9520208710963769e+00 -9.7975182848154874e-01
    3.1683932629906710e+00 -9.3179525195560653e-01
    2.5738224683765618e+00 -9.8559483115281532e-01
    2.5315077586806436e+00 -1.2545483771753694e+00
    2.5309154680888497e+00 -1.1478055529382254e+00
    2.5600959217040846e+00 -1.0207639557059027e+00
    2.5469498880706722e+00 -9.4950233588089683e-01
    2.6325434589492773e+00 -9.2594273983898456e-01
    2.5760939331516490e+00 -1.0675175842850224e+00
    3.1331281661813954e+00 -1.0013411188720969e+00
    3.3010640833832734e+00 -9.2447002463320538e-01
    2.6360332269173399e+00 -1.0415946367249924e+00
    2.5724068282673751e+00 -1.3776498949086677e+00
    2.5093749764328019e+00 -1.2853720804540756e+00
    2.5512197863324193e+00 -1.1830201902604955e+00
    2.5419344861147297e+00 -1.1187824982429386e+00
    2.5888895591786603e+00 -1.0378658425305227e+00
    2.5730675443861353e+00 -1.1290099809728462e+00
    3.3100533737957347e+00 -1.0403653418877583e+00
    3.3399735418971415e+00 -8.8393277619862964e-01
    2.7076529768688240e+00 -9.4512993996471306e-01
    2.5443365424800479e+00 -1.2252879504602543e+00
    2.4571335688117064e+00 -1.2607957729021750e+00
    2.4766425471148188e+00 -1.2381992888688211e+00
    2.4887226658403789e+00 -1.2083480392962223e+00
    2.4984051659496864e+00 -1.1437292823273897e+00
    2.5139295474341181e+00 -1.2105793372961997e+00
    3.2484069865174545e+00 -1.0874256344043776e+00
    3.2469448949272950e+00 -8.9603268584146012e-01
    2.7032206753620831e+00 -8.8434782656912958e-01
    2.6078205010865645e+00 -1.0078913564924596e+00
    2.5895558024025660e+00 -1.0150263659215011e+00
    2.6131804267985461e+00 -1.0214450130673780e+00
    2.5830942584293357e+00 -1.0276258532958349e+00
    2.5585776824919768e+00 -1.0465306464544026e+00
    2.4960073423857256e+00 -1.1848050961105505e+00
    3.1075927790841553e+00 -1.0964815739039151e+00
    3.1930435782186173e+00 -9.2502267523131942e-01
    2.6319529715930723e+00 -9.2464885663264373e-01
    2.5828434717124824e+00 -9.7618225195764974e-01
    2.6712701036356781e+00 -8.9117611358868465e-01
    2.7236352628158773e+00 -8.4735908261933457e-01
    2.6491080526524660e+00 -8.5620908982341537e-01
    2.6807765537828425e+00 -9.1323765489254372e-01
    2.5413450044716601e+00 -1.1085627409583729e+00
    3.0826324139197947e+00 -1.0567865806762766e+00
    3.2423993183337809e+00 -9.4821552206482973e-01
    2.6055165426826465e+00 -1.0341912170472500e+00
    2.5444977085346556e+00 -1.2318083426239277e+00
    2.5296404192381998e+00 -1.1704877439597510e+00
    2.5492975217477714e+00 -1.0941804808331206e+00
    2.4949122115304436e+00 -1.0321861750451933e+00
    2.5800445325319443e+00 -9.8960781515904239e-01
    2.5671351861768716e+00 -1.1433047043959841e+00
    3.2124948142019591e+00 -1.0701146673940369e+00
    3.3820097827898179e+00 -9.1855324593445964e-01
    2.6946246415664445e+00 -1.0048106824559284e+00
    2.5447889937967973e+00 -1.2577709713242120e+00
    2.4971915660663946e+00 -1.2690061671785247e+00
    2.5395422152793459e+00 -1.2275458224325573e+00
    2.5153380661084741e+00 -1.1854878456853259e+00
    2.5356527244977172e+00 -1.1313189800674122e+00
    2.5550335585363158e+00 -1.2406437768575778e+00
    3.3362292920447048e+00 -1.1208072147836055e+00
    3.2730318433172458e+00 -8.8002048428192736e-01
    2.7541220971455709e+00 -9.0854601652928502e-01
    2.5370512142200612e+00 -1.1036808716899837e+00
    2.4617157181584108e+00 -1.1973486733249483e+00
    2.4799749159221229e+00 -1.2038854309937921e+00
    2.5029158068457509e+00 -1.2059420671235739e+00
    2.5177961102641855e+00 -1.1953204076294566e+00
    2.5122985205364108e+00 -1.2220825810737976e+00
    3.3141121813878480e+00 -1.1180546512744982e+00
    3.0866925270802437e+00 -8.4572660816832423e-01
    2.7568863961125727e+00 -8.0854777256021415e-01
    2.7835797406779403e+00 -8.6841537517359035e-01
    2.7185661063874322e+00 -9.2665281423411194e-01
    2.6992007720854363e+00 -9.3882902337304497e-01
    2.6697779682457647e+00 -9.4013842550908677e-01
    2.6660216832956203e+00 -9.4252596699687963e-01
    2.7080085293328837e+00 -9.4991986520046501e-01
    3.4726442133896072e+00 -1.0323383057833293e+00
    2.7958490441699793e+00 -9.2769648579106956e-01
    2.5189447261809081e+00 -9.2885023335038730e-01
    2.5981838258025203e+00 -8.8825112416170426e-01
    2.6503899557165838e+00 -8.7914581725623953e-01
    2.6240187683646665e+00 -8.8930886934083841e-01
    2.5491751634760673e+00 -9.1857203471858084e-01
    2.5844604759013947e+00 -9.2145037103386840e-01
    2.8574882985180095e+00 -8.8130326144129589e-01
    3.2405599397933686e+00 -1.0083887842058210e+00
    3.8853957133522359e+00 -1.0171964985458788e+00
    2.8348209324694156e+00 -1.1025674142365929e+00
    2.9710212344915603e+00 -1.1335484798453479e+00
    3.2481991152209662e+00 -1.1589563261979086e+00
    3.3582725452777931e+00 -1.1970638297619440e+00
    3.3164176705743023e+00 -1.2629854842793597e+00
    3.3368798786857474e+00 -1.2116846803868477e+00
    3.5426341570318591e+00 -1.0231600952700475e+00
    4.7654399449112965e+00 -1.0510485787948565e+00</input_scale>
  <output_scale>
    5.2631578947368418e-01 4.9999999999999994e-01 5.2631578947368418e-01
    4.9999999999999994e-01 5.2631578947368418e-01 4.9999999999999994e-01
    5.2631578947368418e-01 4.9999999999999994e-01 5.2631578947368418e-01
    4.9999999999999994e-01 5.2631578947368418e-01 4.9999999999999994e-01
    5.2631578947368418e-01 4.9999999999999994e-01 5.2631578947368418e-01
    4.9999999999999994e-01 5.2631578947368418e-01 4.9999999999999994e-01
    5.2631578947368418e-01 4.9999999999999994e-01</output_scale>
  <inv_output_scale>
    1.8999999999999999e+00 -9.4999999999999996e-01
    1.8999999999999999e+00 -9.4999999999999996e-01
    1.8999999999999999e+00 -9.4999999999999996e-01
    1.8999999999999999e+00 -9.4999999999999996e-01
    1.8999999999999999e+00 -9.4999999999999996e-01
    1.8999999999999999e+00 -9.4999999999999996e-01
    1.8999999999999999e+00 -9.4999999999999996e-01
    1.8999999999999999e+00 -9.4999999999999996e-01
    1.8999999999999999e+00 -9.4999999999999996e-01
    1.8999999999999999e+00 -9.4999999999999996e-01</inv_output_scale>
  <weights>
    <_>
      -8.7018274614912516e-02 -5.9380728036696535e-02
      -3.5001597631697627e-02 -3.0316946268403203e-02
      3.7350312490917401e-02 5.8561962627831275e-02
      -6.8228962368092227e-02 8.3643025257849765e-02
      -6.1663750762367943e-02 9.1448605331628713e-02
      -4.5744524906641770e-02 -1.2066352937302530e-02
      5.6606177133154668e-02 1.5290936091295873e-01
      6.6795447159179230e-03 -1.1090847285542987e-01
      5.3399315949273753e-02 -4.0583288560067869e-02
      4.3876943770511441e-02 5.4081693866501557e-04
      -1.5636754211714392e-02 1.7971619382376705e-01
      1.4125460588759717e-01 1.5155720247878909e-02
      -1.0972855999363479e-01 -7.8428780465546924e-02
      1.0204675706140958e-02 1.5805405483242069e-01
      -6.8738905141231280e-02 1.8644190124157044e-02
      5.0527777571132207e-02 1.2161637939701576e-01
      3.8954509939951483e-02 -8.3529625481152357e-03
      -6.1547714132491764e-02 3.5491499279760814e-02
      1.9326258402330328e-02 -1.7781277235362720e-02
      1.3468167148744934e-02 5.0247474880406116e-02
      -1.7499013229802653e-02 8.0658517082341369e-02
      2.2609786351303278e-02 1.1648375933465435e-01
      6.1982401170713811e-02 9.4343022039043142e-02
      -4.3887505730788236e-02 -1.5699689087319998e-02
      2.7925678564559735e-02 -1.1397764282177819e-01
      -8.6756040726590003e-02 -1.1056624254839618e-01
      -3.8010048000384551e-02 -2.2166565027489475e-02
      -7.0962655134312089e-02 -6.1632695136933480e-02
      -5.6254233952646684e-02 -5.9711723021402589e-02
      8.0446021776244686e-03 -9.2551114037995166e-02
      -3.9368681682666346e-03 -3.4614327989498754e-02
      -8.9774683965120186e-02 2.9960392090273090e-02
      1.3088885686634638e-01 -1.3216191674279143e-01
      1.5744408893298964e-01 4.2299780903852120e-02
      3.4853132408086129e-02 8.9996096900612898e-03
      -4.0848896360163839e-02 6.5988009213112904e-03
      1.4366128587628346e-01 1.0714927723465738e-01
      1.2937785937467071e-02 -3.2008529675487875e-02
      1.1459416547697601e-01 -1.3459675011911702e-03
      -6.8014993693249828e-03 -1.9118931321346021e-02
      1.5409337799408011e-02 1.3476525165778061e-01
      3.8753782674346864e-02 1.2088384839234230e-02
      -4.7340079000675016e-02 -1.1684514714780114e-01
      -2.8808989221934853e-02 -1.2333597735197760e-01
      9.6847107049202574e-02 -6.4946651036701811e-03
      -7.2984447711004513e-02 -9.5711168114131027e-03
      4.8573882923609847e-02 -1.0976964735762870e-02
      -6.3350412686691518e-02 -8.7826845941797044e-03
      -6.5965550588657860e-03 7.0719958359019647e-02
      -3.5320464443222760e-02 -6.9444989799920337e-02
      -2.6618164124639504e-01 -4.7247846414649596e-02
      5.1745832621843908e-05 -1.6804515173742075e-02
      7.8220702543278342e-02 1.7122694140104897e-02
      1.2327813209605196e-02 1.2131598121832683e-02
      -6.4632375156020327e-02 7.1261496296004923e-02
      -5.8528606717912331e-02 3.9661969403151582e-03
      -5.2803655391172502e-02 5.0689139076096207e-02
      -7.0729089734070244e-02 7.9531701968389198e-02
      3.9033327959360098e-02 -4.2280936218461150e-02
      7.8452401095539442e-02 -4.2075262800120604e-02
      -9.1412499412897655e-03 1.1099678805156494e-02
      1.7821884006988259e-01 2.5196464789098177e-02
      -2.2314748201325926e-01 -4.8099152938059879e-02
      2.7557764726323063e-02 3.7169621862015119e-02
      2.2539673469586928e-02 8.1375823878457237e-02
      -2.2663490826054598e-02 3.0738145969791814e-01
      4.5513850562148316e-02 -3.1662417513088192e-03
      6.0748598482123245e-02 3.9271238984627021e-03
      4.7982461736720113e-02 -2.7204817402416242e-02
      -2.4531017180606511e-02 -4.6443917486945582e-02
      -1.0538410833611435e-02 2.0420328222581441e-02
      5.8926557573378967e-02 2.5196471901170908e-01
      7.9187726954788137e-02 1.2867082973190139e-01
      4.0141192169024335e-02 -4.5694312174407462e-02
      -5.1993674632183885e-02 -3.5024224809904116e-02
      5.5706818794628334e-02 -4.0422265178468697e-02
      -1.1066059809435048e-01 9.1864774540074620e-02
      -8.2085594238527987e-02 -1.7596873347512518e-02
      1.5463120539080539e-02 -5.4218361491192246e-02
      -4.8027622733765860e-02 2.6789444091783025e-02
      -8.0535140058594051e-02 6.4585398736211053e-02
      -1.3470007643204435e-01 -1.5121390774313282e-02
      4.2769257122732364e-02 -8.4651816665596125e-02
      -1.4853605686469623e-02 1.1869273366734549e-02
      8.3611099319621893e-02 -1.5836685723109808e-02
      -5.6341743731310082e-02 8.8314674144826730e-03
      8.5959933628033017e-02 -2.7770992236527375e-02
      1.0751217372761414e-01 6.7950662334098341e-02
      1.1968312123678419e-01 -4.3730854224886866e-02
      -3.4195814547952140e-02 -3.8705654977877833e-02
      -1.0309818923770199e-02 7.3435757892368989e-02
      -1.8043908713294931e-02 -1.9649799440871991e-02
      -5.6326140887592295e-02 -1.3603303422004198e-01
      -1.8118401031814817e-02 -8.2126552102429237e-02
      -2.2858084275998353e-02 -8.7549259542018767e-02
      -5.5440985378870593e-02 4.5774456037260797e-02
      3.4448595132777197e-02 -1.1801434717532183e-02
      -4.6440767884085431e-02 -6.3624815042760546e-02
      3.4553054096069347e-02 6.2819497829510879e-02
      3.0156667226180902e-02 1.5974050405642662e-01
      -5.1756592706760218e-01 -1.5307846703937711e-01
      1.0750637244945027e-01 1.1961072551718461e-02
      -6.3656989427947647e-02 1.4339069032079929e-01
      8.1966654449637799e-02 -1.4412308192821399e-01
      -1.5941386608103514e-02 1.7746455121299948e-01
      -6.7066285953037791e-02 -5.2499102849432794e-02
      -7.8819822476093176e-02 5.3919288781425462e-02
      -3.1795456654350830e-02 3.5767936468898961e-02
      8.6223213173806969e-03 4.2312623681630364e-02
      -7.2306711981283592e-02 -2.7387300516359962e-02
      -9.8568996925049807e-02 -7.9126133313304231e-02
      1.0261055662864700e-01 1.4837669760292230e-01
      5.8177648623146993e-03 4.6597117385064335e-03
      -4.9961077112258452e-02 2.7980302313954885e-02
      6.4276456265146498e-02 8.8117498243926548e-02
      -8.6257171726382559e-02 -5.5794678649490073e-02
      2.3323463090431210e-02 -5.2279021181807347e-03
      1.4382581636368616e-01 -7.9723255589271264e-02
      1.0701193913590201e-02 -6.3955214064140731e-02
      -1.2779024611157921e-01 1.1427918912358349e-03
      -7.0661345943381609e-02 4.5855184347426491e-02
      1.4675136459178086e-02 1.6283148978936030e-01
      4.4919497486761412e-02 1.1148329854454048e-02
      -5.7708811505457785e-02 -9.3444960995471907e-02
      -5.5455805308833352e-03 6.5635881348674006e-03
      1.2159876720791633e-02 -1.5233947042514885e-02
      -1.5280469014033241e-01 6.8198347553323879e-02
      -3.4406046502126759e-02 4.0736929010258632e-02
      -1.7460121416355009e-01 -3.3130430556800240e-02
      2.6359532289956755e-02 -1.2703356287370274e-02
      -4.9225290985042440e-03 2.7995186094541932e-02
      2.6618960445354622e-02 8.2977063817521197e-04
      -5.6251581332484122e-03 -8.3507607823417207e-02
      -6.3680888953813505e-02 -9.3780569963932484e-02
      1.5448711791275796e-01 -2.7448775631099400e-02
      -1.7424264468475489e-02 -1.5902980873138772e-01
      8.7176452811313018e-03 -3.8381957201984729e-02
      4.1443025631822270e-02 1.2758237845498549e-01
      3.0089653336071637e-01 5.8342463596169980e-03
      -6.7030424518978768e-02 -4.7913686393195043e-02
      4.3755023482276660e-02 6.6516449045940127e-04
      -3.5341093038131877e-02 -1.7193566235062203e-02
      3.9160465751573413e-02 -6.6616030215056410e-02
      1.3767723843589155e-01 8.2103592942376416e-02
      6.8013587054147513e-03 -7.8061085802671154e-02
      1.3721429836882133e-02 1.4892318551882339e-01
      1.8927047647531899e-02 -8.3775133744081257e-02
      9.2224536163343390e-02 -6.3171493508783247e-02
      -2.7956888447945881e-02 2.2393975158927840e-01
      3.8492784408702803e-02 1.2653767875544571e-02
      -5.3261298623251274e-01 -2.6646333459254400e-02
      -1.6003254116874921e-02 2.0556507664975587e-02
      -4.7610511751079504e-03 1.4650307363301820e-02
      7.7917618540422132e-02 -2.7722723586627161e-02
      3.8901490899068782e-02 1.5242856679481875e-01
      -7.5595074877351370e-03 -6.3055566919413816e-02
      -7.4118036203686274e-02 -7.5691538482359530e-02
      -7.3301555571100505e-02 9.5405096998068904e-03
      8.6832602366109283e-04 1.1863489106864741e-01
      -1.1988704575427178e-03 2.9433330112250185e-03
      -8.3092097774083318e-03 6.2537392457785446e-02
      5.8565908658733540e-02 2.3808704092538177e-01
      3.0365470956566675e-02 1.8559154788527510e-01
      2.3325800339248422e-02 5.5601335139906498e-02
      1.6273420427749413e-02 -6.6064281522191408e-04
      -6.2286221440351973e-02 7.1072473146955403e-02
      -4.8522979898761372e-02 -3.2461433536495582e-02
      1.1249669019322252e-01 -1.1548073095016875e-01
      3.9329002041475257e-03 3.8988708350801843e-02
      -8.4540120241923714e-02 6.2847881500888519e-02
      -1.1740350106887069e-01 7.6534516183762405e-02
      -2.2204798799133701e-02 1.9304699572213358e-02
      2.8931460827201563e-02 1.9992375636943224e-02
      -2.6022092534679190e-02 6.0073460804617299e-02
      1.2108046785330884e-01 -1.5142878692608438e-02
      -5.3424020797648561e-02 -5.0985703180262479e-03
      -1.6176460999725603e-01 1.0734932489013485e-01
      2.6250921665004714e-02 -1.5062652924682302e-01
      -9.5860430510591843e-02 -3.2216352035465905e-02
      9.5021173041423629e-02 7.2187402093711217e-02
      4.5251063661388650e-03 1.6557265248013944e-02
      4.7293727332536534e-02 -1.3008430048944114e-01
      1.1956424276185214e-02 -7.5834082565752567e-02
      -5.6556849723170530e-02 -1.3354290296540014e-02
      4.9308766797910152e-02 -2.0525744997340750e-02
      7.4808012660120965e-02 -7.3340420107962850e-02
      1.2066934648663366e-01 -7.1121557333413229e-02
      -2.8198990653375697e-02 -4.5191790624053693e-02
      -3.3076099533050775e-02 -6.4191705924176487e-02
      -5.1198931573464654e-02 -1.0006619571885163e-01
      1.1044365705355388e-01 1.6407873514771396e-02
      3.9532341645164726e-02 -7.2998222664341916e-02
      -3.9621576977278743e-02 -1.4321237799089648e-01
      9.2265338830504154e-02 1.1097179633476634e-01
      -2.9158386033187652e-02 1.0857517130716325e-02
      5.8061652932457825e-02 6.6958627227675191e-02
      9.5368051773660811e-02 -7.3741153078202296e-02
      -7.0033403031197428e-02 -3.3968742868347543e-02
      5.4403631502904740e-02 1.0297447007693021e-01
      6.4139729312207933e-02 -1.0594699121692630e-01
      3.5659205339797807e-02 -2.3483741223717075e-02
      -3.0043134449706407e-02 -9.4154171889042140e-03
      -3.4461172054122108e-02 -5.0544536966904766e-02
      -1.0091017376696927e-01 -1.8224983365190081e-03
      9.5557672430205728e-02 3.4446578619463743e-02
      1.5174712789476283e-01 4.4933874687288912e-02
      -4.3205507446430536e-02 -1.1227634497167102e-01
      -1.2613511804887457e-03 1.5909657624353121e-01
      -1.9873916239301310e-02 8.0694852371855683e-02
      1.2760941697736899e-01 6.5170812654894536e-02
      1.9631937466246367e-02 2.6802382543887417e-02
      8.1511809963704093e-02 7.5825026300724727e-02
      -7.4866153200553009e-02 -2.7946316420846776e-02
      4.3662405920272290e-02 5.5020659669819193e-02
      -4.5880812646958893e-03 -1.1567853444473992e-01
      4.5584846100567317e-02 4.1672928697021334e-02
      -1.3997474488187184e-02 -1.1887464678844216e-01
      2.9242439746572143e-02 -1.5125849842537318e-02
      -1.2733535723677225e-01 1.6349419870496963e-02
      -6.6979102092193973e-02 1.5676439759428895e-02
      3.7145901350935706e-02 3.0238586482325139e-02
      5.9979991299578470e-02 -7.1103266901957089e-03
      -6.2126458663389434e-03 -3.0167997125775076e-02
      -5.2340537170332595e-02 1.3876065640691026e-03
      1.7006206143562191e-01 -3.7795383438426394e-02
      7.4747870118144447e-02 -1.0101082077754765e-02
      -1.8921100842786862e-01 3.5688540482693841e-02
      3.2520661710334882e-03 -5.6941717500854520e-02
      -1.3862204157518440e-01 -6.2520644864439978e-02
      3.3377879285788691e-02 1.3248382953943064e-01
      8.0654314366894284e-02 -1.4803609427785375e-02
      -3.2433206155857278e-02 -6.5644034963046188e-02
      -2.1658807182731982e-01 4.5219369463441447e-02
      2.5397197035818115e-03 1.3080487241598504e-01
      -9.6867647718961558e-02 8.3744721721672008e-02
      1.5199389342082839e-01 1.2997111919733698e-02
      -3.6545267810190438e-04 1.2061568016591407e-02
      5.1490503512872716e-02 -2.9684156561296277e-02
      -4.5561808544169184e-02 -5.7907780843112718e-02
      3.5638977222051615e-02 -1.0410280702585650e-01
      6.1474076578702477e-02 -1.0515663411619985e-01
      -4.7013001117211288e-02 -1.0458082742575169e-03
      3.6839456011574116e-02 -8.3561470247151465e-02
      9.5482306100422215e-02 8.7225898554532402e-02
      5.4027106673645658e-02 -5.6150615027064331e-02
      9.8642783126574415e-02 -4.3226382812545608e-02
      7.5289220440564993e-03 8.1613580758487861e-02
      -3.1452232233871538e-03 2.6555443076293785e-02
      -9.7594785627790226e-02 3.3170384034644083e-02
      3.8199552187810633e-02 -4.7593086473389175e-02
      9.5036621666954729e-02 -2.5677633934530670e-02
      -6.5172958820620158e-02 7.2951470292072607e-02
      -8.9649153506670645e-02 8.4959415113288417e-02
      -1.0180980225169786e-01 1.3728545184807053e-01
      4.3167792011137136e-02 3.9235803883306761e-02
      1.7471678359409254e-01 -4.0087250398433451e-02
      -1.9384445172345136e-01 -6.2050255008989169e-02
      -2.1944555721652467e-03 1.3999778753378636e-01
      -1.1839728551029388e-02 1.0679093973495828e-01
      6.2559067324006568e-02 1.5876807810312774e-01
      1.4452341927863202e-01 9.5355938823277392e-02
      1.2992787575554748e-01 4.0430727163171823e-02
      4.3297916173943060e-02 1.7832310832745979e-01
      9.0695953694507780e-02 1.2500378335542841e-02
      4.8331377275273729e-02 9.9225618058146215e-03
      -1.5062458989637431e-01 9.8025104417772374e-02
      -3.4641298031969796e-02 -6.4251192621595662e-02
      1.3408795294780292e-02 3.5520973893578181e-02
      -1.8940382805026701e-01 4.9910744722205143e-02
      6.7715872012517345e-02 1.3347147552882921e-01
      4.9610156403593654e-02 -6.5323178887283020e-02
      -9.5433234752218717e-03 4.7220027698962296e-02
      9.6588070232051917e-02 -3.5338687486078983e-02
      -2.6548895238269025e-02 7.1021822009721597e-02
      2.1769900431104334e-03 5.2834496857873975e-02
      1.3728624470023318e-01 7.8080894140263965e-02
      3.6118979876446133e-02 -6.5942288130523108e-02
      -1.8510818327777741e-02 -6.3320877176550508e-02
      -3.2969555176365177e-03 8.7382054245722512e-02
      -7.1716552497842798e-02 6.4056329779107468e-02
      1.9580931709813502e-02 -2.0054779508300140e-02
      -9.6660060694071688e-03 -3.5650293485539893e-02
      -5.2565064842182013e-02 7.1532095000469628e-02
      1.4349293017676187e-01 -1.8373026292047012e-02
      2.2210938165180175e-02 1.2416593789592504e-02
      5.5113110019173094e-02 -9.0924358718487734e-04
      -1.3864918954340738e-01 -1.7880630821261432e-02
      5.7264359989568900e-02 -5.1001129906897445e-02
      -1.1832935664957001e-01 -3.0459879382973953e-02
      5.4728888667810692e-02 5.1491496088634209e-02
      4.1001645564685361e-03 -2.0724210772718146e-02
      3.0582654589416972e-05 -4.7050420788350387e-02
      8.1374585838412228e-02 -5.1132808521433662e-02
      7.5259949553367012e-02 1.6012699990490774e-02
      2.3501562002113827e-02 -1.6739236736627175e-01
      -2.4546270092890371e-02 -9.4076963223652901e-02
      -6.5923764214506839e-02 -5.2713222438205393e-02
      2.5969852277731936e-02 -4.9506311751947307e-02
      -1.0635718354181695e-01 -8.0638713823490124e-02
      4.3505430414038503e-02 -8.1067009221121186e-02
      -5.8799186462647135e-01 6.6608232080260629e-04
      -6.9950795944125191e-02 1.0882182383940271e-01
      -2.1279733498273230e-02 1.2524516863188379e-01
      -7.7482516826395578e-02 2.1203692067263291e-01
      -4.4789984770900793e-02 -5.4966908068792307e-02
      1.5795252392260439e-01 -3.7266523300208410e-02
      -1.5960848350113760e-01 -1.3271765431513635e-01
      7.0078821137444458e-02 5.4110120399367745e-02
      -3.5548980545537311e-02 1.0347117250217926e-01
      2.6795687437699750e-02 -3.4809115555040535e-03
      1.1932574264670649e-01 3.1630567915052740e-02
      1.3953130303468547e-01 -6.8934661021031712e-02
      9.5171683231759188e-02 2.1966150012160776e-01
      9.8959887746189606e-02 4.2902513385263227e-02
      6.2663665300912857e-02 2.9936499679598574e-03
      -1.2824730162004480e-01 8.2444756503774808e-02
      -8.0659519808832680e-02 -8.2014959897689171e-02
      -7.8972317245350004e-02 5.6488485777556594e-02
      -1.2871388310857487e-01 -1.7158420407062048e-02
      -3.6655478025627304e-02 4.0896330014945921e-02
      1.1269188392172651e-02 6.7255859427239620e-02
      5.5776339442490511e-02 1.2275296578097088e-01
      1.1095566431537300e-01 -6.0670979864962157e-02
      -2.0624796410133811e-01 8.4321303754584000e-03
      -8.6106983349763841e-02 -8.7791341066091964e-03
      -8.7139468782001309e-03 7.2190664429166718e-02
      7.4461485837094984e-02 2.3977436088649251e-01
      -2.0830373063200711e-01 -1.2376727125102699e-01
      1.5909980505003180e-01 1.7057948666645772e-01
      -7.0172202336796524e-02 3.5649119688922572e-02
      9.9884950195219147e-02 -1.6796799414863806e-01
      1.9290627916227564e-02 -8.4110398692501823e-02
      -9.0853921614437269e-02 7.7740813912680964e-02
      7.6578716369509511e-02 3.5922421001139057e-02
      -8.2855561050795098e-02 -6.2154317614766225e-02
      -8.9071626951300268e-04 3.5429286184709044e-02
      -1.1590532483028554e-01 -1.2827393208898050e-01
      1.2484413888650693e-01 -1.2295918336803605e-01
      -6.9995427342011626e-02 -6.4129325806023041e-02
      2.1143103320726528e-01 -1.2723240067292055e-01
      6.8921978123243785e-02 1.6621954217307180e-02
      -6.8705123970880036e-02 -1.6057174007150651e-01
      2.2140695817396888e-02 -2.3526409226263270e-02
      2.2062794348421766e-01 1.1372303821713538e-01
      -1.0787620419442858e-02 -1.2261737210202409e-02
      -1.1090055365650388e-01 7.2425214265924936e-02
      -8.3731768166133688e-02 2.5069543851537857e-02
      1.3540570836957216e-01 -3.2140676295393800e-02
      7.5400036139499110e-02 -1.5190453861394287e-01
      8.2675171129017080e-02 -1.3261998473258711e-03
      -2.1035229836006367e-01 -5.3087747627541967e-02
      -5.2634289626107347e-02 -1.1752462797124145e-01
      -3.4958887592876756e-02 -9.0741782875100124e-02
      2.7200518501253910e-02 1.7466534903409905e-01
      1.2913358802674619e-02 8.5839394017612508e-02
      1.0054878162013853e-01 3.3660813830194741e-03
      -4.7493822678985602e-02 -4.2948084420761833e-02
      -1.1086406166196784e-01 6.5759994382632386e-02
      7.6305341047739131e-02 -5.5735816859088759e-02
      -2.0278223415785113e-02 -3.7724974817899271e-02
      1.6491641219774596e-02 1.2977134189824316e-01
      3.1837828223403274e-02 2.1695929873600205e-02
      6.0761503567173169e-03 9.7884552589800652e-02
      1.1250913090525891e-01 -1.2356619145273462e-01
      9.8545735832195211e-02 2.0341881730137519e-02
      -4.8838937567704729e-02 -8.5935039355969800e-02
      -1.1437261338837937e-01 -1.5588330069624639e-02
      -3.4838718679593671e-02 5.9876597645940811e-02
      8.3527137876047611e-02 -6.2566073270083525e-02
      -2.8891827078487243e-02 -8.1256753050253303e-02
      1.0690030164879022e-02 2.9739870866274144e-03
      -2.5080233379584874e-02 -4.5671050764006973e-02
      1.1419518495488883e-01 3.9899194799837480e-02
      -6.6741428995780908e-02 -5.4846136210849841e-02
      3.2329716462703322e-02 8.7780827406033130e-02
      6.3057562270045248e-02 -1.1617600773948654e-02
      -1.6405086313133390e-02 9.4297055825304579e-02
      -1.1593716783430459e-01 3.0184375620557674e-02
      5.6030107938578239e-02 4.0746240593789659e-02
      -4.0406010663884710e-02 5.9621680644953217e-03
      -2.3855075314192994e-03 5.0299707276226738e-03
      -1.0117604122798579e-02 -7.7075703899811120e-03
      -8.9882404940374826e-03 3.6704177773234696e-02
      -1.2659694771259422e-01 -1.1299601810977912e-01
      5.6861406937897631e-02 -1.1790427912989170e-02
      2.6985496056282681e-02 -1.1060040447832303e-02
      6.0654198787240529e-02 -7.6078296858217487e-02
      6.7989343719777620e-02 -8.6790427335783724e-02
      -7.3723504339420233e-04 1.0101311881161012e-02
      2.0804476216201174e-02 -1.0899318535131744e-02
      7.5571285617453285e-02 -4.1945886388907158e-02
      1.9525151203717769e-02 2.7561196029878256e-02
      4.2202127397616342e-02 -1.5319294424177898e-01
      1.6291290797624797e-01 8.1321748011901979e-02
      -6.8227283532272934e-02 4.6088294205264994e-02
      3.0749546475012327e-03 3.7211654983621126e-02
      1.3186404864164900e-02 3.2798593566995660e-02
      2.4421002876073721e-02 -2.1290740419098224e-02
      5.8462835811158936e-02 1.2073813225457224e-01
      -6.2781665533131858e-02 1.2346188497453521e-01
      3.9157687833078651e-02 -8.4280063489330752e-03
      -3.8916666885136821e-02 2.1223119245316197e-02
      -6.8133936840791359e-02 -6.1393096982673033e-03
      -6.8298786630673236e-02 -1.1201666803118775e-02
      -3.0295039875440872e-02 5.5427594380173570e-02
      -4.7350449396153620e-02 -2.0823414750851508e-02
      1.0558731076079408e-02 1.4761402475413188e-02
      -3.9149989430687801e-02 -6.8609805877239430e-02
      -2.5753259974022676e-02 -4.7614491235148999e-02
      -2.7223580215065983e-02 -1.4328090461479523e-02
      -1.4708695459158287e-02 1.0442675645548116e-01
      5.5256837682416120e-02 -2.4255391565274901e-02
      2.7413068584872510e-02 -9.8443576220932749e-02
      6.7671667964925214e-02 -6.0185599839283323e-02
      -5.5909299105118375e-03 -6.4815628035055514e-02
      3.7008467622835120e-02 -1.5093271305572276e-01
      7.1375778248096239e-02 -1.6121230340776074e-02
      -7.8530250805400728e-02 -2.8091206562799297e-02
      -1.3793663355567086e-03 -1.0774414513470390e-01
      5.3372029866282693e-02 -1.0582759063540012e-01
      -2.5445372734412434e-02 -6.6750469739378761e-03
      -1.6451469152950739e-02 2.4139733283537072e-02
      1.0238938565471256e-01 -4.7189704130356308e-02
      1.2507427492484025e-01 -3.8961344984632967e-02
      3.5134728927390724e-02 3.6218738290966543e-02
      -6.2502366330390961e-03 5.4538840639381421e-02
      1.0275602270623030e-01 -7.5975282287935042e-02
      -4.1073710509604837e-02 -5.8005792284917250e-02
      2.6193811527864593e-02 6.0533280787247054e-02
      1.0608584682734779e-01 -6.2748933711347030e-02
      -3.0121972618897815e-02 1.9701928454949204e-02
      4.7231047978818268e-02 -2.3317065932024102e-02
      1.4305650745837414e-01 -8.6801486988914989e-02
      5.9573992337941827e-02 1.1865175961410238e-01
      2.5634248932196742e-02 -3.5377247400714316e-02
      -7.3245902076930811e-02 -1.3851583824507144e-02
      4.1333327461329478e-02 -5.1758343429148715e-02
      5.3312431879139657e-02 -2.0872716411081987e-02
      7.5056797059589689e-02 -5.2835171368681391e-02
      -5.0206935160400481e-03 -7.1130027662793596e-02
      -3.3891054265511422e-02 1.2031965711495200e-01
      -2.9380809228295481e-02 5.0465312878120047e-02
      1.6769661982721163e-02 -9.9897458630190446e-03
      5.1247643646770161e-02 -9.0184346747783306e-02
      -2.7452076364647963e-02 -5.6351858446911087e-03
      -1.6214075928609677e-02 3.6236825045579705e-03
      -1.3002583514057945e-02 7.9256538201486246e-02
      1.3454215691252786e-02 -2.6179714216426474e-02
      4.3551628800693933e-03 1.2319962041127355e-01
      -4.6970149039141956e-02 5.4722894077449465e-02
      2.0793951664517707e-01 3.2701954362331233e-02
      -1.1325370822940228e-01 1.6985419991950293e-01
      6.1469203362407819e-02 1.0232370902444171e-01
      -1.1563756560807295e-01 6.3133000592883085e-02
      2.4659321837798169e-02 7.3218576948693936e-02
      -3.7735215327584608e-02 -1.1005684392706942e-02
      -9.4462248121759754e-02 7.3511481011109062e-02
      -3.6984930065299008e-02 7.3375120243394281e-03
      5.4533473935874995e-02 -4.6289994009797900e-02
      -4.2027139929316511e-02 -1.4454993350247511e-02
      -9.8104373565253752e-03 1.0054726621866757e-01
      -1.0715080126890662e-01 -1.1309193903185349e-01
      1.3519797051091947e-01 -2.9560349609620076e-02
      -6.0516048515681820e-02 1.6391911482105989e-01
      -6.0186094699453671e-02 3.6982018972952953e-02
      1.2359906136447511e-01 -4.1439007253587540e-02
      1.0033187323930236e-01 5.2383699530148854e-02
      -1.0058648484172093e-01 -9.4004285767006340e-03
      -9.3709295828301550e-02 -3.3242950812073041e-02
      -1.0127822445197131e-01 -5.1448996214079598e-02
      -3.4113136448719078e-02 -3.5774350400852535e-02
      -1.9591705391904902e-02 5.8948166319186868e-02
      1.7896484318501776e-01 6.3728545414322851e-02
      -1.1020356550385449e-01 -1.4669688921602578e-01
      1.6821314539566375e-02 -6.4511102533678880e-02
      -4.8909856750278202e-02 -5.6090076225419568e-02
      5.9413738412103650e-02 -1.5013604330621921e-01
      -1.0498510237027429e-01 -5.7922895893412875e-03
      -1.1796156543668881e-01 -2.5436612043312004e-02
      3.3282304895263820e-02 -3.8669222453612942e-02
      -1.4316106828404581e-02 7.8039426781557536e-02
      -9.0763295412446793e-02 -7.5873608601172496e-02
      1.6510076980707539e-01 -1.6134402117885666e-01
      1.1487299458124735e-01 1.6799394220212080e-01
      3.3590445712700277e-02 -1.9484693508393741e-02
      -5.5042275964332837e-02 -2.1716254651762946e-03
      6.4923363293271141e-02 -3.6996884601989389e-03
      1.0671558978017510e-01 1.9116249675687036e-02
      -3.4776839382717910e-02 4.3554026622938599e-02
      -2.8525038108624751e-02 -1.2426354661114988e-02
      3.1221319811503757e-02 -7.4696548475106969e-02
      1.1515793283706224e-01 -1.8664893761793572e-01
      -1.1335249746374119e-01 -2.1141426451338846e-02
      -4.5666138492536458e-02 -1.3223081366607609e-01
      8.6118725223347611e-02 1.0978836114596049e-01
      -2.6685897146135600e-02 -2.1919569125058308e-01
      1.6202990269200034e-02 -1.1177591537579877e-02
      -8.7672923438031555e-02 -4.9098997512359320e-02
      -5.6006537519793329e-02 -4.1323769146200853e-02
      -1.2130116342975766e-01 -2.0741315735740659e-02
      1.0070425294610952e-01 2.3377949864908081e-02
      -5.5951303105065041e-02 1.1464918997336352e-02
      1.4129348919977738e-01 5.7985415348695710e-02
      1.1221939469175744e-01 3.1225462385330539e-03
      -5.3277574546926311e-02 -3.8064845391010127e-02
      -2.1591597094504315e-02 1.4007876703730920e-02
      4.7412921351128214e-03 1.2541788012588889e-01
      -6.1193106164053990e-02 -1.0619845044949448e-02
      -7.1232093817618636e-02 -8.3793146346078581e-02
      4.7914965767073825e-02 -8.2635871697493798e-02
      -1.6286023579678063e-01 -3.8427884799872740e-02
      -5.5858846228819328e-02 -6.6413095738359212e-02
      -7.9311507463207198e-02 2.1576010034336960e-02
      -2.6340217841446967e-02 3.3185320342786172e-02
      -8.0718345704395927e-02 9.5357801580140469e-02
      4.3026545739679317e-02 1.2143173371330455e-01
      1.4301471977189747e-01 1.2057260531941737e-01
      9.3035184377771571e-02 -5.4653035255478072e-02
      2.2679791094509789e-03 -5.0809780144480516e-04
      -1.0836760392206352e-02 -1.2107755478212377e-01
      -6.0274198903106098e-02 5.9423383321222011e-02
      -2.5938601815106922e-02 1.4252409717360559e-01
      9.1472256053039214e-02 7.6606842329560417e-03
      1.1590988353464338e-01 2.7390311465334986e-02
      -3.7331491057189442e-02 -1.8216172183039499e-02
      -2.6054931935269015e-02 2.2121578262303241e-02
      -1.0435858772250958e-01 -9.2167363742396230e-02
      1.0504385949036585e-01 -1.8776748259109199e-02
      -5.8111468683605359e-02 8.2614138729533299e-02
      -5.9868238040873628e-02 -1.1612176367321257e-01
      -4.1382632276862785e-02 1.5941040769315945e-01
      -8.8721200204473452e-02 3.0939743917474706e-02
      1.2277243694854428e-01 -2.7980181727676707e-02
      1.5065742423122033e-01 1.6962757980172735e-01
      1.4517557053125751e-01 -6.9744985980622218e-02
      3.4070135197440371e-02 -8.6447189943791511e-02
      -8.2659728589316112e-02 -4.4843039147201428e-03
      -2.7132494253340227e-02 6.0063943122123646e-02
      2.2456605366214293e-02 1.1082084036516984e-01
      -3.0378712479206697e-02 -2.7694069203181761e-02
      -6.4835158101024665e-02 -5.0883377314093078e-02
      1.2129309290624862e-02 -1.6734344423221148e-01
      -4.2213505149153875e-02 4.2920486735088650e-02
      -4.8014722682764029e-02 -1.1039930545209203e-01
      4.2138893718732924e-02 4.4865504803205157e-03
      2.3039119259549400e-02 -6.1648757305253737e-02
      1.6356986333662377e-01 -5.8678749733847430e-02
      4.2691324634882379e-02 1.0242857241794716e-01
      7.7345549170113083e-03 2.0928291255212372e-01
      4.9752375175334741e-02 1.3595026024995172e-01
      -3.6003788381509710e-01 -3.1524844229998662e-02
      1.3957952903292357e-02 2.4505758949393917e-02
      3.4495318998929263e-03 8.7871629075936153e-02
      8.4500436930768419e-02 -9.7209910478631908e-02
      -2.2167375352768057e-02 1.3263679617951540e-01
      1.7747182307410475e-01 -1.0310149797820392e-01
      2.1761523779458621e-02 7.1494015267450681e-02
      9.8016263280195193e-02 1.2737191802750509e-02
      1.2215540541192504e-01 -1.1059765196540941e-02
      4.7256525916622516e-03 -3.1789163662477036e-03
      2.7227335699158930e-02 -1.5842407802270510e-02
      -7.0375885469980259e-03 6.0667479387769105e-02
      7.5266041757257457e-02 -1.1740087364807018e-01
      -7.9556734770301243e-02 2.5486866057241968e-02
      5.7272155972739977e-02 1.4117100645335434e-01
      -1.6167678930728246e-02 1.1767681540404158e-01
      5.1154756909099826e-02 8.5494119663593174e-02
      5.7873931226180446e-02 -6.5704898679819117e-03
      -1.5456994920491881e-03 -8.0578227186903620e-02
      3.8648213688318202e-02 -9.0184552695308201e-02
      -1.9674160010922582e-02 1.2371409343792616e-01
      2.4341341922795127e-02 2.5454276006776921e-02
      -7.3586205956603062e-02 4.8638835838356660e-02
      3.4380257620444825e-02 1.9465495440058398e-03
      -1.0998608362963848e-02 -8.9421670565488823e-04
      9.2930298064693145e-03 9.6646383699681582e-03
      -1.6336838910178009e-01 1.3853938110429118e-01
      2.1184445865691542e-01 -1.0993532450674519e-02
      -1.1262743115161770e-01 4.0883719151431359e-02
      3.2607111426698580e-02 -1.1936304464860341e-02
      -1.7515379807718740e-02 -1.9334444398618120e-02
      -1.0911459297668651e-01 1.0717886128120905e-03
      -1.6351743622693687e-02 3.9381573191599017e-02
      -6.3874459048701981e-03 -5.6507647471828952e-02
      4.7851126875142055e-03 -2.2720606986717875e-02
      6.9646249152471487e-02 -2.1165889698908778e-02
      -1.0630735281228239e-01 1.3650985588761486e-01
      -2.9163179782910414e-01 1.3260684696629421e-01
      8.8673749295728035e-02 -2.5468071021793499e-02
      -1.8075801876229980e-02 5.4692506535363290e-02
      -6.6712097234173290e-02 -5.6289961527346472e-02
      4.0394191895705929e-02 -1.2262738075662799e-01
      -8.2827345173251618e-02 3.9884626430811136e-02
      -5.9659269655609491e-02 6.0733081751289802e-02
      -2.0574502467374495e-02 -1.1921664282789042e-01
      8.3865124142190009e-02 1.6279543874822191e-02
      1.7454602858030971e-01 9.4214474846311454e-03
      2.4931149951223183e-01 1.0074968152483377e-01
      -1.4681482788066347e-01 1.2130216447091494e-01
      2.4985023070810139e-01 3.1147549473796374e-02
      5.8440728765052397e-01 6.2469351395805478e-02
      1.6790345988752720e-02 2.7203731858618154e-02
      9.7557061457824584e-03 5.3390465788920170e-02
      1.2274032116934355e-01 5.4687702368319017e-03
      2.4655035314385563e-03 1.8293090739095957e-01
      1.1832089161444614e-01 3.4952495010612310e-02
      6.4711619154324933e-03 4.1511781426899513e-02
      8.1158848963873584e-02 -3.1943835942711491e-03
      7.3015295666211469e-02 6.0941519706838511e-02
      9.6276036164448076e-02 -1.2172401840152105e-03
      -1.6552107970513437e-02 1.0952350133650393e-01
      -9.6256201524179907e-02 7.8576696723218445e-02
      1.9871028416658290e-02 3.5157267709538711e-02
      -1.6682953993828722e-01 3.1656802981246596e-02
      5.9365486800343432e-02 -1.5309973995622270e-02
      3.5594120168831692e-02 1.9571397940396748e-01
      -2.9007073166535294e-02 6.1795106696848762e-02
      -1.4521455999109407e-02 -1.2366215200023196e-01
      -1.8396782194123669e-02 -5.7615355695803352e-02
      -9.8249416337117298e-02 6.3504137293233204e-02
      -6.0363480360394156e-02 1.9448748108285258e-02
      2.7033946725317396e-02 3.4516740828962028e-02
      -1.2309142296799594e-01 1.4235350101361599e-01
      5.8609432093413169e-02 9.4969598206573927e-02
      1.2420675932816598e-01 1.9782980820333915e-01
      5.3570241720129232e-02 1.2902218847630892e-01
      -7.6209207585575291e-03 -1.0858735955417184e-01
      9.0847429512679073e-02 -8.3930834820451966e-02
      -3.1979634208265682e-02 -3.1751230493013920e-02
      8.8403682987742899e-02 7.9491811823853481e-02
      -6.1911183715912317e-02 5.2172991629208909e-02
      6.6401967329381043e-02 -1.3667853292040875e-02
      -7.8452067487161686e-02 -2.8613413874552913e-02
      4.7472544454151572e-03 7.9175610926991130e-02
      1.1153363445772753e-01 -1.3143125328334393e-01
      3.4203989577647712e-02 -1.1859832570333773e-01
      -1.9515249431301930e-02 -1.4108602155653179e-02
      4.2477357818448691e-02 -3.6005895631017845e-02
      -3.5609267466085309e-01 8.0809878535731700e-03
      3.8914881901068406e-02 -1.3698938548528780e-01
      -2.8720611188568491e-02 3.2862994224860546e-02
      1.0725165878732142e-01 -2.0131691779844182e-01
      1.3962986250344606e-02 -2.2395483996184476e-01
      3.1014281305267736e-02 1.3710365090934459e-01
      -1.1518819696177231e-01 -8.5303965253155423e-02
      2.2494159729774107e-01 1.3034035630950730e-02
      -4.1930368688344342e-02 6.8663771015416583e-02
      1.5290466024153607e-01 4.7980635467023787e-03
      -1.6335240757031608e-01 1.0731961190599124e-01
      1.3572332560361063e-02 1.1257553079884751e-01
      -3.1982197199519774e-01 3.8837851067192945e-02
      -1.9769776843103319e-02 -2.7504601675891423e-02
      -7.9467717254316783e-02 1.5722577437037688e-01
      -5.3528062581140505e-02 4.6678669845389334e-02
      3.3206206525052358e-02 1.2302101694787589e-01
      1.1479699709115043e-01 -5.3699522613122233e-02
      -6.6043778182234947e-02 -7.8034489486445605e-02
      -1.2333780567483986e-02 8.5154917909516736e-02
      4.1629420548024161e-02 2.2873893002749957e-01
      2.5185408208897055e-02 -1.2669756000857615e-02
      4.1415405601944691e-02 1.6100403566544594e-01
      -1.9343529793462449e-01 8.2517435879776141e-02
      -7.7601987717477297e-02 3.0743471470969182e-02
      6.3316288460460834e-02 -3.5707279547302948e-02
      -8.2120258878177116e-02 8.6654002280734544e-03
      -1.0361861602356036e-01 1.3320898442850432e-01
      -1.4990336621884034e-02 -7.3912189572754486e-02
      -4.6259804439786521e-02 -4.7161003400349677e-02
      -1.0818423025146767e-01 -2.0548924971442575e-01
      1.9947777119034074e-02 1.7031933966636954e-02
      -6.2152761197333137e-02 -9.9348404480130246e-03
      2.3341238626862451e-02 1.1190583341415121e-01
      -2.5846407752507633e-01 5.2554130288562921e-02
      -3.3223121902132190e-02 1.9483722716978097e-01
      -6.4948231360492867e-03 1.1813250493982239e-01
      6.8446935619860289e-02 -9.1281368216437273e-02
      -7.3705173082978179e-02 -1.3861296310186854e-02
      -1.5420577000942674e-02 -1.0746889214840100e-01
      -1.5230120478441378e-01 7.2789571625753738e-02
      -1.6178128912292093e-02 3.4766930788093904e-02
      2.0004679087607863e-01 -4.6016978184086335e-03
      2.3949617485330595e-02 -2.0349866349736043e-02
      -1.1951653201337915e-01 9.6682629271261727e-02
      -6.2458304349507734e-02 1.8444505388089544e-01
      8.1147075929968188e-03 6.7574442541833118e-02
      -4.4416410243897121e-02 -9.2636288304205200e-02
      -1.4557852794563335e-02 -2.9764344662922871e-02
      1.1094613200311713e-01 -3.9404113474033264e-04
      -3.5885582693394208e-01 1.0638324182394143e-02
      -3.0603434738241897e-02 -6.4692856619378347e-02
      4.4413897195099375e-02 1.2990666064306914e-02
      7.1833195089324384e-02 -7.6544917389198192e-02
      6.8906210371471243e-03 -9.2006113355005956e-02
      1.1084126719257403e-01 6.9808884670933366e-02
      -3.9237298899152555e-02 5.2884851621174706e-02
      1.1705249062574169e-01 -3.1561689607099749e-02
      -4.4151047460764398e-02 5.2224186755668728e-02
      3.8555882327800654e-02 -2.6761774293319794e-02
      -1.6964900044735234e-01 2.0187712746939454e-01
      8.5216282270284258e-02 -1.4660432852666378e-02
      9.3604259720996164e-01 9.1906512276453620e-03
      2.9582927805476961e-02 -1.0733075409625031e-01
      -1.9930839697089354e-02 9.9505572464360578e-02
      -2.2214878460560936e-01 1.8559939325671296e-02
      1.2818976239284044e-01 -1.6531284210258335e-02
      1.9230559028821925e-01 2.5202433521540210e-02
      -1.7611590733678653e-01 -7.3081530146491908e-02
      5.3653497397364559e-02 4.1920428050510883e-02
      4.9600096544558256e-02 1.8589128856739390e-01
      3.4809731142741132e-03 2.9771938503952038e-02
      4.6759056282748832e-02 1.6657417719656695e-01
      -1.5456515329420289e-01 4.2493567693631419e-02
      1.3757251423082256e-01 1.3942320165120162e-01
      5.9108309212913823e-02 2.5714067308859122e-02
      1.1629850356986736e-02 6.5397682540525262e-02
      3.6496374926547393e-04 -6.5483151555693939e-02
      -1.0599069586119364e-01 8.9822955040844490e-02
      1.8718127918682548e-02 -3.8709086993049519e-04
      -2.1283945813431576e-01 -1.0098746328491945e-01
      -4.3657399909169517e-02 1.0942137742341454e-01
      -7.7087421557346381e-02 2.1605513267260259e-02
      2.8381513378890402e-02 7.6641444089089253e-02
      -2.6099236239228697e-02 2.5147609583707538e-02
      5.3882936881022227e-02 3.5694231233707476e-03
      -1.4968398297465535e-01 1.3220240400747826e-01
      2.0823224448828020e-01 6.0430686463323535e-03
      6.8620853946930816e-03 -5.7771014111108465e-03
      -1.2533116031357175e-01 -3.5750541640327052e-02
      -6.5761052350948535e-02 3.5156855419220576e-02
      -3.5808861024952850e-02 -8.9331229694642410e-04
      8.0610451575079081e-02 3.0973796882428958e-02
      -2.6971906641929159e-03 8.3315623490947094e-02
      2.5418726582088585e-02 9.5220461286715047e-02
      -6.1617181249046610e-02 3.6812412780604854e-02
      -1.1658680762782110e-01 -4.0925697900785755e-02
      1.0358155331171921e-01 5.3221510368601399e-02
      -1.4536491461721876e-01 -6.0875609625054283e-02
      1.3774353474668979e-01 5.0271203496621980e-02
      -8.8767869618877518e-02 -6.5554326011421152e-02
      2.2520898537271600e-02 -6.8824909193040277e-03
      -1.5181449552991203e-02 5.7380097550419902e-02
      1.1284937203570772e-01 -6.0834461163550395e-02
      -4.6747706675603837e-02 -5.6525907742208975e-02
      -3.4712849257449621e-02 5.3872121399537343e-02
      -5.8835672051455339e-02 -1.4626059973383401e-01
      1.0984225068011997e-02 -1.8412667367501301e-02
      6.0673258543549942e-02 -2.7893948290359325e-02
      2.6339970579325214e-02 1.1328999830840309e-02
      3.2434080825602028e-02 1.2764541444441989e-02
      2.3111345232953700e-02 3.0753981378981620e-02
      -7.8045345491990048e-02 4.8988144817568108e-02
      -3.7961964765738598e-02 3.4017606398857064e-02
      1.5462849392034312e-02 6.9491375604967834e-02
      -1.8446123871045536e-01 1.1181055135232072e-01
      2.0979013138704337e-03 -3.2808049258742547e-02
      5.6591768870186913e-03 -4.7335508872055669e-02
      -9.2603682656963809e-02 7.5310344397184370e-02
      -3.6483200904499857e-02 7.0500820979924286e-02
      3.3226853760792673e-02 4.3238103301555281e-02
      5.4958949196344094e-02 -2.8148004226472272e-02
      3.0177819950513000e-02 7.7071300821845171e-02
      1.6116566258681256e-02 -2.6017029749842380e-02
      -1.6358562563924064e-01 1.1175187533219776e-01
      -6.3033228595819280e-02 -1.3824340102097077e-03
      3.8730901629722564e-02 9.0758801065052158e-02
      -6.2404343268555325e-02 -7.1906497026799021e-02
      -1.1263826242823816e-01 -9.3515520541095354e-03
      -5.7020832506328355e-02 -1.2721371724647618e-01
      -9.1431545244315585e-02 8.0987154821762913e-02
      -4.6644026795706506e-02 1.1948834095385388e-01
      -7.9169489544221441e-02 3.8587329097586012e-02
      2.5645487975825984e-02 2.7128238796301041e-02
      -9.9660335961926231e-04 -1.0975486590544016e-02
      -2.0099580118904503e-02 8.5812255813168800e-02
      -2.0583644775834140e-01 -5.2507096762102849e-02
      6.6607832621221177e-02 -3.5600499375689425e-02
      9.3350944702742730e-03 6.7667391195196269e-02
      -7.1989922066022227e-02 -4.3639919045663701e-02
      3.7293232132726450e-02 1.1551661069419078e-01
      5.6622106968533970e-03 4.7299378925877933e-02
      8.3464107577254948e-02 -5.5657562455761186e-02
      1.9962854065548569e-02 2.3542721656212469e-03
      -9.3533502662598411e-02 2.0952737629667970e-02
      -6.5353117303068725e-02 -4.3223272184561297e-02
      -1.0250506508126060e-01 -1.2008090810264614e-01
      1.0772649375556945e-01 7.6269007695642127e-02
      -1.6145839269378329e-01 6.5825404499066775e-03
      -1.2431473528820454e-01 2.5371490259353879e-02
      -8.2013642363989780e-02 3.8032560785609980e-02
      7.8678737054088704e-02 -8.8521459669199630e-03
      4.3877140629375991e-02 -8.3600298547525154e-02
      -8.8983206593459860e-02 -2.2116201634053792e-01
      -1.1967554616102022e-01 1.5808502490163481e-02
      7.2525440377891853e-02 1.1086845323667445e-01
      -4.2060688047704180e-02 -2.1892547274910697e-02
      -5.8657352503804890e-02 3.8137415893732173e-02
      -6.4100248982642105e-02 1.2142775666723308e-02
      8.9607069758119107e-02 -1.0669114332187070e-01
      1.5954099816752096e-02 2.8991185140948943e-02
      -5.0349761444092568e-02 -1.2206134811800219e-02
      -1.5147042207046565e-01 7.9801186880465336e-02
      -8.8768644005185707e-02 3.0584536529146840e-02
      1.3377552304589051e-02 -1.0324781899305352e-02
      -1.8910736262654448e-02 1.2813801931341284e-01
      2.5479375357874905e-02 -1.3358132206768883e-01
      1.2893196730126661e-02 5.2670345275695571e-02
      5.4570605444676130e-03 9.6053548874046865e-02
      -2.2838821677196298e-02 7.2098177833802540e-02
      -1.2742439536098388e-01 -1.0651261358977954e-01
      1.7168178875558524e-01 -5.8293016351636168e-02
      -9.3430066563806577e-02 2.2478554434330566e-02
